4.742061591478890364e-02,-9.478550748740009746e-03,2.602161608359515946e-02,7.443001605825821237e-03,-4.174763151176662246e-02,6.833860503498693020e-03,5.780210431622112219e-03,-4.084443720132713979e-03,2.744332529642931617e-02,1.599035930491286492e-02,2.279287781387797848e-02,2.401556609396338082e-02,-7.463840508230225324e-02,-2.948305862357250562e-02,5.401346840808261135e-02,-1.453778034542616351e-03,2.649081164972567209e-02,4.182400111157512368e-02,1.731709206452077682e-02,-2.004276366458090583e-02,1.742023341729903585e-02,2.990020119878374072e-03,4.883180086871738435e-02,-2.515307179705613544e-02,-1.619656684488026549e-02,-3.062241430660358338e-02,8.802533590758209250e-03,-6.323989369770442043e-03,-4.823866499564723881e-02,-4.905815883972895752e-02,-3.455819041717114737e-02,5.463201198740581799e-02,-4.534196455123459812e-02,4.816067941960020665e-03,-8.187768510425261215e-02,1.007328616487322276e-01,4.833635182285613008e-02,9.284486358358224820e-03,-2.448343820373070218e-02,-3.209093393020995971e-02,-6.248116596964284168e-05,-4.737401971945796181e-02,-2.898413688702901683e-02,2.636955857896835023e-03,-1.611591695142580022e-02,-3.727086157851161943e-03,-4.460591726223343129e-02,5.590173675013481239e-04,1.941584953362865060e-02,-1.792331571315770866e-02,-2.246366648558637338e-02,-5.882795559493252807e-02,6.214439963944067002e-02,-2.121530733522629733e-02,-3.582984724081601791e-02,2.594879534362875065e-02,2.499361231297914099e-02,6.622580856732476068e-03,-2.737990483338939574e-02,1.542141329515031578e-02,1.997835026976832115e-04,2.034110532718515219e-02,-3.478516226649516069e-02,1.293324926924168490e-03,-4.217055548333025622e-02,-1.766695594501743044e-02,-1.293613221817856672e-02,3.574543542396408508e-03,-1.566231447983046712e-02,2.889197448450452066e-02,-1.163467244688963856e-02,1.522646947107306713e-02,-1.090747604614812800e-02,-2.043705439300367438e-02,2.239442949594673896e-02,-2.585616246567012597e-02,2.441239773729297208e-02,-4.378613826014877974e-03,-4.212095839013812321e-02,-3.672647717682223784e-03,-8.280990467913152894e-03,5.125606419101197408e-02,6.453973122859539557e-02,4.785621214226774139e-02,2.390111845184528933e-02,-2.157145837004081218e-02,2.134900296312337853e-02,2.010741790336986745e-02,-3.815252499575011447e-02,-2.186043714613711275e-02,2.993696954355936496e-02,1.845250461695080099e-02,-1.647392810635923618e-02,-1.834831772408551318e-02,-1.205075618909235910e-02,-5.824162993032312718e-02,4.489776941153700990e-03,2.252432786785785570e-04,3.083598894825028205e-02,7.115968027977315202e-02,6.783364468489906651e-02,7.059287821764757831e-03,4.455630521917756243e-02,-3.767981928167477880e-03,5.489514943784847001e-02,5.825264871681903184e-02,5.333512876121391383e-02,1.776171013804115142e-02,-2.796079412329528779e-02,1.157508072702313241e-02,8.785513524924097248e-03,4.352830741352499422e-02,-4.323794274343342042e-02,6.527950368651640189e-02,9.805497824171246699e-03,-4.542795304850841265e-02,1.841518585893222801e-02,3.273137793710679394e-02,5.125306428738606035e-02,-3.779441921904940979e-03,-4.459288253775348793e-02,-1.471068304418427820e-02,3.159003987052017709e-02,-5.353821845708076066e-02,-3.064171641067336624e-02,4.268180563372316050e-02,-1.003753615036068539e-03,-9.702967068821786653e-03,-1.179866079319959009e-02,-2.293571266202031056e-02,3.025456207074338558e-02,-3.165702335408923651e-02,-4.226183490776119073e-02,6.920839112842229468e-02,-5.849791725806943038e-02,5.247115339930163991e-03,-3.384617464858758612e-03,-1.637058213569327417e-02,-3.168628472830276738e-02,-2.837333500651990220e-02,1.412140728091591975e-02,8.284816097273495217e-03,-2.589303729410654537e-03,-5.496518200050412584e-02,-2.373355838749805630e-02,-2.843257207818376819e-02,-7.055786320922147192e-02,-1.900301428447289526e-02,3.591421034107427496e-02,-7.110503014992484994e-02,-3.530248661427745627e-02,-2.033138229053933765e-02,2.036318388884022709e-02,-3.130239450203398804e-02,-1.295380100651395174e-02,-1.504117030812784570e-02,-9.870401738319468932e-04,-2.110055964462982658e-02,6.409607599648452225e-02,-2.197981326601762889e-02,9.010355367326344095e-03,-5.342360398135610755e-02,1.363874467859471813e-02,7.964928240162181400e-03,-5.564746265104496964e-02,-6.248835691956305255e-02,-1.505766755105212434e-02,8.319800019611845593e-03,-3.224739390225401375e-02,2.187445043993433563e-02,-4.181427042853100989e-02,1.593794910490453284e-02,-7.542805611181466197e-02,-5.386618855656489374e-02,2.886595854596622421e-02,2.051337484688588175e-02,2.892379884911537927e-02,-8.273262048951771433e-03,5.937940195702066937e-02,-2.733361221772697552e-02,-3.691549646391847211e-02,-2.733105984617682782e-02,3.333967285203254943e-02,-1.708285472587589560e-02,5.412509473246847336e-03,-3.966900595320117795e-02,-5.414979794376443417e-03,-5.293956493876404712e-02,-6.309342933222765459e-03,-1.318660083119616716e-02,1.067022649272179532e-02,-5.753616759600890460e-03,-3.648656108157227740e-02,2.087135405531953536e-02,5.516327981376086681e-02,5.995492219699838365e-02,-1.116224564994729510e-02,4.175994642537534524e-02,2.092785301479963694e-02,-9.493796207522373076e-03,1.123101934674812161e-02,-2.106431096846544948e-02,5.047362670942158458e-02,3.217093531945666718e-02,-1.431734972260054195e-02,2.115158073826385945e-02,1.676290714157537779e-03,2.448736217557953912e-02,-2.491242149713210341e-02,1.998726599878714559e-03,7.323433069706250520e-02,-1.807135337359525376e-02,-1.905683334533501277e-02,-8.827911289331507455e-03,-1.749571331844134228e-02,3.824582476114646301e-02,2.413159714588838933e-02,-6.173652202110560538e-02,6.039611477005873974e-02,3.119669842388233388e-02,-3.037230049944130220e-02,-1.943627687428697154e-03,2.093038531574656011e-02,-4.126975050902312314e-02,7.869928230478386369e-03,5.603901266410729609e-02,-2.798282378835578038e-02,2.964211299255049836e-02,2.260191195646307424e-02,-6.331971215125284380e-02,-6.126499677231737884e-02,6.595138111402898407e-02,-3.582888994450420667e-02,-1.276462323117220823e-04,9.263167158959983299e-03,6.197118641112182857e-02,1.897315838393211218e-02,-2.889272871436659312e-02,3.607307448119422000e-02,5.931620131108653049e-02,-7.351809138644135877e-02,-9.889823811765677958e-03,5.831380248454257759e-03,3.624087780670073866e-02,1.972417447269801324e-02,-6.260313627486721426e-03,-3.204305841304755636e-03,5.836768581849380300e-02,-1.441138433193071139e-02,-2.703063057657682094e-02,3.494780476287896731e-02,-1.909824567723286681e-02,-5.848891033095224290e-02,6.290916825887088448e-02,-3.630968866595720573e-02,-5.195159692604219004e-02,3.162529986780425462e-02,3.408305334485465382e-02,-5.230746168816210323e-02,4.791741471088080406e-02,4.531731799990378062e-02,-7.083193721777831728e-03,-1.412018952436549027e-02,1.244762109075173151e-02,4.123736236498146135e-02,-1.543920438741330607e-02,7.192700279921737661e-02,6.112584382629453195e-02,2.273684372933902631e-02,6.307690470333780081e-03,-8.782580252308495178e-03,-4.602607010968171042e-02,-3.458946101113540700e-02,2.797790808467973123e-02,5.831889594095233248e-02,6.812870971506551632e-02,-3.077945093904723567e-02,-1.388668344149809365e-02,2.397049388133976056e-02,-2.050352615290959926e-02,-3.740416339666270684e-02,-4.443715925152795510e-02,5.010769023794854615e-02,1.731985400382980711e-02,4.288165663185196375e-02,7.095756281439237305e-03,6.035829620284656472e-02,5.157521084382217513e-02,-8.032621437615397250e-03,6.255012413458561904e-02,-3.639916359939536494e-02,1.237828707590969603e-03,7.157823264478389066e-04,3.820533282148748377e-02,6.055381782966345709e-03,-1.489489090635754548e-02,-2.612219138896303833e-02,1.012855026215518303e-02,3.137972046856436770e-02,-2.083425601116607045e-02,-1.250811175199299102e-02,-2.345853895046293158e-02,-2.204604479584026944e-02,-5.233444112316424680e-03,1.417083467031229546e-02,-6.701659095380366193e-02,-3.261305858303276128e-02,3.151734885801916325e-02,1.781471931517337320e-02,3.787512255448606535e-02,-7.363038855812333895e-03,-1.447009332259037440e-02,3.178073287481220782e-02,-2.840986303247532846e-02,7.112645114737470298e-03,4.163930523704494763e-02,6.641242024025988122e-02,-5.891180734869785190e-02,-3.961715892401231065e-02,-2.579274073944587409e-02,2.856380358229286542e-02,-3.858654071928331597e-02,7.257811456608051492e-02,-1.184556023491912212e-02,4.153542826141386202e-02,5.498535657583698139e-02,-4.546009875037947123e-02,6.220823179313599016e-02,-2.117017280826643394e-02,8.784307283745919348e-02,2.830234236951136018e-02,1.132425058428401278e-02,8.964309215537570596e-04,-5.375200144971738203e-02,2.663479681797655679e-02,1.293043183849286459e-02,-1.705455059118513028e-02,1.098920298711441104e-02,2.385455476283116286e-02,3.094705914630520305e-02,6.947389856221213023e-02,-5.601684472504987050e-02,-2.052990951229543073e-02,-3.025419724357256146e-02,-2.803720439963652833e-02,-9.308474629084879937e-02,1.653372753636355233e-02,-1.971618812357524633e-02,6.536630854808304913e-02,-9.035670351004746956e-04,7.901934484018172111e-04,2.497276540255097960e-02,-5.925448498866822677e-03,-6.994125629484277545e-03,-1.296486333718411058e-02,9.654820776035657331e-03,-2.166106105192500131e-02,3.931811684195556447e-03,-3.963305082252811806e-02,-6.902105436540221031e-03,2.670572881570008189e-02,-4.519281603276449621e-02,-2.800849835304254631e-02,-5.521037869441153961e-02,-2.598053468728653975e-02,1.893286374928820209e-02,2.468919209808507348e-02,4.723710641879387551e-02,-2.433858539214531561e-02,-4.950208781661384616e-02,-3.865886007807039365e-02,2.243432284612081190e-02,2.947538942863847308e-02,-7.365474659035886607e-02,1.370875937314017592e-02,-1.550130753963490163e-02,-8.069918044253160741e-03,1.576599946207292435e-02,-2.163875929369190113e-02,-5.260258116902349207e-02,-8.282344403138906450e-03,6.631215313479796314e-02,-2.308696444912926304e-02,2.462212692882555665e-04,-3.650694239715474021e-02,2.148936418353756747e-03,-1.601499493370418803e-02,-7.450138108623810540e-02,-5.512396932972511016e-02,3.588193954378774558e-02,7.301059183251426554e-03,4.365699465456304718e-02,-1.696619705943351857e-03,5.460612850763340090e-03,-2.507913501239251997e-02,-2.237665042095147300e-02,-9.628436765159387872e-03,-6.143448212080229731e-02,-1.976807241733894924e-02,-9.245298454465283866e-03,5.414924235711312400e-02,-2.188174453178456241e-02,-6.133606240110280050e-02,5.076925572428702543e-02,-1.530046330688914630e-02,7.080150051042812670e-03,1.685282041306110021e-02,3.959255487319920247e-02,2.273817951268517629e-02,5.759226422052611538e-02,-9.750969148277600224e-03,-4.933028729493931300e-03,8.169350883466819369e-03,-2.315004095485523328e-02,-4.644713905954755973e-02,-3.954304585210682843e-02,1.139759485777098666e-02,8.821391813738030385e-02,-1.851370616331458191e-02,-3.796155503687762695e-02,-2.763799654081241716e-02,-4.770699890538097898e-03,-7.780687406909801707e-02,-3.470390990765290923e-02,2.000723595828318019e-02,4.691984253293916135e-02,5.721366569892561565e-02,-3.683734524335861849e-02,2.566678329734235764e-03,-1.698229746401706125e-02,8.603354638867112547e-02,-3.207759053241912572e-02,-5.469978890882076783e-02,-3.593457881488638581e-03,2.932865530277166399e-02,-3.624241458611034833e-02,-2.535527318642142799e-02,5.420459589459842437e-02,4.533477293934833063e-02,4.901680141039178873e-02,-4.154131478538342775e-02,-9.459201966135850903e-02,-5.798588158037906726e-02,1.953437587935028669e-02,-1.261319353466048079e-02,-4.158071685825604630e-02,5.558874339615529209e-02,2.042049995866861145e-02,-3.826337779032507741e-02,6.761943639524720107e-02,-5.751827916088717019e-02,3.318126984793508261e-02,2.072640688284860602e-02,2.699010618626135338e-02,1.745983795047923587e-02,-1.641539443174638846e-02,-4.368522702165586469e-02,7.531961161088816803e-02,-9.671497568581773063e-02,2.037878613977568004e-02,2.944431899159594829e-02,3.970841013424365046e-02,-3.291575798052763513e-02,3.913900501561082962e-02,4.532664579345567490e-02,-3.251527592752825879e-02,1.315992829878921688e-02,-1.205024861795209526e-02,-3.170141303040843045e-02,3.642760939188987093e-03,-3.213270954150253007e-03,9.114470058635167418e-03,6.828887895743714076e-03,2.333225690286509085e-02,1.134677741746501350e-01,1.474741054377244100e-02,3.132947442802371668e-03,2.076714075347667679e-02,-8.778092083875314172e-03,-1.011362044884347999e-04,1.633250421095797794e-02,-3.817739674684083456e-02,1.824244037640396221e-02,-9.763292541494433818e-02,-3.710090585336863617e-02,4.362200893573925375e-02,3.731503122920929588e-02,-3.993472630495078363e-02,1.640284139208453285e-02,-7.116803617447842178e-02,4.791644172102121901e-02,-4.070637176175439381e-02,3.685456167871819025e-03,-6.378648703758166283e-02,9.826623457079644575e-03,7.191873637881252695e-03,3.087507048867710324e-02,-4.925091331615332607e-02,-4.714719215528744012e-02,9.773924938304562327e-02,-3.071366778543341280e-02,2.966412962068640594e-02,7.061272727040637798e-02,1.092337931884072508e-02,1.567669248364410989e-02,-1.457278451167256551e-02,4.893880555141761485e-02,3.264190985310326532e-02,-7.863334059880014437e-02,9.922877591345716231e-02,1.616809165686330235e-02,1.254851026595683698e-02,-1.247950816610183394e-02,2.040717765560764313e-02,3.806011920011291572e-02,3.755170302615679079e-02,-5.590696071386432736e-02,4.892547318982373716e-02,6.508717337998791430e-02,-8.219377534870607460e-02,-4.673144341714659949e-02,-7.897769963053507397e-03,-2.799681217171457945e-03,4.181437876951551308e-02,-1.140578346910681509e-02,3.823543195145612250e-02,1.985482115448564816e-02,-2.988623885990693285e-02,6.457779711268445133e-02,-3.639777354156088079e-02,-1.462017176493908555e-02,-2.081199300795183796e-02,-9.170799815404730160e-03,8.609657590979499439e-03,-5.018699879527693461e-03,1.731765603825069152e-02,-4.879171514415289734e-02,1.940974065180630509e-02,3.561475454430340290e-03,-1.376835288699757541e-03,9.656994699628055484e-03,-2.790322407137812988e-02,9.578040673228767343e-03,7.144538683548347022e-03,-6.358475305775766404e-03,-5.033745778176910990e-02,-2.637580723664784133e-02,-1.423419995158220659e-02,6.011563047484279332e-02,-6.716057692949530325e-03,-4.445762726244781998e-03,1.589801145667486815e-02,-2.871128537988667379e-02,1.452698231419047997e-02,1.166949600388614804e-02,-1.944497985679303001e-02,8.664652266106169509e-02,1.052476143829773024e-02,-1.426893484220878063e-03,-8.848594796761682230e-03,5.843602166451195012e-02,4.593386352210826126e-03,7.984510209970992201e-02,4.316597166400298197e-02,-2.217673781574734312e-02,-7.706813645021635788e-03,1.586568703454040857e-02,-9.000667697547497584e-03,1.330332826718053779e-02,-2.473758247264658261e-02,-3.643155593270984774e-03,3.393082125501124813e-02,-1.379064883595085712e-03,-1.009556793744992992e-02,-2.456873806154943884e-02,3.867785085361863384e-02,1.215260780882472698e-02,-5.135628894512923176e-02,5.810476105729808771e-02,-1.027942644490346773e-02,3.394283688461405962e-02,2.110942144758335901e-02,-1.132259008798322010e-02,4.459005668484401080e-02,3.868531050917727726e-02,1.087568752836781498e-02,-2.224667814967107304e-02,-3.770040583429168368e-02,-6.098921200027548895e-02,-1.580811613569766891e-02,-3.535296057691342947e-02,3.283467001513126413e-03,2.191415886495001047e-02,-5.235033958068210230e-02,-1.303784044820234002e-03,4.979800175741552759e-02,-1.290059790202484000e-02,-4.201975048214674768e-02,-8.589475354407606622e-03,7.106642116068294379e-02,-3.705958826588712229e-02,-1.230008441904507574e-02,2.590787569258252293e-02,4.514319072655259557e-03,-3.148431574641178537e-02,-2.308108108198942549e-02,7.623666483171768517e-03,-2.251514917714031450e-02,-1.154803625579085835e-02,4.400187668993719645e-03,5.915036700433517342e-02,2.114377772564852292e-02,-2.703224546353414845e-02,6.028376373864906962e-02,1.647060899730678693e-02,-1.185096733232085531e-02,-4.302038902595090031e-02,-7.037122526115636989e-03,2.963369435405881908e-03,-4.528582039810059162e-02,1.621544205700351307e-02,3.055990477126482169e-04,-5.928553823455386118e-02,1.094105378996668848e-02,-1.710373444410833582e-02,5.580615976658993838e-03,-2.755306346158290301e-03,1.759710301878663133e-02,5.684969869913668317e-02,-4.240787819093470162e-02,-9.334939974609051880e-03,3.763988718625854019e-02,-3.834058661096631515e-02,-2.565975413045144121e-02,-2.135385920957035520e-03,-1.313774237334226769e-02,-5.738773003059425941e-03,1.867974658519292591e-02,-6.380816553491096277e-02,1.326400248868961178e-03,4.377041071516579035e-02,-4.366259848796770482e-02,5.567982633196882913e-03,-3.254673563514375034e-02,-3.716591797468662972e-02,-6.859287079245381114e-02,-1.285212533470318601e-02,5.991851469782994571e-02,1.030367367978158796e-02,-1.343154198841917113e-02,-6.613380966102466556e-03,8.537592333187461746e-02,-5.867201335886407243e-02,3.583297860943371327e-02,-1.975374671997596338e-02,4.430174224124985155e-02,-2.360588259881874623e-02,-4.491303740819928281e-03,-1.679802578888435136e-02,5.618360437618591385e-02,6.178957017576509891e-02,1.013370772576009660e-02,6.588428949897535969e-03,2.662136707972549005e-02,4.329335252676695667e-04,8.842420425161531122e-03,-1.507776160766549460e-02,-1.932945336210200021e-03,8.295703656774029017e-03,2.566656054069592179e-03,1.416256895652062350e-02,5.603787264622687309e-03,-1.071229074728667977e-02,-1.452600145431309428e-02,4.840302940463288295e-02,3.483076715817783747e-02,3.495036377551403312e-02,3.192721345615712886e-02,-2.329295408829872016e-02,-2.194247324063525184e-02,2.598960711659372043e-03,-2.346726917418001310e-02,7.878388436249413040e-02,4.850645161680359335e-02,1.699414469539731101e-03,-2.691448179610474861e-03,-3.742083494155680479e-02,-3.034171851695891681e-02,-1.956794153485259119e-02,-1.981033206481767200e-02,-7.617209729401356808e-03,4.588524756580521224e-02,3.267972474129181293e-02,4.247659283091702841e-03,-6.056135431391556495e-02,-6.378832803500467108e-02,1.229303251846428253e-02,6.056862740206948870e-02,-2.681233012649307870e-02,6.006928489970688595e-02,1.580851511798841286e-02,-4.195867014962367803e-02,6.772439323215626028e-02,4.451214721677045592e-03,-2.759895458702953802e-02,9.099617190054636040e-02,-6.160330385708229564e-03,2.405569578977177422e-02,-2.596354685076922297e-02,1.888319017201805367e-02,-2.499497732335597203e-02,-4.429855042683815414e-02,-4.056846700362011504e-02,-2.138873067619488470e-03,1.965188666230001380e-02,-1.255164091221890738e-02,4.059421932991549853e-02,2.418098589398837497e-02,5.424633591948747717e-03,3.764362384610057954e-02,-2.070003529772487458e-02,4.897397472795150634e-03,-3.415517769417041050e-02,3.064976999849574821e-02,2.045161035019429918e-02,-9.568686992666837476e-03,4.200394892536530450e-03,-5.091577654796743124e-02,1.806861429002784222e-02,-3.800445201053272853e-02,-2.939563418728704733e-02,-4.874963379925559281e-02,1.482769859312191643e-02,-9.932617385329006038e-03,-2.603057562240351092e-02,-5.678574652818539278e-03,1.822436921241031137e-03,-3.798139946723265176e-03,2.963775076054504798e-02,1.805680100402227289e-02,7.229834689092249495e-03,2.872887884404145414e-02,-1.574982481466132012e-02,7.429628329463779102e-02,-1.786285082047730025e-02,7.316616899670780327e-04,-2.332403998454330579e-02,1.398501597050205367e-02,-2.676311962852211124e-02,-4.218835094349596831e-02,1.264162137549990766e-02,5.841076550940332152e-04,-3.221059608156430498e-02,1.390913349301200683e-02,3.310183335149320671e-02,1.159617492748564981e-02,-1.026831265473742566e-02,-2.644190862450516641e-02,-1.919877573081463576e-02,-4.547221888591732042e-02,8.904469626561377360e-02,-1.884993598048258223e-02,3.072788793594766199e-02,4.164871564727194719e-02,-6.235236846047377025e-03,3.942009582891711772e-02,6.042366453290881623e-02,4.205688082002219386e-02,-2.619806816089968043e-02,1.327187325993894190e-02,-1.739930732892784951e-02,6.817196768515739955e-03,-5.307118315734930813e-02,-6.462246695718062983e-02,-2.019743732145046905e-02,-1.965978417984802495e-02,9.775743675369433228e-02,-3.201687307489290563e-02,-6.456522142104272055e-04,-1.534808097413490127e-02,5.694899712872470918e-04,2.270486419577895376e-04,4.795058811951084105e-03,1.609817982579352796e-02,-4.133023823390411661e-02,-5.979387676827618847e-02,-5.025587747543303757e-02,-3.148560753692355996e-02,6.995921245727379847e-03,-1.609425017176484285e-02,-1.814765306144189988e-02,1.275636096743353216e-02,1.524731735737475981e-02,-5.084367306871692693e-02,1.011796151643021557e-01,9.481204106589154190e-03,-9.022921284277058210e-03,8.392278746595534938e-03,3.306259648740635104e-02,5.608956393186532302e-02,-9.196616151701321115e-03,-4.408976807739835996e-02,-4.978286300768285794e-02,-2.322790263444983808e-02,5.022621299666793493e-02,5.054561312975432152e-02,7.968176063420870370e-02,-9.613624554556377683e-03,1.143038842574899822e-02,3.798339494405239547e-02,1.382599878334257390e-02,1.980953235256765338e-02,5.428406075625324956e-02,9.052776193144176226e-03,4.881641747094574504e-03,-3.485921163786176447e-02,-2.792688696427239950e-02,-1.117997586087857848e-03,6.040428462243786767e-02,2.295882290709119061e-02,1.546410060682922027e-02,-3.261346811169163473e-02,1.544456604699525129e-02,-1.171204091787128934e-02,-4.723463141465551740e-03,-4.955786727598898017e-03,1.812093392552328180e-02,5.634450724100220631e-02,-3.518519696712865685e-02,1.495133258238095023e-02,3.467418412458531107e-02,-3.879963812213409191e-02,8.125006647546936800e-02,1.473727315802332398e-02,1.312331217747501888e-02,-2.340855672063950343e-02,1.721845258193151554e-02,3.199423507440107145e-03,2.766917281429029721e-02,2.577544904344886145e-02,-4.368060347578017061e-02,7.530502214002963990e-02,5.366017950024466049e-03,-2.233618763897750326e-04,-4.526633742499530134e-03,-5.662613183947382695e-02,-8.948121149388846285e-02,-4.072122129255680012e-02,-1.740820319139948537e-03,5.676239317683014901e-02,-3.116525801818638072e-02,5.133456170185117518e-02,-5.609684048233399417e-02,6.057756374846012815e-03,6.643987254617431115e-02,-1.792566130695381899e-02,3.209095116400886849e-02,-2.450271384782777562e-02,4.718342641470095467e-02,5.343086297389853384e-02,-1.100461775449122770e-02,8.905687231001536280e-03,-3.617677284071067756e-02,4.231216707647958777e-03,5.896288115299018473e-02,-2.768418175066651374e-02,4.179547554602987269e-02,7.053425809526822632e-02,-1.733047342304703392e-02,-4.101756353723683135e-02,-9.787960800724535351e-03,-7.052590137003987569e-02,3.263850220388039153e-02,3.671842828512254103e-02,-1.465406846409278430e-04,4.361053714996900380e-03,3.495647399752401657e-02,-3.025054370534695919e-03,-8.161760566361839914e-03,4.444079353888006484e-02,-3.357766693783306722e-02,-6.160629072943411659e-03,-1.772474928215386422e-02,-3.612389901536764564e-02,-4.326495833038141586e-03,5.627829982102516837e-02,1.812533705671803136e-02,-3.036974335971342337e-02,1.834661134881441363e-02,-5.316742994302055964e-02,-2.547114440384639494e-02,-6.577057751752252157e-02,2.279849840454456836e-02,-2.075809064369085397e-02,2.526351187195254033e-02,-5.086990768805390445e-03,7.663960869214864191e-02,-1.241338228065767130e-02,-3.439130022163097711e-02,1.650994396047861246e-02,7.666770704024736260e-02,3.268052524673084602e-02,-1.577220783454871128e-02,2.583205957733564206e-02,1.720683943459087525e-03,1.800955773550398653e-02,-1.114105784910813211e-02,-2.877431128548680467e-02,-8.543503415117822963e-03,-1.829312287496748235e-02,1.991173537687149567e-02,4.969387995327414348e-02,-2.868631240514574535e-02,1.705596904080742757e-02,7.956672481791111917e-02,7.641383525307217719e-03,-1.701307237535398809e-02,-3.303720495075088137e-03,5.440986052060364786e-03,-2.843702172927186494e-02,1.792740603566580701e-02,-1.623981688084241010e-02,8.695861642859377752e-03,6.172993216649773351e-02,6.027503030342525048e-02,-2.102164007597281253e-02,-2.507091418578719089e-02,3.648483990997288678e-02,-4.223367592905799550e-03,-7.543819262064122358e-03,6.785138939947049468e-03,3.880341195416560363e-03,-1.577458112334097912e-02,4.716969082709493444e-02,4.361872968378220639e-02,-5.694153328011397619e-02,2.114536678415757792e-02,3.608130321870629126e-02,4.298411139887435561e-02,1.318643919448696591e-02,-1.347134540570752922e-03,1.041375463989679603e-02,3.910079249531089873e-02,1.785081062958601347e-02,4.342060228037142311e-02,-1.165302489352965619e-02,-2.020620857546907151e-02,5.643527599449656845e-02,-2.871038482950875534e-02,1.494909213971156239e-02,2.550690111508333371e-02,-5.665601048482906202e-03,-1.892644123086464902e-02,-6.240150547519714153e-02,2.052155582074844525e-02,-2.332346966668129642e-02,-2.051058837206884422e-02,4.461713199728585197e-04,-1.861266116222674849e-02,-2.622766065377491254e-02,-1.799842888549320341e-02,-6.771697994019464095e-03,-6.183586352415630649e-02,-4.898620079447474351e-02,-1.898367706932606661e-02,1.346505857341428330e-02,2.489942649377130390e-03,-7.526538804427233831e-02,-2.598240253821300014e-02,-6.595280705124836884e-02,-8.645461673584042828e-03,3.891959749271742264e-02,4.022583822353034688e-02,3.166215034070902351e-03,1.582096668315804630e-02,-2.039962111211553880e-02,-1.412925563366431228e-02,-3.764759906131869699e-02,1.540670649094870621e-02,2.918837660212465074e-02,-2.683300478032873970e-02,-8.919587060169115872e-04,3.175429966676645427e-03,-3.818468087340831651e-02,-2.225886447394381101e-02,4.742913652566530663e-02,4.599142336199545794e-02,-1.334721417783709535e-02,1.728989252218895295e-03,5.336589393158523188e-03,-2.897370139426128782e-02,-1.943286630617978988e-02,-2.966480459906650768e-02,-5.787769122261851584e-02,3.707345838113981773e-02,-1.140688886188585827e-02,1.648519150260881194e-02,4.917976549368723027e-02,3.650499188808853379e-02,-6.388986515240197006e-03,-4.048638934104402398e-02,-1.230022011422432157e-02,2.801266034006245215e-02,-4.694056945655433744e-02,-1.116367357464296238e-02,-3.095885444795779678e-02,-5.560269240328567439e-03,-5.615627100872443156e-02,4.925019279557778240e-02,5.866152468230918793e-03,4.346676697961090324e-02,7.784244343576774295e-04,4.722716880153111224e-02,-1.816604700600715772e-02,-3.532455184637497969e-02,5.163438823036407832e-02,4.732533564044352770e-02,5.575074459761322071e-02,-5.849668447862239190e-02,-2.175045143334763259e-02,-6.578614293948158165e-02,-1.997770642965916721e-02,-2.205715090205027928e-02,-6.862717828510446830e-03,5.678831368649096129e-02,-2.805879553947328298e-02,-2.679806737584434703e-02,5.100125175065305105e-02,-4.992714348193287577e-02,-7.295689979586979235e-02,-4.603355049189737300e-03,6.781205206819233833e-02,-2.805859099756304043e-02,-2.083111813951219610e-02,5.869615103502201503e-02,-6.010548579621441227e-03,3.032406251319854501e-02,-4.027321521833058388e-02,-1.722744415323497480e-02,7.237861947998744383e-02,4.485721069915669240e-02,2.241244159272942280e-02,1.491602893728688137e-02,3.933782294370446672e-03,-2.386758109772576728e-02,-6.411914810545391030e-02,-5.227964683995083017e-02,3.600604419100856407e-02,-6.618461283613918944e-02,3.430699222285790717e-02,1.003021204936212912e-02,6.003288247724661297e-02,2.658042063308601460e-02,1.723341078183181913e-02,-8.474751208515526879e-02,1.671627317978741090e-02,5.543401117301434422e-02,-1.970155637691510531e-02,-3.066546345504720522e-02,-4.400752014942626959e-03,-1.471671648189527143e-02,3.904138213372715036e-03,4.077502658872118879e-02,-1.771355837119265725e-02,2.535875097904247491e-02,1.210923041347138629e-01,2.982670266072159296e-03,3.918825740286169257e-02,2.758317666748039132e-02,7.340671530057510039e-03,-1.039530731465149183e-02,-1.210508361285667078e-03,3.572804175751574662e-02,4.700753112333781736e-02,3.451502037189820016e-02,9.479308537009206725e-03,3.370094437401178339e-02,4.025397538643701867e-02,2.658564668860629102e-02,1.324126884101518853e-02,-2.034918618373484853e-02,5.509606481167481952e-03,-2.263520354584810934e-02,3.413000267749593392e-02,5.998639465613183480e-02,-2.995934077991581693e-02,-1.239575237230307499e-02,-7.897563135055955807e-03,4.830218867364827889e-02,3.295853773053308844e-02,-2.922624112658662315e-02,-1.211640142665077954e-02,-5.498705063181903718e-03,4.780985289341302402e-03,3.011176430176446678e-02,-5.699080983185433706e-03,2.643617645988589199e-02,2.481202208758962260e-02,2.310496207190983198e-02,5.975041467767876896e-03,-1.348495022769760111e-02,2.641636764498952322e-02,4.015128540683799568e-02,8.162569476837513646e-03,-4.838135203546882479e-02,-9.212232517669977083e-03,-1.585083023475009067e-02,2.585882227670412148e-02,2.268035420024191312e-02,4.840536448163803261e-03,-6.322308252524269645e-02,-7.356183554770527599e-02,-2.768096228543102250e-02,-1.155918119237784800e-02,2.679222447562885911e-02,-3.279083778335622340e-02,-4.058181639894230947e-02,1.387431253344013557e-02,-5.860848154731496812e-04,1.998354578422369826e-02,1.725819635317262651e-02,2.226456082625358213e-02,-6.009292927831579034e-02,3.152750451363259265e-02,7.351075727448089236e-02,3.075618879195261487e-02,5.816441134240545735e-02,-8.918224450143379806e-03,7.040566142229781610e-02,1.831486380785096735e-02,-4.283163927089093936e-02,-1.613079583582873594e-02,-8.088558219018745013e-03,-4.903858453442423021e-03,1.092427471491551338e-02,-4.706887315797985555e-02,2.991732158768486971e-02,-9.482909897131141380e-03,-1.357953471132657824e-02,-3.108009299963703301e-02,-3.297455455036343158e-02,-2.771269556460124323e-02,6.716231416639141527e-02,4.592788031155072004e-02,-7.037448274930378778e-02,1.500199023239575519e-02,6.140271638335640519e-03,-1.180865871893813437e-02,1.005416586143054875e-02,-4.599169025078966855e-02,-4.580691881190639136e-04,1.656785559855609297e-02,-3.381866824562789614e-02,-8.133368524949223521e-02,2.426583414457684010e-02,7.668926107497017752e-03,-5.720039343902255657e-02,-1.768243449257755201e-02,6.066677725277559718e-03,-9.095592278388943408e-03,-4.043776687941143255e-02,4.339692875949019944e-03,-3.603125421764480363e-02,1.100948466553746952e-01,-7.463862245997641975e-02,-1.233457395943905917e-02,-5.079914872582774743e-02,3.778900467179214379e-02,-2.870057212415802125e-02,3.455634649172607126e-03,-3.592567789354772501e-02,1.681647610123956568e-02,-3.509807294679802292e-02,1.532955443151790692e-02,-4.669883755028112621e-03,1.767063517749637575e-02,-8.357294589834914078e-02,-2.429088348594357974e-02,-4.815687847057154719e-02,6.173178369241413138e-02,5.469241749466972197e-02,4.735067811767044998e-02,-1.994778325062986774e-02,8.616415083100494032e-03,1.280786874335603648e-02,-8.408021357558527822e-03,-1.645973731330152220e-02,1.706441820102561416e-02,2.256413142033271424e-02,-9.840045549268586211e-02,6.995768972487867443e-02,4.053918263076085327e-02,-1.150780597229379698e-02,-3.491321820425263150e-02,4.489076904069236318e-02,4.076819785442736127e-02,-6.983524183189638440e-04,2.417600442980059883e-02,1.835008273706573156e-02,-6.542239582611160398e-02,-2.514211666644693144e-03,-5.675804044978988161e-02,1.574023291666118082e-02,-4.843499567666686252e-04,-1.268811043060269483e-02,6.102411574359361407e-02,4.959905749674531350e-03,6.545708121835555615e-02,3.286756400339549411e-02,-1.650364092190049689e-02,-8.950888838912894607e-02,-3.541827576096360716e-03,3.914654048766551958e-02,-4.515221111625501715e-02,3.783327588288207602e-03,-6.013170858022451326e-02,-1.799657636462045560e-02,2.255125165668122114e-02,-3.547183220086146116e-02,-3.143188019258087718e-02,-1.815424552552543161e-03,3.625029207578633894e-02,-2.556437242332539397e-02,-2.430984042998597314e-02,-6.335809767352637567e-04,8.604904189324540445e-03,-1.170250021388435924e-02,-2.612426129150310916e-02,6.750906505636709853e-02,-1.360463758853226388e-02,4.247997345430189892e-02,5.967299555030958214e-02,7.541134659972270615e-02,-4.997508860514055656e-02,-2.093727330794804484e-02,2.272949212836759478e-02,4.741701082907971015e-02,-4.429021220844086421e-02,1.867855622437793878e-02,-5.620679580570278611e-02,1.697970004424844553e-02,-1.858885042400393317e-03,-7.681519697949472369e-02,1.823858079867339554e-03,6.694549890606937836e-02,1.997312113258352395e-02,2.535701731323776117e-02,-2.481521599808635820e-02,-3.019206623911252496e-02,1.859680544694101295e-03,1.096294903999883719e-02,2.379048685850888856e-02,3.228063240433646369e-02,-1.801632450142940170e-02,-3.713397398357699136e-02,-3.417165468746234669e-02,5.372945964903161342e-03,-6.306313558715854854e-03,-4.714415641553399393e-03,5.067474431751434194e-02,2.827226601439852827e-02,1.807264033912787948e-02,-2.277150726958318550e-03,8.852270460277619768e-02,-5.867300240245534176e-03,-1.962255265004042570e-02,1.604757393693652737e-02,6.193897357021526349e-03,-1.301440873216031663e-03,4.932950068878886457e-02,-2.095676496657778581e-02,-1.068394046857312589e-03,-1.546519587790875366e-02,-5.244433956401831076e-02,2.619002345222182920e-03,4.763005723562720173e-02,-1.992834459624704888e-02,2.943086862017876143e-02,-4.677433047112387887e-02,-4.716901131277897313e-02,4.365287067909579682e-03,1.000793514587489455e-02,3.678122087643453941e-02,4.470434655927036510e-02,-9.723364513772616430e-03,-2.189273290944749109e-02,-2.995129099859970487e-02,-2.035386867383777443e-02,-2.148852646629598184e-02,-3.097381322107286422e-02,2.882332895457279803e-02,2.859648172544324018e-02,1.034894259961836697e-02,2.027678967393770418e-02,-5.896180503081561650e-04,-2.060510858991464883e-02,8.091027895589911201e-02,3.018669091566848067e-02,1.515296217053666364e-02,4.691022500343464130e-03,1.926398342229416333e-02,3.091592645663969116e-02,-3.004916481250111820e-02,7.320789241390179836e-03,1.406579338263764384e-02,-1.342643906911731438e-02,-6.728631916763735780e-03,-8.480503678618651897e-02,1.157586358964234237e-02,-4.426936457351941107e-02,-4.878504498158798414e-02,-6.412634761556036678e-02,-2.007206428115767757e-02,-9.473809233204952274e-02,-5.805531179535670938e-02,1.170585167429420877e-02,-6.507456140605945294e-03,-2.142265805206575863e-02,4.563227990359706998e-03,-6.351987651712248661e-02,1.435608690983726510e-02,-4.240977137381288231e-02,2.115431511863322817e-02,1.363846504572379173e-02,3.838023210810097285e-02,1.044910997627442745e-01,1.276339595996692222e-02,7.525786973908019095e-02,-1.433717057207116105e-02,-8.874174555036886541e-03,-3.475195828268348025e-02,-3.548093798336161148e-02,-3.996911399363316936e-02,7.379712980196458105e-02,-3.382063098926556266e-02,-2.157750527373446248e-02,-5.531680907556025401e-02,2.683221075791606888e-03,-5.484669325207781193e-02,4.268948451611437322e-03,2.134137175231915276e-02,-4.746051520004901381e-02,1.404176842473256991e-02,-7.345340843037306833e-02,3.484925623644148651e-02,-1.647322427607888704e-02,2.270457586099280597e-02,1.196079351295926789e-02,-2.088473578035208306e-02,8.935633834525974484e-02,1.715230193853616025e-02,-3.565029522196543760e-02,-6.215507339003566167e-02,1.391851366665866879e-03,3.725726105114060549e-02,2.419354368637952404e-02,2.413485410739553763e-02,1.300577462597306104e-02,-3.805713774366610569e-02,-4.883081911422113702e-02,-1.425292118953769456e-03,-2.820683121101217120e-02,4.337496035335926953e-02,7.868803121844128445e-02,-2.384706367434887356e-02,-3.851107113802874904e-02,-3.589386007151422475e-02,-1.476233447111106357e-02,1.596363509104860648e-02,4.881396004599160982e-03,-7.931209359706953288e-03,8.078299472714944168e-03,-6.467146811797799821e-02,-4.055822659577092842e-02,4.123533115810051192e-03,1.910042792434584261e-02,-8.543441056495038391e-03,-2.753769952064352017e-02,-2.305316045564532318e-02,-3.498586285371408505e-03,-4.950317626254805911e-03,-6.310225919576556430e-03,8.495606598488972955e-03,-2.275419564575527701e-02,5.262597133047075548e-02,1.755098445082401565e-02,3.411473300692453164e-02,6.764945072997730069e-02,-3.638376201548797206e-02,3.925413778528054343e-02,-4.773280210062180035e-02,-6.158351808254295540e-02,2.279165448684320264e-02,1.102555372003636951e-02,5.734424805986197693e-02,9.969596442828222715e-02,-2.251493860952615694e-02,-5.158317546223713246e-02,6.982298865951445943e-02,2.214316813392045932e-02,4.045166806809740584e-02,-2.437226182988936479e-02,-3.929201879149404886e-02,3.823236655826288410e-02,-2.068564743735379352e-02,2.040341245967959571e-02,-5.128314737953730551e-02,3.691740955859085932e-02,7.961764671866833343e-02,-3.933752449860204725e-02,-2.776529744041994485e-03,2.945673295926715812e-02,-9.042399852646418323e-04,-1.051948146723783242e-02,-4.245858382714943341e-02,3.907723206377901326e-02,-5.607510828616871917e-02,-2.589801933661599678e-02,4.912267699131182136e-02,3.869728457633377083e-02,-1.971192107621912853e-02,-1.014085985155779857e-02,7.904682650756605922e-02,5.892218976675962783e-02,8.171886808912502687e-02,1.556405186520100521e-02,-2.179602195390171332e-02,-2.956657704126393338e-02,-1.109958998485831641e-02,7.616052934762837338e-03,-1.206470400576931112e-02,6.213237982123680919e-03,-1.952272693055462707e-02,-3.074291739488550085e-03,-7.388182657453020927e-04,5.983850701043642861e-02,-2.276692201272476415e-02,-8.002492552311097837e-03,3.215680958779987275e-02,-2.027595207296584504e-02,4.837027490675620267e-02,-4.812081190913780615e-02,5.250655445401793825e-02,-5.569127365506489069e-02,5.635444418958456686e-02,-2.710784906396599640e-03,1.288178559823678279e-02,5.557495498946986995e-04,5.127332843623995384e-02,4.590731709657641657e-02,9.097538092369927831e-02,2.414865780021520011e-02,3.935155736802774251e-02,1.063368319782956317e-02,-8.653453121469784071e-03,-1.027576863280928177e-02,-5.548832689120664768e-02,-4.333694834075276642e-03,2.954542035101951139e-02,-2.030241232337785806e-02,6.475287261874725607e-03,-6.085416188603049586e-03,-3.087663301407529357e-02,-5.798957837300613288e-02,5.399355644948600208e-02,9.002157276374482542e-02,9.359726500338230726e-02,-2.007970877751098782e-02,7.484750076793593443e-02,-4.506496436336504541e-02,-1.958529974011421343e-02,-5.672071310296560032e-02,2.713131121401773926e-02,-9.764802498562125121e-03,-3.733771663882387570e-02,-6.244835261140246896e-02,1.813885223655434947e-02,6.499496579483068741e-03,2.913659056620149582e-02,-8.796175199581512602e-03,2.651963216583372307e-02,-1.643844891356914875e-02,-5.720780547850417772e-03,4.351311900074448374e-02,3.466241760118213278e-02,6.268671442988954512e-02,-1.539195961017655358e-02,6.716210748322089426e-03,-4.476424806085013523e-03,-2.187924558305509234e-02,2.076564593773069095e-02,2.218535188076821776e-02,7.324687522248357618e-02,7.859150631119947439e-02,-1.788863003560992385e-02,8.620624869702695620e-03,1.061255860941472465e-02,-5.119680331493488626e-03,1.200377269139001404e-02,-4.434685910191654527e-03,-3.282305686386624566e-02,1.220925846790872800e-02,2.728835003803447776e-02,-4.706428083376586191e-02,-7.812640372033792524e-02,5.355542546144267252e-02,-2.790255103844144387e-03,6.431100899667270554e-02,3.952780356368901238e-02,4.113660188302930426e-02,1.065395846873308516e-02,-3.583728730309126975e-02,-9.913408312242775328e-03,-4.188301676975287637e-03,-7.147782523635555149e-03,1.765097968489566169e-02,8.959897814705141544e-03,4.125132760409962185e-02,2.104665803122224288e-02,-3.166637707808277191e-02,7.954311838335829943e-02,-1.458558303999318330e-02,5.839668220934945975e-02,2.891597585476801680e-04,3.072614227591665206e-02,2.378951398192422420e-02,1.731265199263051432e-02,-4.185801020315773474e-02,1.519889743485781063e-02,7.450424581999300078e-03,3.507822878768733846e-03,-5.792171701196861811e-02,3.230212902424703381e-02,-9.460834710177327966e-03,7.224175896407197817e-02,-5.139327862383381157e-02,1.430887364295489392e-02,9.432190279275668582e-03,7.423620826408434958e-02,1.023521191881677540e-02,5.018774718036812105e-02,1.357412740207612073e-02,-1.091513119531043775e-02,-1.558915507214325702e-02,5.017682643672737031e-02,3.415131002275382383e-02,-4.188106402396577464e-03,3.888475776577847431e-02,2.816986302909869899e-02,-5.932299098605381404e-02,2.145036484208979327e-02,-4.828750620867347521e-02,1.960366230735331727e-02,-8.204247622180942112e-02,6.040193510622130640e-04,-2.886935184434429383e-02,-5.134937350340990775e-02,-7.540671756935742043e-02,-8.836793454351576926e-02,-1.061418828728911620e-03,-9.366245528125132641e-03,1.809814529159624319e-02,-1.619144173287591706e-02,2.728871773565069714e-02,-6.635317173617734723e-03,7.545170952341800387e-03,-2.354143460175758124e-02,-1.393444940356339951e-02,-1.533791236885562875e-02,2.840953040323765041e-02,-4.430766611057688001e-04,7.016716049169768182e-04,3.104115730847398832e-03,-2.178885340453724979e-04,2.187287753657823908e-02,7.109832606600982943e-03,1.033043149705573094e-02,7.307004597181750855e-03,-2.939071331001521376e-02,-4.569440871134609894e-03,5.753187148851087590e-03,-1.674197883297777033e-03,1.159484753303915115e-02,6.206488795558277871e-02,2.284346952680096215e-02,6.867457261343842823e-02,-4.739540249625332977e-05,-6.613381320742883762e-02,1.441152003589761532e-02,4.533508377185730548e-02,-1.086388487532645615e-02,-1.254505644143328463e-03,1.696324073698361745e-02,-1.999740173019918989e-03,-2.890630646825036176e-02,-8.790712486449175217e-04,-6.029856812050798237e-03,-3.373074085940296757e-02,-1.066463453239462067e-02,1.918583738750995887e-02,1.423724960772072921e-03,4.928803833116424116e-02,2.610766020047747271e-02,-1.214469352615916639e-02,1.085749162970774465e-02,1.098578811976868783e-02,5.723370096237771765e-02,1.262714996574279547e-03,5.253222217235638258e-02,-2.755502208937499631e-03,-6.885890498584673614e-02,4.929390885257758925e-02,-4.186084544479592995e-02,9.907223600803982677e-03,6.617847793757953949e-03,-3.391736718644170617e-02,-8.119345232700465875e-02,-7.586923233847276370e-03,-1.047887120229690910e-02,-9.883496179093552783e-03,2.957660575647180420e-02,-7.765141085787842512e-02,-2.106272444071386959e-02,-7.115597396638989429e-03,5.188802667695104065e-02,-3.294337782864840275e-03,5.649662450784878609e-02,5.051035069412203315e-02,-4.347394623934891685e-03,9.680511509671253789e-02,5.285776931796769967e-02,-6.412051899120944920e-02,1.941796727431465211e-02,-2.145368322193845489e-02,-3.446442367878998353e-02,-4.462945190619886648e-02,2.877562690866183534e-02,4.219214692343037365e-02,5.040174747243213182e-02,3.230826062687785355e-02,-2.508279055096439281e-02,-2.285114516119781530e-02,-4.286162452565294573e-02,-2.637861070646009554e-02,6.076734241874902354e-04,-4.878139461488179354e-03,1.808175033714921887e-02,4.822303270457820035e-02,6.745357867178093658e-02,-2.801917714946896079e-02,-3.479632159871202252e-02,-1.467061367625375513e-02,-1.801035854268843647e-02,-3.498694464918725155e-02,-6.591622510359906872e-02,9.914922017363535581e-03,1.863900189021740206e-02,2.316956571368980131e-03,-6.269612430112850646e-03,-7.585410987359594848e-02,-6.837765308302620748e-02,3.402702432809147359e-02,-2.103751314704772196e-02,3.780650621602386907e-02,3.656502027488221090e-02,2.014404618735601837e-02,-1.797843664748209960e-02,3.700456961965954694e-02,-9.191920088401486777e-02,4.736576370289303367e-02,1.637446178600510116e-02,2.487849497286111211e-02,-2.012533983675079963e-02,3.174931834130750863e-02,-3.496745377335657508e-04,-1.514295979834157958e-02,1.237843935827626085e-02,-2.368991021976449979e-02,-2.522399538941202946e-02,4.248037766495370293e-03,2.046073038850750730e-02,2.547490824063291734e-02,9.747496351638480772e-02,2.265105259430421486e-02,1.668944930801116375e-02,3.027518539651987556e-02,-3.632993199398074774e-02,4.590732881222221728e-02,1.103180434189781345e-01,-3.264249877400201422e-02,-7.767047619992750729e-03,-1.582314209271172209e-02,1.364309614936917107e-03,2.942670977040271266e-02,7.247223030208570574e-03,-4.919034582509637654e-02,-3.673015158274268305e-02,-4.290525187054924222e-02,7.041003021041655069e-03,-5.481984793920990223e-03,-2.387419112573021043e-02,-2.043528150882424968e-02,-3.319538063192332272e-02,-1.124562474826239916e-02,1.716027284340167908e-02,-4.445607661797640418e-05,5.435000159226156813e-02,4.205134899284909689e-03,-4.662586463859719893e-02,6.139774116497132006e-02,2.086030542430904883e-03,2.708692365900959229e-02,-6.407858827864888751e-02,-3.540247187097998044e-02,-6.012457204955490297e-02,3.746895107401848612e-02,5.707256696364439857e-02,3.866068164173309257e-02,-3.676857690873497342e-02,-1.532098452649147471e-02,1.455799140346679746e-02,2.875550656966380583e-02,6.136831168890918148e-02,3.358628394608671047e-03,-1.996217766442056826e-02,-1.547231374377419817e-02,-6.428267794008752506e-03,4.817455617462754539e-03,-4.309477726789177204e-02,-5.228368666951273280e-02,2.203609475101479115e-02,-4.071104792283892007e-03,1.914282952674863439e-02,-2.472505013258206874e-02,2.587533915052697697e-02,4.635176681736143112e-02,4.526200484604276514e-02,6.320984356563960627e-03,2.276276634690458517e-02,-6.734538026551435685e-02,7.456558494274527493e-02,-1.190462195933742785e-02,4.828946948636238766e-04,-4.575337753594570234e-02,3.348950102844903270e-02,7.130819509299766989e-02,6.841383784919982669e-02,-1.844781045127550159e-02,-4.216099239456937847e-02,-3.302433878412106005e-02,-2.459473533086977554e-02,-1.040194121081152931e-02,-5.679977980052654946e-02,-1.994260421015330020e-02,-4.577870567253768119e-02,2.599732308406881715e-02,1.363665982713530705e-02,-6.604255425781788147e-03,1.362648913414775398e-03,-7.828444181368088284e-02,3.429238926182567870e-02,-2.751269186975613748e-02,6.769335985039991177e-02,-5.009639687975200872e-03,5.025984852261238672e-02,-4.943383726308610282e-02,-2.230395353793136401e-02,2.405789741843500362e-02,-3.399193798885732226e-02,3.431403349551999729e-03,-7.054756500392732159e-03,5.854317692618628277e-02,-2.043604612498533396e-02,-7.693270740142029579e-04,8.387060701119594675e-03,-1.677820936009793290e-02,-5.353091610868973560e-02,-5.883590570055835176e-04,-2.136069070692447197e-02,2.365039272874039367e-02,3.437214034296717097e-02,1.955487676023424937e-02,-4.219051240045821466e-02,1.571101828543813861e-02,-9.146510238485349581e-03,-1.062065171356340113e-02,-1.424121530427834535e-02,2.547593550012594923e-02,-1.755814751353983877e-02,-3.809303154154650151e-02,9.264769854024965112e-02,-1.262918915322103763e-01,-4.471736798635326388e-02,9.132659729638916563e-03,-6.311765037927660749e-02,-3.242012811325666738e-02,3.531696851997059849e-02,-1.698890828756855279e-02,1.256238498468382758e-01,-4.908622058685285783e-02,-3.384734995511718553e-02,-2.603076823225217856e-02,2.947837576692442091e-03,-3.251928444123980411e-02,1.575837729280760158e-02,1.924172056489281690e-02,1.910472105783087710e-02,5.668713380156849974e-02,-4.240941041021850655e-03,7.291717931816389664e-02,-1.395564962780382681e-02,-5.780546584186573369e-03,2.725098573224321238e-02,3.874159349732292368e-02,1.076561728449797715e-02,-3.580265403749748748e-02,6.263584454377876809e-02,4.071446610065526661e-02,-2.422027743788482401e-03,-6.202607364021765074e-02,-1.893596235859332060e-03,-3.048613713933235811e-02,1.514075779385843160e-02,-7.853032182447599804e-03,5.199273758652054461e-02,3.864271176196142771e-02,-2.207632041768141720e-02,-2.799099386969150505e-02,-1.257312212390982765e-02,1.749243489696991269e-02,9.096596741456589030e-02,-4.052787783504684799e-02,2.797051367926554552e-02,5.145541235037116509e-03,-1.117937767911078226e-02,1.196754709782114900e-02,-1.067188823027289367e-02,-1.672614737764068979e-02,-8.735949926910735464e-03,2.410273107521258840e-02,-3.702740774572813032e-02,-3.245281188722266841e-02,4.212932516826738485e-03,1.542015827948543805e-03,4.788442650906107184e-03,1.905815545682824561e-02,3.465284820552829576e-02,-6.532400955815347021e-02,5.867747088653962190e-02,5.905116034256097796e-02,3.553461050338750649e-02,-1.660385575554028381e-02,-1.525335864901852453e-02,-5.728795139278650139e-02,9.005357493180625103e-03,-3.831458233540312869e-02,1.521583787119370687e-02,-3.664791560812533794e-02,-1.609725299987361039e-02,-1.829734710308823439e-02,-5.587085372602454414e-02,-7.744927022008299237e-03,-1.866657090306080014e-02,3.542722996846750516e-02,5.679755100035897841e-02,6.996816873347664473e-03,7.437491575261631627e-02,-5.527217386506726171e-02,3.186937927961838030e-02,1.520750171390773155e-02,-2.557966608930122704e-02,1.717388400861962795e-03,-5.172911076117463203e-02,1.004273743541731975e-02,-2.551474547175910934e-02,-4.242220148740562247e-02,3.344259206240149385e-02,-1.556376272108209169e-03,2.704618993029866275e-02,2.445120297236498194e-02,-2.008265114241938529e-02,2.616279567683023333e-02,4.135343337416828857e-02,-5.091955750563238736e-02,-6.235060223085156852e-03,5.186000484841935682e-02,1.945469830224001370e-02,2.852743546881898740e-02,-1.000142075069620357e-02,-3.097559719832080477e-02,-8.787807562793082880e-04,-3.384430175470613811e-02,5.774438581804255954e-02,2.647098104375282535e-02,2.357539800384581344e-02,-1.790624714539577889e-02,-3.115084059257798577e-02,-2.872804574787030454e-02,7.057160302363829109e-03,3.174931505726132086e-02,-1.815490369049514024e-02,-5.660128675498734413e-02,2.788199283134202081e-02,-2.615026844497504027e-02,-4.550892659670652957e-02,-2.990907670717100550e-02,-7.101714789252477900e-02,-1.446886060839161058e-03,-1.468272399605071409e-02,4.899213217166738937e-03,4.813710464546077511e-02,3.865299082398857694e-02,4.877947699593919786e-03,-2.748560822510457205e-02,-1.425823148733956769e-02,3.841875113390510327e-02,-2.247222845793085677e-02,2.086296355045910711e-03,5.339293736322733852e-02,-6.336206396590590706e-02,3.463283506653600657e-02,3.467636225033654540e-02,-4.942508338519772254e-02,-1.347892051864461871e-02,-1.485250594526744093e-02,-6.309436755982716916e-02,-5.719157829595376830e-02,2.210446880526824656e-02,-2.734321063331016100e-02,1.064189360488604699e-02,3.397490283767450742e-02,-4.556271220365822744e-02,-4.041979190337600947e-02,1.453819868508334119e-02,4.596185328684017357e-02,2.472354270018261441e-02,4.962704372841034856e-02,-8.832055000376768175e-03,9.082756548787762618e-04,6.076411491782322122e-02,-6.116381735888351545e-02,2.471368256247661460e-02,-3.324079428675168202e-02,-2.593253310917778900e-02,-5.599439088266094933e-02,-1.078369202033415408e-01,2.986315958255467834e-02,4.088801155063950116e-02,4.419604708382426222e-02,-4.749637194871330487e-02,1.379651621274678372e-02,2.696942175364185762e-02,-4.966003270892755533e-02,5.621597083257356964e-02,-4.278991370959251556e-02,1.955513642830780663e-02,3.737350733636289613e-02,2.904540873195589346e-02,4.539166790544336277e-02,-1.198356347359779903e-02,-4.376205763445687597e-02,-1.708570970140535147e-02,-4.267607807034875383e-02,6.442617156543228862e-02,-3.668232977231611347e-02,-2.717188936772212127e-02,-2.968121321139394198e-02,5.927901796567235093e-02,1.261647518384387094e-02,-8.690455845354261993e-03,-5.132652700978060367e-02,-1.333398252962957921e-02,2.334208616391927893e-02,4.656946728963039586e-03,-3.004140744938636753e-02,-4.319597591107172951e-02,-2.190434015393079303e-02,-2.759387847144103428e-02,3.846296013726796525e-02,-7.792184638821971626e-03,-6.933535405461642431e-02,4.215262521063885270e-02,7.332158057869680480e-03,6.026138631979926358e-02,1.194289273036451896e-02,2.949568984941017616e-02,1.697376517167512380e-02,-8.791697829449783563e-02,3.784163565670141047e-03,-1.417134812753315619e-02,1.503091369375198459e-02,7.065317074746788051e-02,1.083874540200736869e-02,1.954721915074619440e-02,7.279512476994206421e-03,1.111183937098879186e-02,1.181052206759935705e-02,1.592049008990962730e-02,-4.022365340906949166e-02,1.280448325199266477e-02,-1.448180352079598415e-02,-1.042250316758715038e-02,-4.626997792651601354e-03,1.054286524376952909e-02,-1.695818233904905839e-02,-3.559056524455984222e-02,-1.960453902880694710e-03,-9.290217989424770506e-02,-5.848961322866950800e-03,3.561030972184041354e-02,1.157204180824112326e-02,-1.143934832672097515e-02,1.216725249530726909e-02,1.091912576584509742e-02,-4.003874022643471448e-02,2.721608877789431780e-02,1.521581094179742973e-02,-6.355309171481726693e-02,2.666486026966673195e-02,2.842657675266542505e-03,-2.731238931175931223e-02,-4.693514851543631461e-02,-6.986779001653935922e-03,-2.469763615931525047e-02,-1.778493906752350376e-02,-8.367837819837743718e-02,-1.816080273681167784e-02,2.223473213883440935e-02,-1.922647977631428140e-02,1.922034967434453623e-02,9.783991917126293875e-03,-6.674773786234435013e-02,-3.985265539591730660e-02,-4.737273758977127852e-02,-1.299086854956561267e-02,5.068587662834390939e-02,-3.634634741806037905e-02,1.107086126856115203e-02,-5.228186762646912233e-02,3.258502656637705247e-02,-1.987889281298288804e-02,-7.711839092522664030e-02,4.792986449741349145e-03,-2.917231197059890965e-02,-4.069913010946798332e-02,3.693328520242263047e-02,-5.774473074566190828e-02,1.403298802575021417e-02,2.741759061081044599e-02,-3.428283809260357362e-02,-2.341324546505658966e-02,8.528882986072631317e-03,-3.649128511587848567e-02,-1.056648804713140183e-02,-2.085018203288985239e-02,1.523770177547810120e-02,2.528051851448143150e-02,-7.594805314767949164e-03,4.382761762071527185e-03,-6.409409211186427313e-02,1.160481557173569447e-02,7.166019580464286221e-02,-7.697244573673667212e-02,-1.359157544494039339e-02,-3.637781328272231968e-02,-5.929995107987506148e-02,1.878636203771423541e-02,2.978378713009174547e-02,-3.693557754882447614e-02,3.617044001191385694e-02,-2.441261126036512949e-03,-3.695188617775305162e-02,1.664750210495882440e-02,-8.497916830675817518e-03,-1.852862258007833239e-03,-3.468595541383502623e-02,3.558398549024271995e-02,6.757579980179072299e-02,6.241258137675575329e-03,-5.804872628465853474e-02,-2.808348413412045663e-02,-4.608671110798944620e-02,-1.580299386696198613e-02,-3.868883227164640615e-02,-2.944136721832917719e-02,-3.077085096263352387e-02,1.625868009567334183e-02,-2.932695562843004979e-06,3.297578200784888336e-02,-4.471348063102810466e-02,3.466684499280769244e-02,2.691270526335156482e-02,1.538641101470479208e-02,3.047664010029692283e-02,2.015383858367258627e-02,1.557261130760241932e-02,8.650561139380476966e-04,-3.968342454079756138e-02,-3.139078843105606170e-02,-1.092305587110542139e-02,1.627260809936897229e-02,-2.528100621728137168e-02,-1.017005630272996286e-02,-4.220761360542145402e-02,4.734981086959890589e-02,5.333285690638184251e-02,-2.508332913709668960e-02,2.809240883897828889e-02,6.424870876759723043e-03,8.621162379238173773e-04,1.825672966137259490e-02,-3.845248500127733393e-02,-1.371311678826404867e-04,2.040854952322434038e-02,-4.491061465704972167e-03,6.596583653551812108e-03,-4.164247240019009616e-02,-3.711125866911414717e-02,-3.705450532819518777e-02,7.205073027185360246e-02,2.514527043991848787e-02,-3.542707007884744047e-02,4.870860496513886029e-02,-2.524924415342195277e-02,-1.432671778100738993e-02,-5.524087457569944876e-02,4.386458698827037776e-04,4.888962117534416396e-02,7.375282175206727964e-04,7.858015071006178853e-02,4.485222181484450898e-02,-3.083410825234435965e-02,-4.014487398879519608e-02,-8.647890325423591984e-02,5.882983981941439927e-02,1.875795241630610205e-02,1.095293891945138820e-01,-3.113858091199364631e-02,-1.009475548554808477e-02,5.608408073992056375e-02,-7.146010346544912073e-02,-4.686877678665409344e-03,-1.472334042333528839e-02,2.295201645636420901e-02,-4.925117393104533857e-03,9.491841386581095774e-02,1.309271356659068124e-02,1.936212761240117819e-02,3.671539305906517531e-02,-4.093148552089812681e-02,4.050962868795451172e-02,-9.730044648591815171e-02,1.064837682823140813e-02,3.253971621746641618e-02,-6.658490236630890124e-02,7.147766108962581855e-03,-1.693909558233964996e-02,2.395084366497538669e-02,-1.775562099349522679e-02,4.234609857847966563e-02,3.866907588640975529e-02,-2.738385270445269776e-03,8.223310851665364268e-03,4.376512649331346094e-02,-4.655497739520559480e-02,6.248620888681265251e-02,-2.028615631760426197e-04,2.120785748052868291e-02,2.898908592382649571e-02,2.201173625534931858e-02,-3.165617047532686898e-03,1.966085977530037526e-02,-5.518703926636624180e-02,-2.195230433292935310e-02,5.695365125289561514e-02,2.762634304559140330e-02,-7.048551947369839643e-02,3.058677283049782147e-02,-5.119284589593114942e-02,3.031444321855396307e-02,-2.597140872106765835e-02,2.409901107726456979e-03,-1.594853340549354237e-02,1.495612140298690704e-02,-3.760653283579902528e-02,-4.453358948900044967e-02,3.991451535199223855e-02,-1.719647764090975750e-02,5.691465241475339443e-03,-2.078806912241680516e-02,2.951071851298310567e-02,-4.526415930613973682e-02,-1.684655623406955405e-02,-4.644297603299393090e-02,6.354686905020105747e-02,6.640120884596785455e-02,-7.399008937642900796e-02,5.529429493460864126e-02,4.878499782938036655e-02,6.006090253297852177e-02,5.104409215008767764e-02,3.712385979477645509e-02,-1.940694707029408383e-02,4.770065021821854462e-02,-1.006111053071940750e-02,-1.408047427175910041e-02,2.217519030183308371e-02,2.221296757487162266e-02,2.178354325335789612e-02,3.713575175415441063e-03,-2.991834793655681266e-02,-9.396319452489160923e-03,-1.454514541551478815e-02,-1.609326190719356786e-02,8.172310624343957081e-03,-9.903388825389539130e-02,3.610310094408775844e-02,-2.619071513550379465e-03,5.157958809821732576e-02,1.172559225323919520e-02,-1.164818270906083433e-02,-1.327201039746115675e-02,-2.939031110655904167e-02,-5.748664647776445535e-02,-8.614081508793504371e-02,1.566928570612757809e-02,-1.049281841870011583e-01,-2.775175963739417301e-02,4.855560646644961620e-02,1.191278729515414525e-02,-3.413762111729257837e-02,-7.947669069605386993e-02,-6.871232128405310377e-03,1.585767962459341124e-02,-1.684579091523963346e-02,1.239761485661076273e-02,1.817987544038341535e-02,-1.282627443472015433e-02,-6.824881298097631999e-02,-2.289843440614523426e-02,-1.497199126729840263e-02,-4.082522711266017845e-02,2.243794907229240687e-02,5.314869106060280540e-02,-2.963246534519151446e-02,2.640665986466131376e-02,3.847665473586909385e-03,-5.438263531842377901e-04,-3.951010104586989702e-03,2.554152180182896192e-02,2.209723511744117116e-02,-3.421078683308972218e-02,-1.710699342046144433e-03,3.834886425324596920e-02,1.596127494140099634e-02,-9.918568810578117650e-03,1.552542444140434137e-02,4.712006227077153442e-03,2.835087919865574707e-02,1.861860860588208239e-03,2.744475197313826081e-02,5.143599482804823465e-03,2.525028516194205777e-02,3.335206750497746175e-02,3.498620640770264134e-03,3.294839842515478318e-03,2.344646609351455982e-02,-3.569440560053634137e-02,2.708803000341310913e-02,1.113098746713435394e-02,-1.701161753024445222e-02,-3.866494043772406020e-02,-7.873719444257870625e-02,-8.839358356287851937e-03,1.424660476202946335e-03,4.172538214219811969e-02,-1.664834001074416182e-03,-1.154905149916994611e-02,-3.272501954988319556e-02,-4.875147122043494569e-02,4.837499055852718943e-02,-1.441429683399472403e-02,7.610353380355591724e-02,-4.163548719082187793e-02,5.444339491119488256e-02,1.382602925756297799e-02,-5.707134597400220430e-03,-3.276310604839064583e-02,4.953280372438653711e-02,-7.243097436987612318e-03,1.570899008292743135e-02,2.067386820944368958e-02,1.567755524805623454e-02,-5.067651157046002691e-02,-4.193507391329736461e-02,7.890851418961522534e-02,-2.744891984036763183e-02,1.294379790859492840e-02,-1.117193526281700169e-02,2.600301046842947231e-02,-3.454503233131274442e-02,-2.816894001028934225e-02,6.140615214837014807e-03,-2.267418605420402911e-02,-3.837116245345450344e-02,8.455041301363179149e-04,1.148318750489746819e-02,-3.442819829781675056e-02,-2.725320620893839640e-03,9.794922378629552367e-03,4.218272463109434822e-04,-1.141006483698303944e-02,-2.804075226804495641e-02,3.160531353360827161e-02,-5.460897809717843443e-02,-1.918689545281762610e-02,2.162140495982096261e-02,-2.682121258803551317e-02,-4.257266638071169340e-02,-7.177452892292436604e-02,3.759338539235542592e-02,-6.287677770226706396e-03,3.991583745041611675e-03,6.220810689861493159e-02,5.688931121243271521e-02,-6.117688504565281515e-02,1.786289218820516500e-02,-5.182217950929705885e-02,3.490413720349637948e-03,2.248675724553917885e-02,1.355035308632200619e-02,-4.488363662733257931e-02,-8.048556723036778826e-02,1.584846818709332791e-02,1.981205059996096057e-02,2.261070308415479013e-02,-2.150099296244475239e-02,2.585199776632524787e-02,-4.801224051015756666e-02,-4.268814487759239190e-02,-2.837994888202240162e-02,1.802645316313715093e-03,-2.258057565109702035e-03,3.394569290932600292e-02,5.470241222851276314e-03,-8.301724124472602273e-02,1.186129445919057411e-02,-6.756418285010185043e-02,-2.190838761884625341e-02,-5.968338847639068773e-02,-5.519622361871217436e-02,5.037899599984110334e-03,-6.304303883676679390e-03,2.980139611680490686e-02,1.266457921017063656e-02,1.544427270024894237e-02,8.012557843692942605e-02,-1.017897080705274133e-02,4.617960877302108164e-02,3.029993098360081807e-02,5.003638138232300442e-02,9.022609191567491915e-04,-1.031072648737297454e-02,-2.648647007837402062e-02,-1.040497828907407246e-02,4.507600576590055710e-03,-3.101093054190373621e-03,-2.482779765435370531e-02,4.068913426074424744e-02,3.495430703814514373e-02,-6.363771969292264519e-02,-5.825205183926030622e-02,1.495106948730752505e-02,-2.042939797997250090e-02,-2.186064733983771047e-02,1.250679376574078544e-02,-4.513804627320954638e-02,3.670281042262614479e-02,-3.193218547249191547e-03,2.015554186605891460e-02,3.207987845625613621e-04,2.920299323932181584e-02,-3.595613147668173110e-02,-6.603602660997209828e-02,-3.140971623292912462e-02,2.367638452609375360e-02,-4.187271763732852703e-02,2.447060307242290497e-02,-2.894293577462263289e-02,-4.878328120677684343e-03,2.992746108375799255e-02,-6.018966546197692530e-02,-2.185608775925319824e-02,-6.737467656089630996e-02,1.347538367094174711e-02,5.134627254500669785e-02,-1.601712577325560202e-02,-2.382978070409291771e-02,-1.740046557548257170e-02,-3.587176659147280067e-02,-1.602742231140742712e-02,-1.694191066846149549e-02,-1.596494021557711557e-02,3.325036852735541171e-02,1.759175767827861336e-02,1.519885188653702889e-02,1.635074073452789933e-02,5.432584144213180311e-02,-2.253400769847536261e-02,-6.708865421443523103e-02,5.239125021583975611e-02,-1.889033135366732785e-02,2.462840801395782195e-03,4.973159362007933959e-02,-1.300300381004714650e-02,5.318828434728438415e-02,6.770668813586641285e-03,6.914207670670903527e-02,-6.412096713572502937e-02,-2.304562128510164246e-02,-4.199813976304646659e-03,4.127465736799577380e-03,-6.508476364990498086e-02,-2.792031473642265366e-02,-6.516134331969997313e-03,-1.562913924063919109e-04,-1.126650208457168414e-02,3.592016871891862140e-02,3.357769123923854543e-02,-4.414856033253235917e-02,-7.751500441679291808e-02,-8.568435654384570777e-02,-4.507037550724048158e-03,1.080607779571786040e-02,2.608281164927836113e-02,1.448358798362145428e-02,8.462737423318178812e-03,-3.356379659731533772e-03,-1.534766256485271298e-03,-1.281138956120408132e-03,3.539184920088339625e-02,-4.997616292169021479e-03,4.403891019345093638e-02,-2.412992532787401612e-02,-1.785739366965718306e-02,2.493211058495852644e-03,-1.542532094051185000e-02,3.270573384704458103e-02,-5.986509939092166110e-02,-3.231017580487808433e-02,4.029827965345937624e-02,-3.768271536821699193e-03,2.276542518875762991e-03,-7.464048357500859682e-03,1.502190451756887923e-02,3.513332915376504023e-02,3.733719987233501819e-02,-8.143617438894678109e-03,8.158790708705455919e-02,-2.164210271350736764e-02,3.829471127322731094e-02,-4.504487504076000459e-02,-1.455037028805915289e-02,-4.700982718804714439e-02,-2.833508006280338956e-02,-1.882069816910165311e-02,5.532327773044390384e-02,-4.288518879996895683e-02,5.503361698338121721e-02,1.333050022229362135e-02,-4.436719613713335786e-03,-1.075489380578587874e-02,-2.573962234518963055e-02,-4.971126151591787751e-02,8.225561462738138763e-03,5.706002412903683069e-02,2.468385964682286767e-03,-2.203257727333919960e-02,1.880585515691775983e-02,1.591844329346654013e-02,-4.480510957279626449e-02,2.252079249059169355e-02,-1.095856554917951642e-01,-7.841676891269289823e-03,1.878021740873534254e-02,9.586932678546142284e-03,2.543181415222624600e-02,2.131334524554489088e-02,5.081410941010781196e-02,-1.292242847844390745e-02,2.086403042602849936e-02,7.199082629842852230e-03,-1.993225081181013852e-02,-4.495018725605488819e-02,2.927413893068258124e-02,-7.719047236064427442e-02,5.929724927540180879e-02,5.760610751801009677e-03,-3.156399502355076991e-02,2.927507060825906837e-02,1.584740562707438738e-02,-2.034232322431785839e-02,-8.176705688688445939e-03,-9.815775261572895483e-02,6.356187921191173984e-02,-1.569595327882108635e-02,-5.295792439455255726e-03,-7.127979923691900310e-02,-1.371369651996330943e-02,1.071950286381407880e-01,3.608542708567684387e-02,-2.710610856578934622e-02,-3.356878764025466449e-02,-2.864003072839999692e-02,-6.069351967806489723e-02,-6.018480899577356019e-02,-7.163052171196607198e-02,6.006202859937239021e-03,5.437646104368917127e-02,-3.470782915539809277e-02,7.643727040015502183e-02,-3.934328269483471086e-03,6.495113461440438218e-02,3.643877275100602942e-02,-1.005327017508021309e-01,4.100698140077473075e-02,-4.015252555076957719e-02,-8.213079993892556663e-03,2.787894048923725623e-02,8.658221534602973668e-03,-7.456677744565412547e-02,-3.907449377676178170e-02,7.409592167379693006e-02,6.897590625157083537e-03,4.972622993739259090e-02,-6.823503581991309519e-02,-1.573997521694705387e-02,-9.328367559204170378e-02,-2.077565963252383033e-02,-3.711962248666358932e-02,-1.723435794704153423e-02,-2.025465537581629810e-02,-7.049275141001822009e-02,-1.475676341980225632e-02,-3.252250373522360544e-02,1.666920172253154656e-02,-4.501738450471867194e-03,6.600995231724819667e-02,4.693606675521068416e-02,-2.022285139024325440e-03,-2.221327790372856423e-02,3.783936863964799252e-02,4.861554960939607622e-02,3.138014356502614316e-02,3.908302245802350999e-02,1.989860385581105826e-02,-2.688914551164177380e-02,8.529127446761935669e-03,-1.268622886518189739e-02,2.119238567205221704e-02,4.993557326277991287e-02,1.827578881937286931e-02,-2.089349601487800606e-02,-9.236076774336937634e-03,2.963668124281755925e-02,3.325422450329461321e-02,-3.460815754755724311e-02,-7.165548884807137163e-03,-4.202213457205867392e-02,8.014321169741579765e-02,6.112888203204994153e-02,-7.262529774443488711e-03,-2.790922846155805687e-02,7.897664833127376535e-03,1.729421575417278839e-02,-5.663768445497471826e-02,3.230468351940821853e-02,-1.763612835964453035e-02,3.844732703664136692e-02,4.318586157452986019e-02,-2.184533006184363399e-02,2.395541999438600966e-02,4.413690747735676129e-02,-6.605808656774249388e-02,-2.312909842184088238e-02,6.669447063926237096e-02,-3.219232319770436168e-02,-8.310558145365073979e-02,-2.102687121144389965e-02,-5.496689845148457904e-02,-1.371486481647149307e-02,4.231096089207063426e-02,-4.589327482895459720e-02,1.805376817199080830e-02,5.198534328514185787e-03,-5.326999734428688668e-03,1.339844358408607584e-02,6.673672278406640734e-02,5.767239071241610920e-02,3.309508214084694311e-02,-4.948195867883730011e-03,-8.369245003626675505e-02,-5.868812478871290872e-02,-2.349078102538339902e-04,5.676022346289026632e-02,-1.611080502000269282e-02,4.641207436513208190e-02,6.446601577879863820e-02,1.784794747603643192e-02,-3.366725060604741637e-02,3.909010272979415723e-02,4.242200960735881959e-02,-3.096715818234672610e-03,-3.768487896461794606e-02,1.009961040916190628e-01,-4.915198924172717310e-02,-9.205307883514136230e-03,1.675238271630999365e-02,-3.912511940258530350e-03,2.053561034234595989e-02,7.063428524799968133e-02,-1.598994571096729045e-02,2.380591760474410484e-02,-1.779324678606291482e-04,-1.534599234703599817e-02,1.503941555035711794e-02,-1.501009910737754159e-02,4.528484051422267814e-02,2.747230850728545060e-02,-3.179065493088258781e-02,2.943969186335050614e-02,1.339189424728652600e-02,-5.231688244179188291e-02,-6.124770368849325602e-02,3.979663504808002294e-03,-1.614653967821257780e-02,-3.425746395720073029e-02,-2.934967543813699759e-02,-2.538767018812446152e-02,-1.783461696608728067e-02,-8.311539176498818765e-03,-5.840775442703209468e-03,-1.016507769275402928e-02,3.946492763473324894e-02,-1.148133257200615806e-02,1.955651799948036201e-02,-2.802483550702732432e-02,1.853656138857335406e-02,4.993215334463514676e-03,2.819601958462806396e-02,2.236856492864774254e-02,4.427990588443260836e-03,3.674262289288564992e-02,-1.156491897277630784e-02,1.517731234403694660e-02,6.760255271940143751e-03,-1.031731635389363487e-02,-1.434271366260415903e-02,1.594395120779325964e-02,4.058670094438228404e-02,6.397164875908857573e-02,-5.997543600054723936e-03,2.051221880358962760e-02,7.919581302255368493e-02,1.684547767310260596e-02,8.554488510844726612e-02,-6.636469102574950795e-04,1.934014099093155775e-02,1.350493362354565977e-02,1.313081006520309783e-02,6.331865939925048273e-03,3.568052269753523020e-02,-9.683060841344814929e-02,5.142500461702161768e-02,8.826271339719695200e-03,-1.828591680525125385e-02,4.107147257988562339e-02,4.711550929831051504e-02,6.162517533542052200e-02,-1.139851733705808667e-02,2.247386756214052664e-02,-6.897240704300921198e-03,-3.225420024689637510e-02,2.876638745466815819e-03,3.163243169313410125e-02,7.277253415277755433e-02,-6.976918468134829521e-02,1.811690589932813192e-02,-2.374854628667755208e-02,3.578190169358000036e-03,2.050161107193773646e-02,1.311936229112058497e-02,5.111232142918147731e-02,-3.750120768023072065e-02,-1.760022641163493107e-02,1.540875824383785078e-02,4.147621767986103131e-02,-2.897056437729675013e-02,9.757479749048936918e-03,-1.333802093556544534e-02,2.678945025819129758e-02,-1.914127834865598371e-03,-9.627185191208921869e-03,-4.342280913067760734e-02,2.933270452962583041e-02,3.189375776428327730e-02,2.413408561105466477e-02,6.504297561297490288e-03,-3.263264400397583587e-02,-2.574783159629344051e-02,4.499055855726563462e-03,-5.567576115224923822e-02,3.816996574520800656e-02,7.504561045482732035e-03,7.268668003863333962e-03,3.990337881744091680e-02,-6.152376060692950344e-02,-1.846757635519177820e-02,3.898283474519631531e-02,-1.920297728340073298e-02,-5.366144916619759730e-02,9.515729697564954265e-03,1.617732336620298847e-02,3.665958641282281161e-03,1.991871575694546814e-02,1.294963996585252533e-02,3.132549862760583559e-02,-5.587120480474435519e-02,4.601299812824463653e-02,3.593305646626095834e-02,-2.781274949432466920e-02,-5.098245360643481605e-03,-3.509238830453208398e-03,-5.214202423450574331e-02,-3.384256525496394385e-02,-1.012634562908962602e-02,6.785116429625627499e-02,2.149410746945292633e-02,9.482412412881439934e-02,-4.393205912646106978e-03,-1.863488653830779399e-02,-4.041719896737748507e-02,2.026737481107557248e-02,-2.781798477463718125e-03,-2.413059475308504051e-02,-3.443473294774350435e-02,-3.299051721068724241e-02,-2.867420797074686153e-02,-3.870797745569238418e-02,1.368288005284096220e-02,-6.799151459406119202e-02,-1.665110412139084867e-02,3.054903875414723136e-02,-3.777080970537168014e-02,-1.059218058772860849e-02,-1.910577196809357461e-02,1.215534432021578293e-02,-2.486883538280860312e-02,1.274581877431403727e-02,-5.998348425667392875e-02,-8.085221008070592186e-02,-9.128330466805459342e-03,-7.642175085148856899e-03,-6.257249018249753589e-03,-3.570028691766127804e-02,-6.719247423226541727e-02,-4.440319265919910607e-02,1.860150389395103486e-03,6.198889997530687701e-02,2.453003057440712037e-02,9.229621300709918430e-02,7.291417306655602511e-03,-4.215133913163158358e-02,-4.254446486318001069e-02,8.814578460306816965e-03,3.956734399000898239e-02,-5.684878765352213009e-03,-4.670901673262704834e-02,-4.890681268623737338e-02,-6.660932828472877591e-03,-4.279129688962216016e-02,-5.228175895241361087e-02,3.203071295260043888e-02,5.327414359110075812e-03,-9.162607604728298383e-02,1.376094535158629319e-02,-2.926069577771706759e-02,-1.234820045340992087e-02,-2.719668362583604546e-02,4.361887465011033208e-03,1.800968447535626973e-02,4.020105446489223577e-02,4.402663730692272376e-02,1.643706690741762039e-02,-1.165486719726635881e-02,-2.850786571536128439e-02,-1.857474144242491840e-02,-2.955948090043489587e-02,-1.944746468114820492e-02,-1.205818832008033817e-02,4.067658362179005227e-02,-4.698556823407228078e-02,-1.061271630373183429e-02,-1.172274107532985700e-02,-5.615751909012631216e-02,7.144281067682095761e-03,-3.904096089554033588e-02,-1.981647309541727936e-02,2.545627243433343234e-02,-1.225134316091671186e-03,-1.177857257300661716e-03,-1.454536138720573593e-02,3.801574148749784637e-02,-1.034388726905675626e-01,-1.200168067586027121e-02,5.341997452978838878e-02,1.131700127546908519e-02,3.414781674248345417e-02,-3.848419925446051881e-03,3.517327073019675676e-02,-8.172201834557498226e-03,-5.637473986262098516e-03,-3.264349040925131756e-02,-4.553257905174554893e-03,-2.775719894685085495e-02,-2.959960898192296255e-02,-8.726061454987685262e-02,-5.865524122197104256e-02,-1.012686717843989254e-02,-6.769391873706822639e-03,-3.105608525692626215e-02,-7.765912080112090388e-02,1.443027496666726521e-02,-1.056887656230265891e-02,5.416224801617142148e-02,-4.228558500310723722e-03,2.670612864194936431e-02,-2.790217590897485847e-02,-2.734170395988188423e-02,-7.737365727038404695e-02,6.675689577306570532e-02,-1.860415481790631681e-02,-5.965271455268275624e-03,-2.708826774544671051e-02,-2.473033407440881903e-02,6.809116985437693725e-02,6.768238954093121207e-02,1.063391746660389409e-02,2.930848250907143807e-04,2.183450697500413304e-02,-7.295528710614057957e-04,1.951903000639969993e-02,-2.300086550370064598e-02,2.553668957349204509e-03,1.978990387251130037e-02,-4.283696407899349051e-02,-6.076876316952783616e-03,2.460361339646900333e-02,1.371039999525205597e-02,7.865297075815959674e-03,-8.184395697639519629e-02,1.122988980223615062e-02,6.370427068459170311e-03,2.978627084670013025e-02,6.859791002765919243e-02,3.639088743006414772e-02,-2.215666746336491383e-02,-4.860988361333547919e-02,8.503046954972049570e-03,6.851956699330163936e-02,1.472262068032885625e-02,8.941269429172282734e-03,3.834629762251814261e-02,8.019851659993923812e-03,2.234145570807776621e-02,6.160798030247859047e-02,1.743467393291054171e-02,-8.596261003433932832e-03,2.254427806110442800e-02,8.279547603456310911e-02,-1.959492293101164004e-02,8.391111398744634242e-02,8.384837230859569501e-02,5.748827467227646953e-03,6.453685760061563838e-03,1.105043923242931062e-02,-4.294327596192827612e-02,1.239871635890808788e-03,-1.303210740122307670e-02,-4.698312681661431789e-02,-6.322557812106274766e-02,3.755608363065696120e-03,9.941198766400470566e-02,-3.288807071676327909e-02,-1.024317096983138331e-01,-5.627717900251959227e-02,-1.148098061078369272e-02,1.133266367639963607e-01,-2.822509664483136699e-02,-5.266537023239260817e-02,1.972035811503030159e-02,-3.812511793358049073e-02,6.522792316971288973e-04,-1.558597585069965846e-02,2.133172346311472053e-02,7.209286049285411335e-02,2.343438780036639218e-02,1.308334724490383544e-02,-2.978029951555304089e-02,9.032002443727682114e-03,1.663702811299123605e-02,2.707088991318098298e-02,7.185348622553441866e-02,2.944033501744204324e-03,7.433303153480686105e-03,5.600178196908219691e-03,-2.311288118737926493e-03,1.544380842761498146e-02,-1.015968725089183219e-02,1.157877862403124992e-02,-9.404880787849426160e-02,1.182485643299879992e-02,-8.576752914999205557e-02,2.235164373647512831e-02,2.592575767727343938e-02,3.472327700590169958e-03,-5.008434708903236610e-02,2.372801567371821130e-02,-2.783733766361102743e-02,4.624861608000351704e-02,-2.517973269037817804e-03,-4.286851422634880421e-02,-5.407568393086295902e-03,-5.851608104630404497e-03,-4.011178287912213480e-02,-7.939343554577674156e-02,-3.120466202854521587e-02,7.071602494695823637e-02,-9.222247413708166419e-02,-2.791662825421837094e-03,1.040408157984456794e-01,-7.360542201244077432e-02,-4.604059725225446292e-03,-4.227891874265665706e-02,4.520489639201975135e-03,1.074114154323273576e-02,-2.393738173630526392e-02,2.091855514711598099e-02,1.555114346962041191e-02,-4.252610761844933043e-03,-1.169183521227832451e-02,-6.323275831434881089e-02,-2.305034325374227810e-02,-8.043018386722068647e-02,-2.961161995227259980e-02,1.822084651242592002e-02,-9.026235106670634639e-03,-4.976200536577930766e-02,-2.178774024046702465e-02,-3.812169162855968269e-02,-5.538439900814927375e-02,-3.654656312405440977e-02,4.097195262868747606e-02,-6.714673607602994476e-02,5.492403692326738862e-02,-5.369491837087975866e-03,5.539074987377515941e-02,1.616661109171730476e-02,-2.055194974372278813e-02,-3.338537798212600979e-03,-3.066152809340697699e-03,-8.435344084018886468e-02,8.595167514995890462e-03,1.315237971693927234e-02,-3.071790371489291696e-02,2.238679249537273153e-03,5.277278524425225298e-03,5.424623911124355075e-02,-5.928122077422742775e-02,-5.402719434560861959e-04,-3.959472653393211403e-03,-1.478329313888002844e-03,-4.346870114593136269e-03,8.940187666092568736e-03,5.555445543619595000e-02,-3.433264850402171532e-03,3.541184478561575089e-03,6.019105936749676034e-02,3.549966620864219990e-02,7.899508386451321862e-02,1.084155310655488154e-02,1.414388605747481965e-02,1.573893026517123733e-02,-7.637083244532502126e-03,-9.700204506576146080e-03,6.154754250359509293e-03,4.776903058333953345e-02,1.220024452723979247e-02,6.147668138406119261e-03,-1.183879306298313977e-02,-5.625140193294114049e-03,3.280989976973788108e-02,4.219558585095803394e-02,5.093339030792106391e-03,-1.632440146359735375e-02,-2.304309453886880382e-02,-4.378127484000286784e-02,-5.165799096456410305e-02,-7.231735216516702036e-02,-4.612901786609478055e-02,-2.872920159227800724e-02,-2.394031235597436635e-02,1.681223557685699796e-02,-2.227117897566364274e-02,9.526694425314612136e-03,3.185309765750811428e-02,-3.708251377117375430e-02,-8.386735408737903963e-02,1.804536247849397937e-03,-3.782048096438597219e-03,-1.323211191772471866e-02,-7.286512634920791487e-04,-7.834345301405417489e-03,-1.231489099375164542e-02,1.531350925559983589e-02,2.788583860809715903e-02,-2.124640287451377146e-02,-6.468035107517342008e-02,-4.016303030490664394e-02,-1.469907370150012101e-03,3.744098228036210618e-02,8.575896322314163767e-02,8.828333345419314693e-02,-3.224437145202297544e-02,-5.631352306902425581e-02,1.525763134124171264e-02,-9.279203707526539890e-02,-2.850004449589953540e-03,-3.863520468458989977e-03,1.788210061888682867e-02,4.145753158780814823e-02,-2.662305312114113601e-02,1.200614701998800257e-02,2.317957165178948647e-02,7.007542263683116945e-02,2.020547252686922743e-02,-3.226679692258252463e-02,-3.988740546071029014e-02,3.634571226734792382e-02,-6.210286626325382808e-04,-6.409356796415978386e-02,2.116400209298328200e-02,-1.981102955192858700e-02,1.024710722348229214e-01,2.975112941926500582e-03,-3.908687276313125430e-02,9.940731133394381872e-03,3.090766381330032828e-02,-1.018331489824271865e-02,-6.408841506549231570e-02,6.421759654887042139e-03,6.054115876339441482e-02,-7.499885524236026002e-02,5.884279372152569770e-02,-4.606990949323291895e-03,1.914504182434997176e-02,-2.820110521412181118e-02,3.315819520263758174e-02,3.875550118943450750e-03,-7.945457477656896195e-02,-4.813237933057570861e-02,3.220951576902013336e-02,5.409255016602014521e-02,5.623987159541483927e-02,1.149695802929358995e-02,-1.322788099244562310e-03,4.093414469859593674e-02,4.602289347643556683e-02,5.557324640978831415e-02,-3.279371189751012494e-02,8.158133009636152344e-02,1.015075329181772124e-02,1.647895988340923948e-02,2.932133183295118628e-02,5.838333940368020669e-02,5.052879725486212475e-02,7.484777939083743677e-03,4.675356869933581377e-02,-1.602748747551501624e-02,-1.989570561801583606e-02,-2.275656435750468554e-02,5.906248736620507700e-02,1.258818351597802004e-02,-5.547643743685067019e-02,3.688105800754907376e-03,-2.713227463133113457e-02,-7.660039488430798842e-03,2.018275187651576499e-02,-6.319635734417275441e-02,-1.524962715302706322e-02,-1.477209991350666302e-02,4.284046452508597641e-02,-2.956379973126892560e-02,-2.033902984567079880e-02,3.464594877530311617e-02,6.314665793921488135e-02,-2.267558269313709601e-02,6.030734499103722335e-02,9.281946136192736896e-04,-3.697212493645289644e-02,1.131778940708238861e-02,-5.342406019903601921e-02,-3.496686498301938145e-02,6.669786740197072850e-02,-9.386293279952582364e-03,1.477435749240269512e-02,5.484676293572229161e-02,-9.940868876023542522e-02,4.484344420239681772e-02,-5.345293339077879236e-02,3.224172807307341959e-02,1.216185410492777799e-02,1.095284322110494021e-02,5.476853679294177435e-02,-1.481283879761241540e-02,1.825247461868201998e-03,3.383694435072969603e-02,-6.913594285631194380e-02,-3.129122577642669961e-02,-4.126955257537809341e-02,5.527798924626630903e-03,-1.425028146755256443e-03,-5.102347135400639444e-02,-8.246833784535091694e-02,2.376205419228044971e-02,6.841881419825449062e-02,-3.157425035964135651e-02,5.317413175875246659e-03,2.561621720793155060e-02,2.261096071094352566e-02,-2.152855014063445593e-02,4.601281527022551415e-02,-1.655525711862234489e-02,2.639248234330828641e-02,1.129399728499163973e-02,-2.380115238787417278e-02,-1.721593292720064242e-02,-1.818178400482078558e-02,4.211127654387424729e-02,1.699383398977764859e-02,2.826982153728396091e-02,2.778536067672831081e-02,-1.603740542079405001e-03,-2.645468118401632027e-02,-2.988806740214140778e-02,1.413033535641323654e-02,2.501657794575375821e-02,-6.661227993668986970e-03,4.922666319425744036e-02,-1.983688798852000293e-02,-3.130727626679494918e-02,-3.584259935170142075e-02,1.869273373673378119e-03,-1.561422736368642088e-03,-4.393228805559591145e-03,-1.383397254129763686e-02,2.181079814650011342e-02,2.952700409558253400e-02,-5.264472161652862525e-02,-1.799388316150816319e-02,-2.051335281801486624e-02,1.114334779510569445e-02,-5.849422639077753172e-02,5.527889128584303341e-02,6.345726437591249144e-03,-2.179303299210390288e-02,-5.407095887352655894e-02,1.702982021407064422e-02,1.175168751406789266e-02,5.645120613304010354e-02,-2.803656419301570057e-02,5.774495161874350357e-02,-7.654019930425691454e-02,-2.068041454621652453e-02,2.349696294161492810e-02,-3.940000023264033507e-02,2.389323385429864555e-02,1.882156965751359545e-02,-3.929515417623858850e-03,-2.015241855198349717e-05,-2.047455746588187908e-02,3.110923230894396818e-02,-2.633755825898910843e-02,-8.120594141260262244e-03,1.156825125270160778e-02,-9.579358046417976724e-02,-3.973263871935708846e-02,-2.724412344544202471e-03,-6.720582940535894945e-02,5.599735489515095949e-02,-2.493961430977558943e-02,-2.032300390524589134e-02,-2.668676368021843243e-02,6.876737997477515296e-02,9.137219716997815530e-03,1.098725998316244998e-02,-2.640367906625563921e-03,5.459693279716260755e-02,-3.655484602223887936e-02,-5.711677790826505396e-02,3.603994829205463268e-02,-3.591504971378013666e-02,1.627673520801447074e-02,4.931517509323642134e-02,-1.031035649560232970e-02,1.503076685932516407e-03,7.268965908098852513e-02,2.595634106142351988e-02,-5.495509287572527407e-02,-2.571186399746591689e-02,-4.041798220982846523e-02,4.470890572159425674e-03,5.222302654428580271e-02,-1.599744312837876603e-02,-8.052614603718973724e-03,-6.329723309546825272e-02,-5.556239305055390987e-02,-2.134542844411180945e-02,1.823825724096179643e-02,3.522423530965219929e-03,3.806684009430276461e-02,-3.225491946471215066e-02,2.194187449763780953e-02,1.512769773238441251e-02,-2.258176338437866901e-03,7.515263511768553728e-02,-2.321903715061775925e-02,3.779968288284787231e-02,4.713622103073045536e-03,-6.711928414517767671e-02,-1.964184920181187913e-02,4.857818129175782429e-02,-1.877188971386404420e-02,-3.917149393630716542e-02,4.615194363862778343e-02,1.353402890536540421e-02,-5.403393522224008566e-02,-2.124779340789146112e-02,1.392150202450915218e-02,3.116552695312335003e-02,3.257371397774356386e-02,9.684719627380121432e-03,-5.931804375812273905e-02,6.936321047788643335e-02,5.797049255858308103e-02,1.269990641509347561e-02,6.070549666883705286e-02,-6.995373570179118372e-03,2.470863509742641725e-02,-4.352403893043836625e-02,6.419327192691413886e-02,-5.224606862241032434e-02,1.187257753299645127e-02,-4.982553035911115036e-02,-3.102636538465022853e-02,3.049359876299800876e-02,5.828341875095383734e-02,-2.269052503150795902e-03,-1.420764744495485107e-02,8.028750835492270976e-02,-1.763811549924968261e-02,-7.987666663426618366e-03,1.567443747620792666e-02,-8.157090992058394288e-03,1.337003886190904489e-02,-2.574510304413378872e-02,-3.196191226572854538e-02,1.783650336454082816e-02,-9.788638750057832363e-03,-1.879450492807257025e-02,-9.376163196327866323e-02,4.231648747419814588e-02,5.452653389300822495e-03,2.821393104265223356e-02,-2.283498584027049416e-02,2.870403514899722702e-02,5.140647336084362001e-02,6.215742146154249956e-03,-3.245092859419366343e-02,5.466835798857293260e-02,8.273143537912940049e-02,-2.478324369300515667e-02,-5.430273494452207694e-02,-3.738479301699626500e-02,3.140649305013231557e-02,-1.352915827696572933e-02,-8.275206960689255806e-04,3.082011866846344483e-02,3.884972631176827895e-02,-9.172811165997373298e-03,6.016082143069433757e-02,-8.361275313190644209e-02,-1.128477242909108405e-02,3.838869966934690958e-02,-1.987878008274062205e-03,4.681891671581385472e-02,-4.038033718907712774e-03,6.514422847393463306e-03,6.359358089090455524e-02,1.740397269687807974e-03,3.573195402852632693e-03,1.430965850334743085e-02,4.316124276878481603e-02,-2.548662218942765456e-02,2.942040280774361333e-02,-2.888932585016255189e-02,6.321704113571111061e-02,7.541936508407382986e-03,5.824240567891759979e-02,6.877841377081390928e-02,-1.986716295434298035e-03,-4.533348660030565164e-02,-5.220221126820669133e-03,2.842276212964283538e-02,5.311734822893045965e-02,-7.726948728374542774e-02,3.652114370434506041e-02,-6.576719744387070354e-02,2.528522233759832039e-02,5.205331922420275426e-02,8.865089323547098443e-02,-4.739575370000454618e-02,1.443583267811029622e-02,-2.987515277380100448e-02,2.793435366555240690e-02,-1.537963175552861661e-02,4.778688535350106986e-02,-2.776652546731064528e-02,-1.730978438463491587e-02,5.590772941296913434e-02,1.062483821493232297e-02,-2.750473592231215264e-02,-4.276997685405367622e-02,2.094346393248379054e-02,-3.452754894797444019e-02,3.563240515960390369e-03,-4.112754252807798716e-02,4.211481116320489604e-02,1.294211905357507686e-02,-5.030538945284235980e-02,3.877061975342105393e-02,3.871418146031880420e-02,1.215953297529202490e-02,-3.817995448658000751e-02,-2.018237295259202313e-02,-1.386974226606804174e-02,1.775730871298537503e-02,-1.127275979730195041e-02,3.108458417777499108e-02,4.253740750373522644e-02,1.888836240447051146e-02,6.400159351236034411e-02,-6.968139111409199504e-02,-6.646002661569806735e-02,3.416384715403274208e-02,-2.786853223763217924e-02,-2.351379607064441046e-03,-2.529618137600223721e-02,-2.225321864288990360e-03,-2.170016624831017094e-02,4.990541061276398960e-02,-1.839506627591391136e-02,-5.859855737147369459e-02,-3.301660519788209014e-02,4.904652453343572027e-02,3.640998312654396968e-02,-1.414130097157687352e-02,-2.684850469054092525e-02,-1.014934882656761198e-02,-4.436783925031684631e-03,5.493397428141343075e-02,4.635886296115786925e-03,1.757477443919634730e-02,-5.068887414173618364e-03,3.259100336408377041e-02,6.903195133041728493e-02,-4.623655142576404281e-02,-4.318189758502607133e-03,-6.759170283856130723e-02,-2.360996832342222851e-02,4.281931186080612656e-02,2.307215141853181592e-02,-3.021611236779928739e-02,1.537858885391021196e-02,-4.473292523166395862e-04,1.362650637533114120e-02,-1.380591782871147359e-02,-3.205073055766320678e-02,-4.396931308870444949e-02,-3.191782250031000717e-02,-2.039614477194059278e-02,4.978389144675979955e-02,-7.768486067415586449e-02,-7.685545360396952956e-03,-1.714480778047978993e-02,-9.748940221354357449e-02,2.433919320070824024e-02,2.803271229087610228e-02,-3.101776756645183153e-02,-5.703152982736098622e-03,8.954880354001992782e-03,-1.673747945767770084e-02,6.222324400352165219e-02,4.822436814344335104e-02,4.512798242221692513e-02,2.444095601410281246e-03,5.282222871700753553e-02,2.179399364238512535e-02,-2.309664890756257111e-02,1.873950247353792925e-02,-2.182489641032627631e-02,2.801375996795699500e-02,-1.056196251807644815e-01,1.659365758382869843e-02,4.456038192446409169e-02,9.434038613429297782e-02,2.856623806045714697e-02,4.114899487042664172e-02,-4.995909627851139595e-02,-4.019326725852932075e-02,7.307070974805495583e-03,-8.605851030800488327e-03,4.253785913704626054e-02,2.876018367116800131e-02,-5.596055590978202092e-03,4.099650209593264094e-02,-3.245631983283828875e-02,-2.511889731849868690e-02,-7.822292608644007550e-02,5.878174602800437937e-02,-1.871059158211667295e-02,-5.783517431223367949e-03,-1.094375520031783122e-02,3.899298361622331732e-03,2.635008589330523759e-02,-1.469936247216502984e-02,3.035132861523087353e-02,2.661712027688512699e-02,7.393609430863720688e-02,-7.922904828074331038e-04,-3.469300360278847195e-02,6.844590116264977209e-02,1.262765941533946362e-02,3.938598365435435136e-03,8.064816612492103909e-02,-3.752206669628613267e-02,-1.586410538129474565e-02,3.233711870265063015e-02,-5.161972258113158366e-03,1.084415150573663118e-02,-2.148842120454334120e-02,1.728657377278554688e-02,2.241450427905296305e-02,1.311873898118410577e-02,1.088760565859040325e-01,-4.239035431779850788e-02,5.746578700422640129e-02,-4.615174857183049900e-02,-4.094657159267375141e-02,4.024997519238084076e-02,-1.088895606884121570e-02,-1.418184097278543838e-02,-4.108877235320192861e-02,-2.874720368879971760e-02,5.256985993986346833e-03,6.142955385008902480e-02,3.520334117518143791e-02,6.622887649310543745e-03,-6.681422846253615155e-04,-6.249021119505773769e-02,4.015341164622059089e-02,3.595375392955564575e-02,6.359691456803928666e-02,1.505566543046641358e-02,7.436621864282662309e-02,1.819570607684156682e-02,-1.897114577533323687e-02,1.886338214663726975e-02,4.475875135581238763e-03,7.217468925569837934e-02,-3.126755335491773063e-02,4.670604757986746361e-03,1.657796283912824770e-02,1.846622759174308334e-02,-6.837863716792916269e-02,1.062421972992829283e-01,2.660975179140573701e-02,-1.161495159108459282e-03,-3.780295811722664268e-02,1.415069398163408369e-02,-2.085661363932868329e-02,-1.153186821516902216e-02,-3.512643830880014806e-02,-3.979958787599170711e-02,-1.367195830462875766e-02,-3.227320028544783392e-02,-2.157108004926306180e-02,3.025646691144304873e-03,2.130164546557716809e-02,-3.459446654067129673e-02,-1.675943351925529567e-02,5.300735481990521969e-02,1.242172979963355670e-02,-3.103239566551225896e-03,-7.691325241162813575e-02,2.032792734892741038e-02,1.446165129560616699e-03,-5.195711276225504355e-02,2.846599873327665745e-02,-2.006684135382230325e-02,3.003570942323181836e-03,5.143371975689059461e-02,3.129387474854516960e-02,1.390619710148199850e-03,1.177435448532392764e-03,-2.016889735967209926e-02,-1.682265037134586874e-02,-1.682856049255837885e-02,-2.861052765748583332e-02,-8.201035363600771289e-02,-2.256016806213222495e-02,-2.035864547500519650e-02,-1.987804837608800682e-02,4.653392613317315629e-02,-5.148454197408926930e-02,2.945873623670339919e-02,1.380862961577635981e-02,3.271807903532257533e-02,3.334805928699106220e-02,-3.056965239859688564e-03,-4.017727278663589530e-02,-2.218349861449009364e-02,1.855709791233237788e-02,5.670205575902478867e-02,-3.130440379689918701e-02,9.012471689883956583e-03,4.639094948942086571e-02,-6.583069842469410626e-02,2.829110211329387281e-02,1.675111616446342717e-03,2.563959584653835444e-02,-2.071906598639515484e-02,1.119499388313475140e-02,1.603103147019154309e-02,5.508977587543719551e-02,-3.739544809494749905e-02,-2.201114848926042505e-02,-1.789375886540947244e-02,3.003996071933411754e-02,2.873296982029369812e-02,1.870672423870766571e-02,-8.148903080861625431e-03,6.405200579028749210e-03,3.764981832967059794e-02,-6.600429412477547275e-02,-2.092906655165833671e-02,-2.100262155715109172e-02,-2.864296102913461636e-02,2.719605244626514297e-03,2.198687373219764679e-02,2.760500909964814370e-02,4.934192380979878292e-03,4.732480869652501421e-02,-4.449884816488615391e-02,-5.992096057368535844e-02,-3.260643491629376667e-02,2.904199600416243476e-02,3.312111228715967221e-02,6.379236582457321891e-03,3.152993383967368779e-02,-5.568960224247085367e-02,-3.401560890245148433e-02,3.736305638772271370e-02,-2.125925161550516751e-02,-2.223976110036860604e-03,4.679030110392525671e-02,-8.474240590222966926e-03,-3.853651690502278571e-02,-1.790735108141176118e-02,2.607963527387360120e-02,1.140348647050097412e-02,-2.202011592335652562e-03,4.900772090968313205e-02,-3.947596922871074096e-03,-5.043723636916877529e-02,-2.356287188629590384e-02,-4.746472847975866105e-02,4.309139288936957718e-02,-7.515700366298047608e-03,8.432307845788521161e-02,2.066514681481454799e-02,3.849027781271802118e-02,-4.102302158442433511e-02,-7.277036448198237820e-03,-6.475736230346038069e-02,7.168264368153587363e-02,4.594615258273289371e-02,2.378629405774088448e-02,4.203327451025839351e-02,3.098321566206782562e-02,1.312588110812019926e-02,7.134724590832475233e-03,-3.826578196221685785e-03,-5.525647347835263914e-03,8.062213144175424395e-02,-2.727856861979277917e-02,3.604023454127067844e-02,4.910290790784420378e-02,-4.027665649185892260e-02,-6.748372575565408926e-02,4.407971863452712219e-02,-2.691629475746337360e-02,-3.144908992548045568e-03,-1.519473968916057807e-02,-2.585064977048043972e-02,-7.045375608214705584e-03,-7.266207406123482981e-02,4.627761937345784699e-02,7.422152982282846645e-02,-5.045813037031803006e-02,2.527902315634217301e-02,4.048858715964544219e-02,1.382351395936304295e-02,-1.232501391060407750e-02,-1.577385443918272092e-03,-1.711777728079564090e-02,3.486551996281117560e-02,2.187654730254990493e-02,-7.368084221319359112e-03,3.970218548099349598e-02,2.607011575900238312e-02,-7.070151177459891613e-03,1.177124220393582776e-02,-6.723531934292627243e-02,-7.547490548580352600e-03,-1.944363344570584212e-02,2.025698056295940214e-02,-6.222061567996747811e-02,-3.471394567042077051e-02,-7.510141076759226098e-02,-8.875192146653144987e-03,-7.773320099008777795e-02,3.710050371069760489e-02,2.208773702160287886e-02,-6.691169682801680063e-02,-1.229883550608514703e-02,-2.910823907099166150e-02,8.410952450922078508e-03,-9.836445087814857033e-03,-7.190747569438492304e-02,3.001546681859648680e-02,1.668243546655747908e-02,1.921613266953434151e-02,1.395227532766107024e-03,-4.667884021144125262e-02,1.583513651299500377e-02,-5.251552163621809287e-03,2.563166497570377317e-02,-4.128798990109411315e-02,1.386278376876325102e-02,-1.472008337382158839e-02,3.704605821356680984e-02,-3.356769954441766839e-03,3.737419963526277672e-02,-4.149859054829372479e-03,-9.877994688131700243e-03,-3.554551561148257960e-02,7.888862684876427056e-02,6.555971869431435894e-02,-6.591329844882715117e-02,-1.380278628045283548e-02,-3.465282501345752757e-03,-1.644830518928417501e-02,5.989566734009506982e-02,7.986967352882444818e-03,6.192114908400535994e-02,-7.559778591758193299e-03,-2.578625748018210928e-02,-2.690121476559925034e-02,1.313636488960023135e-02,1.082697165045717717e-02,5.263908140996235996e-02,3.267745290637188993e-02,-9.221704024012847278e-02,-6.914102051619362525e-03,-7.934835684030982356e-03,1.402515119670097628e-03,3.637467750190030019e-03,5.239862589790164615e-02,6.223183904859112825e-02,8.651663929082134552e-03,-6.579243714917110131e-02,-3.025912892168759749e-02,3.057836622533291124e-02,1.418032089509668921e-02,2.516205512061840330e-02,-4.830568703472246095e-02,3.489292341819563714e-04,2.472659320550910783e-03,-4.831926371115529556e-02,1.426107233585747341e-03,3.240591450355360947e-02,4.487955684813606239e-02,-4.276701901782749976e-02,1.377551448811130744e-02,2.826580444923103980e-03,-5.684088498613456414e-04,-8.137395512135826847e-02,1.876260742922564173e-02,-7.401410414856080672e-03,-7.291168448291218684e-02,3.343957723794432901e-02,1.735547982721094562e-02,2.199566394546499659e-02,1.096247599014893090e-02,-5.030434149584815662e-02,-2.611743182362504662e-02,1.449258736918937820e-02,1.003198058965383901e-02,-4.481971497314626851e-02,-3.041621004561885153e-03,7.073159544098145401e-02,-2.628782034916221991e-02,-3.396147577092416270e-02,-2.562586283648530389e-03,3.502498048673034770e-02,1.855771633423815292e-02,-3.179236260821383803e-02,1.195180892386711949e-02,1.746104046649361169e-02,3.085561155050574322e-02,-2.435954650834790819e-02,5.111923291686949755e-02,-1.920270638167331789e-02,-3.122088012430613083e-02,3.869954651994608752e-02,5.944680825602565409e-03,-1.281398187827641894e-02,6.430961569948184797e-03,1.149730764340577138e-02,7.201430278165041332e-03,5.013110557586201999e-02,-7.574745430548426861e-02,-2.539189183075701850e-02,-3.694549301147305453e-02,3.243479695816220421e-02,-5.624399793583813312e-02,-2.054885856542561229e-02,-3.594369254258988899e-02,5.209489452415980854e-03,3.708670135294914183e-02,5.270554694936221973e-02,-6.839059636314917534e-02,-5.865547911157974192e-05,2.747315508911304591e-02,-4.182504179460938554e-02,2.068594669793570248e-02,5.945460621443190291e-02,-2.437732713258563763e-02,-3.637641915843120577e-02,-2.139252795303198812e-02,3.904547222653993732e-02,-2.650275615460053608e-02,1.098998700839095774e-02,-4.472423856784778218e-02,2.254705647153135151e-02,3.161076004483171636e-02,2.421271913581547752e-02,5.690038208993278973e-03,-1.058285284083774341e-02,5.657225557938744265e-02,2.792295591687353126e-02,1.740346376548243881e-02,-5.863574911841947304e-03,-5.209533013765554194e-02,3.558725043543644467e-02,8.946790383918972606e-03,3.798704014627424935e-02,-3.307036669887977731e-02,-2.336009462042373808e-02,-3.125482057205192926e-02,-7.796697626447712803e-02,-1.666466145840222318e-02,4.307450799149929732e-02,-2.252005949134248605e-02,2.008917538436365280e-02,4.166950962224257732e-02,1.160121869692883056e-02,-1.481702967455130436e-02,3.312028184459481911e-02,3.089393755373748968e-02,-2.209421052661237478e-02,4.906351912252092384e-02,2.866437770500376153e-02,3.038177925832072010e-02,6.160645493641808690e-02,5.830603099141361267e-02,-3.215807385364197191e-02,8.019829858141594436e-02,2.605835464930259665e-02,2.763304956329561829e-02,-1.030187727672385659e-02,5.404913746497238408e-02,9.966162220290421953e-03,-1.041982162394152617e-01,1.751210339124232782e-02,-1.740446926074578834e-02,4.320120470881273073e-02,-3.748664882582154051e-02,-7.957229791377990608e-03,5.631864303379642903e-03,4.399329291147014917e-04,7.972201076134052128e-03,4.202159535045749128e-02,3.266437424875608120e-02,-3.549225687531978174e-02,9.151676859221715560e-03,2.692154682537768046e-02,-7.974153165721366288e-02,-1.214128928442403076e-02,3.346546716166550611e-02,7.705886607618991913e-02,3.778236567204883850e-02,-5.334464850276015441e-02,9.434328332225950381e-03,-4.342145473021866847e-04,-4.474483891087977644e-02,1.860344526529384649e-03,1.737668658086471279e-02,5.165317256874632501e-02,9.611099729348829279e-02,-3.471143707336022538e-03,-6.434453036136118798e-02,4.172635742727915514e-02,2.367119161764058219e-02,-5.642808302178922535e-03,1.964947653546384246e-02,5.875455939875224437e-02,7.136232296077851811e-02,9.665829401510461077e-03,-2.186292591477170810e-02,-2.365166599923064494e-04,-1.055627852273972184e-02,-2.398854823622809107e-02,-4.844085547041441370e-03,1.773465453293020938e-02,4.573824788713210659e-02,-4.773489554295682474e-02,4.664607745208997763e-02,4.759950150060356794e-02,2.257409335249999788e-03,-4.702089529409460289e-02,1.186522489808368441e-02,3.875855890188909664e-02,-6.344802239221647780e-03,3.964829518895168770e-02,3.457428350615226326e-02,-1.122983772626483592e-02,4.776989731197239103e-02,-4.889080282218584428e-02,3.555994158796486893e-02,3.258913363395934265e-02,-3.593732872133810485e-02,3.067780559684871178e-02,-2.485283927028441447e-03,2.247379810155437918e-02,6.918897882705630185e-03,-5.870100482663399323e-03,3.467184853629219632e-02,1.049596500323894330e-02,-2.622645584737927013e-02,5.108587449154471105e-02,-2.440622056965450343e-02,4.286297231358755788e-02,2.956632070737654286e-02,-4.614467698680804753e-02,-2.898004021036274663e-02,-1.374388300636350882e-02,-7.529480357806105084e-02,-1.334066686126773177e-02,-1.307123506896988585e-02,7.231551996991159026e-02,3.744809103194655930e-02,1.694482328170160076e-03,-2.970186310203552088e-02,-3.865040064137263698e-02,-2.950559209588377724e-02,7.269891985363580167e-02,-1.339381300190334127e-02,2.697643688509568718e-02,-3.591678804198957659e-02,-2.601641192582200210e-03,-2.431503731908774002e-02,8.001667000966938836e-02,-1.161784322337520818e-02,1.687933512612900186e-02,6.374423688450041314e-02,-8.243249186553986904e-03,9.319913484789051766e-03,-4.944146350324394451e-03,6.522017192503765104e-02,2.018936713360644855e-02,-2.151972516660896270e-02,3.404552989614511443e-02,1.251787742804202040e-02,-2.562171779769928728e-02,-1.738048667821911683e-02,4.005702879353478796e-03,7.006133706091951727e-03,5.013299235263415921e-02,-3.552369791002452440e-03,