-4.677733972787384009e-01,3.587671603911036233e-01,-9.878850688149372339e-03,-2.054987742553619490e-01,-9.646238220746126968e-02,6.591121792528180368e-03,-5.195537586076325043e-02,-4.533903213794918119e-02,2.035249534164193519e-01,3.083518059737642147e-01,-2.394388219789207739e-01,1.731607621400083064e-01,-9.951347222907543089e-02,-2.096849812778910638e-01,-7.648704417442220294e-02,-9.188344393439323854e-03,-4.076656945890819728e-01,4.506310453502999913e-02,3.636272177619511714e-01,3.073929991155504582e-01,-6.792184563926868812e-02,2.999014532934985433e-01,4.750694278843210078e-02,-1.114022963557535634e-01,1.620419638295660381e-01,1.070653294408559913e-01,-1.217919387884433269e-01,-1.787274167357039978e-01,2.225465521067762076e-01,-1.856510953008760068e-01,3.544140050294984912e-01,-8.223622850113647409e-02,-3.561164624058428818e-01,-6.686699097239657830e-01,-7.007147958089984252e-01,4.763922799945161102e-01,-5.746095246299325748e-02,-3.428026453410579766e-01,5.201820866349622374e-01,8.452342651121940165e-01,1.781559644209939064e-01,1.042783883947572404e-01,1.007991158108252766e-01,-8.095024668534316070e-02,-1.434614773225184048e-01,-2.375576919458747063e-02,6.961887978978195668e-02,1.149555302767194392e-01,2.690392163460833541e-01,-2.138394527810864587e-01,-8.926424108094584142e-02,-4.713384259911447827e-01,4.116697905780950517e-01,1.115026154436796757e-01,-6.662991542889059593e-01,-3.247841381361520896e-01,-1.523035951353823025e-01,-6.076338927962113834e-01,-1.887645081981165485e-01,-7.607695766446802982e-03,-4.137098687114558193e-01,1.945318288585109467e-01,-4.185508636577315311e-01,-9.888050455674061989e-02,7.179071767310325758e-02,-1.190934032673832965e-01,-2.382609413294845824e-01,-6.573275025685249018e-02,-1.157419363408058038e-01,-4.381511939478634904e-02,1.896145604766827017e-02,9.740853610225343184e-02,-8.084764267762571677e-02,-6.566540717149269013e-02,-4.368463916717804096e-01,-1.434393162393236554e-01,-2.760279365609042204e-02,-1.630035379357618330e-01,3.578495706506403667e-02,-1.712260121710351135e-01,3.064714270006385077e-01,4.441136018823401144e-01,-1.904903654661182499e-01,-2.661702198867734737e-01,2.649284578453569572e-01,5.847692937663961921e-02,-2.244743618450091849e-01,6.055806083826859726e-02,-4.196674520976504189e-03,-5.487105855014614564e-01,-2.370099610522617695e-01,1.949797850334233362e-01,2.867013273498943485e-02,2.584476434782211896e-01,-2.696541607382504924e-01,3.186552324665630764e-01,5.486363685319511213e-02,1.881512534412289883e-01,4.614247119188993884e-01,-3.305120406967526070e-01,-1.497582582531149231e-01,9.975273409808370351e-02,-3.687879939455115941e-03,2.428918741159502570e-01,1.242986277193947275e+00,1.029549340138941338e-01,1.585224452501651504e-01,3.155475222190497475e-01,-3.730390806577795204e-01,2.643753762745688629e-01,7.527596176939389816e-02,-3.330254111867996247e-01,-2.798161844878821469e-01,3.573747274032946231e-01,-2.291031779678371627e-01,2.677417384300248560e-01,2.298808776032117418e-01,-2.974500675901011748e-01,3.330099945287549185e-04,4.361483527247599079e-02,-7.927959591476906043e-02,4.122859581112173211e-01,2.472361778145444611e-02,1.618187577244039055e-01,-5.949988889476819087e-02,7.826012039342281623e-01,6.931336132221925517e-02,4.713861537133298696e-01,-4.376207991478021919e-02,1.215917927982141655e-01,-2.968084559700501224e-01,-1.766150622164698869e-01,-5.027687303758425763e-01,8.773653415663594524e-02,-4.219523906623799669e-02,-2.665327148783148137e-01,-1.872188560690801404e-02,-1.955749532005471580e-01,-8.236255300195587381e-01,-6.460443447676923467e-01,3.185442995244193443e-02,-1.486907861684548249e-01,-2.972783352190001560e-01,-3.292729093981243416e-02,4.885450194971555637e-01,8.158997096128731141e-03,-3.636393846115643091e-01,4.873852295252253386e-01,5.793215995136995478e-01,6.429875917846313016e-02,-1.639484672059587922e-01,-8.633098602973152125e-02,-6.952515547567258980e-02,-1.232978690225512847e-01,2.882475542014545367e-01,1.099476712612668383e-01,-1.540535184021401549e-01,-3.680090932185764996e-01,-9.020801494635538598e-02,-3.206854657249251228e-01,-8.848302621180201277e-02,-1.942669251251632687e-02,-8.846094653674392572e-02,2.306800471433340660e-01,-5.825968541850987670e-01,-2.821819092380724037e-01,2.309278881956575158e-01,1.134590497011621485e-01,-5.780823244177388243e-02,2.081228263337136022e-02,-1.589566340047546267e-02,5.559431855102310582e-02,-7.883669034133313769e-01,-3.530686156611374527e-01,-1.436208721958369960e-01,-9.410631776102840879e-03,-1.277322408226245209e-01,3.757928411646872524e-01,-3.040715037695425615e-01,-1.596114049607085250e-01,4.531965277416477589e-02,-3.941589979744974936e-03,3.643565486723320812e-01,-6.193282756087372526e-02,-2.492108319228991675e-01,9.396859778132084229e-02,-4.424461487905759771e-01,9.215088864043367856e-02,3.100092365766528024e-01,7.659706971107231588e-02,-1.216944890785282701e-01,-4.249171935778665032e-01,-3.551774993392706366e-03,5.126537867869158660e-01,2.477717743912322135e-01,-3.601510538452644683e-01,1.074183289883220427e-01,-2.753802811680874929e-01,2.335824067617655320e-01,-1.816963054805109667e-01,5.437555677740157911e-01,2.657909636596377245e-01,-6.067076585996616228e-02,-5.837109993874881747e-02,-4.781709575875257023e-01,4.977677068829451934e-01,-2.908871687598573175e-01,-1.641682681795249010e-01,-1.225686408107552472e-01,1.312873960867919909e-01,3.624250077672984127e-01,-5.565384439920206816e-01,1.080382629278385520e-01,-4.280078848931396784e-01,-3.112893343095039511e-01,-2.185058923500767802e-01,-4.089380839714601423e-02,-5.450473429890829724e-01,3.302413284199349208e-01,-2.045630890951802283e-01,6.876185478963951769e-02,-2.500693530696346603e-02,2.918302897450476552e-01,-4.164257175183938009e-01,-1.550433771111917602e-01,-1.002238655245067667e-02,2.387915143029366583e-01,2.111407002343501996e-02,4.757353890866082291e-01,-3.010750823712611823e-01,4.912146292035290407e-01,5.613758277636314575e-02,-8.826356760228809550e-02,-6.646754700283283857e-01,-2.291130281694874482e-01,6.225198052660460002e-01,2.960189534658034805e-01,-3.126031723997839129e-01,7.009295069400650613e-02,4.231247669301986258e-01,-4.686446594982542901e-01,-1.611206841552823565e-01,1.610721024073353269e-01,3.436385243858779415e-01,-5.212007898319834243e-02,-1.878141480649358763e-01,8.541748394400619504e-02,-5.406741540361246212e-01,6.880108918288664610e-02,1.086982195246049068e-02,-2.335968413227159646e-01,-5.048298048300844942e-02,-1.146184348537098857e-01,4.221084267690894398e-01,2.221922154577679887e-01,-1.498990525359137627e-01,-1.128440551739218201e-02,3.957222208875826874e-01,2.219434030031451621e-01,1.417917756572256716e-01,3.453213870149028364e-01,-1.082272335710363909e-01,9.550010803304226359e-02,-1.207764579399430854e-01,4.353792353641169899e-01,6.065320069640346007e-02,-2.897063592637670326e-01,2.465883462246237084e-02,7.521054829777972239e-01,3.055054651619683037e-01,-1.999433684529553779e-01,1.018035919632332836e-01,-1.661602415438003244e-01,-5.958365032757397678e-02,1.066910028217604722e-01,1.198920126611740800e-01,-1.895648424865050141e-01,5.077224859393746348e-01,-4.014810028758987182e-01,-1.234613658697137906e-01,-3.980643146733297000e-01,1.333151035336899437e-01,-3.603020669071814730e-01,-1.130508109463342487e-01,1.636819310971369679e-01,1.135001196196001316e-01,1.923399079324021321e-01,9.648157370811950573e-01,-7.908457339181730605e-02,-2.097062373464555485e-01,-3.009227700895573676e-01,4.940206505731595810e-01,3.139253605326365326e-01,-3.045461367327904068e-01,-1.161156943153268256e-01,2.172415601606356717e-01,-1.919925031123691783e-01,-2.506101556130518326e-01,2.749793403125555535e-01,2.101651962572973209e-01,-4.495882614433925339e-01,3.226827074374345045e-04,3.296105776491007333e-01,1.423252846194157650e-01,-2.452750171903819720e-01,-3.324646106581796157e-01,-3.833018516100142881e-01,3.192364033370578280e-01,1.070259256654820280e-02,5.032650035396266097e-02,-5.153802815992478692e-01,-4.914003418715208737e-01,-1.002499365711685339e-02,1.538654968201734474e-01,2.593973823620670388e-02,-2.104875299852571602e-01,1.066076813158236686e-01,-1.527223834486031440e-02,-8.660135050633488429e-01,3.396753724773945993e-01,1.457307567728114150e-01,-4.680383569690977352e-01,-4.153766408047803171e-01,2.642172120156727200e-01,-6.743594512773828376e-01,-2.447780412645700066e-01,-1.363027327727756310e-01,-4.899841666116169780e-01,3.422823634757959921e-02,-5.801849940823438079e-01,2.280766560252104336e-01,1.176411271289793670e-01,9.000920107245641288e-02,-9.145695558592464858e-02,1.905112432485394081e-01,3.832329872528235648e-01,-4.136192674994310092e-01,-3.101275083240390695e-01,5.592327204238436295e-02,1.953107474965807833e-01,6.758369259285154640e-02,2.534102055841423451e-01,1.269380423881708575e-01,-2.080161597775203597e-01,5.642953384063263966e-01,-1.798252859763708744e-01,-5.413943670528670316e-01,1.522311130434829685e-01,-4.407880227626258252e-02,1.323631844779440403e-01,7.985195311840184718e-02,-7.572688809189265235e-02,3.121067105968589606e-01,-3.760577183048432470e-01,3.115273211041036383e-01,-9.874950960576553416e-02,-4.694317541406227701e-01,-1.687811369560452412e-01,-2.543343433179028890e-01,6.397285650575926796e-01,4.711933554084798970e-02,-3.205358713229412015e-01,3.189975769595542188e-01,-5.360773774728919694e-01,7.593240912535330345e-02,2.173471531902509968e-01,-4.004176349617769720e-02,-4.088293301821197545e-01,2.085903808946882321e-01,3.138154965432934929e-01,-3.365521519556435304e-01,4.282777220382847500e-02,6.529596931421720318e-02,3.823055371153777360e-01,-3.494628711851240910e-01,-1.911478719749937771e-01,1.415957262508846792e-01,3.110860886694789551e-01,-3.690329401799303244e-01,-3.851622241587076556e-01,-6.419081191925626872e-02,2.622522340778154493e-01,-1.307991865368833273e-01,7.475160326825912582e-01,2.197836738642508503e-01,-3.443926288249867240e-01,-4.247642943096269774e-01,-8.289467871217348627e-02,1.468697260719548370e-01,-1.840007633622560146e-01,2.688621125957006419e-01,-2.410393351348660285e-01,-3.717736392100802756e-01,-4.868792893268744093e-01,4.866904973189913330e-01,-1.897790726263794137e-01,6.149828154397082303e-01,-3.641528805035956773e-01,-7.527758242615755213e-01,7.553788502388514292e-02,-3.406766225245436153e-02,6.870268859313360954e-02,4.469436852981769071e-01,6.814125693147360385e-02,-3.723613123630212240e-02,-2.997617348258642123e-01,1.541959454826859199e-01,-2.002336703216573977e-01,5.769417935529974617e-01,8.353034465113359786e-02,1.494321158540917460e-01,1.686933609429628056e-01,-1.031634115291698295e-01,-1.729749981371466461e-01,1.753099061277689774e-01,-1.372957241087857383e-01,-5.097342715440239536e-01,2.194276309928490376e-02,3.572674920220065831e-01,2.948851822320428528e-01,-1.743504195404423918e-01,1.899874104786264117e-01,-2.964835719106326817e-01,6.893277943930472551e-01,1.343942694878551974e-02,2.374508327339540925e-01,-9.386298419762911446e-03,6.336434620313924349e-02,2.917184961778924307e-02,-2.538747403883552245e-01,2.366497323830856758e-01,-2.152950131089630681e-01,-2.397102409222457570e-02,-3.151316789843835453e-01,-3.973796120908307250e-02,5.002014605088096477e-01,5.048110839636261310e-02,4.436504078163329701e-01,-2.417315475525599541e-03,-8.581735877002537594e-01,1.927767669600762568e-01,4.593889810595908063e-02,1.520573667652074801e-01,5.661987957877105959e-01,2.104773314132329931e-01,-2.571207105800099590e-01,-3.407893721172743362e-01,-1.281487190964524236e-01,-3.485254066901143088e-02,6.543907739471584162e-02,-3.351715354216107112e-01,4.197208664805616302e-02,2.144579291361751738e-01,2.818338912910991478e-01,7.266287564979853619e-02,1.941186926112601907e-01,6.458360506067520324e-02,1.464121756276977604e-01,-1.499984469862865877e-01,2.226310063415426199e-01,2.284279007058929445e-01,3.304365517314975520e-01,-3.531845621169520388e-01,-5.074722304003506101e-01,-9.768309124339294436e-02,1.528155116939439173e-01,1.384245616051820935e-02,1.700805175390177615e-01,-1.768165762572450617e-01,1.311450320746756701e-02,-5.761113844852271404e-01,-7.799817604475925426e-02,7.603083819355470341e-02,-2.569137252795522519e-02,-1.017629100148100957e-01,2.153128590482339955e-01,-6.792641514022970672e-02,1.828387851244549500e-01,2.321784612158427630e-01,-2.050681522514486224e-02,-1.120976716612509111e-01,-2.517727960425970579e-01,-1.704495788477037588e-01,-5.878306848298889831e-01,-1.644154639195968826e-01,2.163887722154265655e-02,-1.516991293973085908e-01,-2.836663966139031379e-01,7.686102454339355239e-02,-1.435908901684045808e-02,1.447803676591110089e-01,1.010040590891526924e-01,-4.271652662215921215e-01,-8.459961187796327664e-02,3.482138294201033712e-01,-2.742340672005614266e-01,5.513450808314530605e-01,-4.272678597124344724e-01,-4.251451658346500628e-01,-1.924955271865104178e-01,2.051504489524467734e-01,4.496290391903244865e-01,-4.153836565424195298e-02,-1.903589261820396589e-02,-1.561955416368544791e-02,2.954909021746063846e-01,1.543469481570443058e-01,2.239642794928878022e-01,5.718965563367461868e-01,-1.141554725722834090e-02,3.845619417600982387e-02,5.852121076054662696e-01,5.472908296715066623e-01,-4.776703635757986177e-01,-2.448103240462502495e-01,5.225047870436738684e-01,-3.615706792348147292e-01,-2.724748500102043836e-01,2.909838767737822907e-01,4.206148604287079928e-02,-2.204532715739623561e-01,-4.242763687766175074e-01,-5.119738924983628925e-01,4.429687403239968568e-01,-3.889322841045171897e-01,1.219401063390692513e-02,2.527988492573520762e-01,-2.782134510810562733e-01,-2.448301280528213941e-01,-8.654519462394616447e-02,-3.185873130847639012e-01,5.006522272141956664e-01,1.650510214597612768e-01,-2.353187566292735608e-02,2.358778725976513890e-02,5.934503431597982770e-01,-3.666010480852264219e-01,-1.684925125367310594e-01,5.132646059086141133e-01,2.069919273357537226e-01,3.141424821039331267e-02,-2.784576647093086055e-01,4.161247791306957322e-01,2.708758780696295387e-01,4.601412747447669593e-01,4.717149776440904274e-01,5.398562787066667895e-03,2.309327155373636087e-01,1.075841526540476517e-01,8.763193052122089655e-02,-4.963597466182619877e-01,-2.203090466532188485e-01,-4.977147674268253552e-02,1.123908548112521333e-01,6.370176113815239072e-01,1.121134041336874498e-01,3.730263012913025422e-01,-3.233033569628315784e-01,-2.302013206977827076e-01,3.979700364175484673e-01,1.637327622020798290e-01,1.141037219846933459e-01,-4.753510449914333247e-01,-1.699633231886324702e-01,-2.506712653807801061e-01,-4.604433379877375110e-01,1.999770566097673896e-01,4.009683391808245290e-01,-3.657762628769040680e-01,-7.764674357948683769e-03,-4.397699348880516057e-01,1.021828422276618853e-01,1.022172443427361022e-01,1.517479224919680847e-01,-2.267294703962980662e-01,-1.462013632821499154e-01,2.565028541212366342e-01,2.584943366020949207e-01,-2.939283678099778307e-01,3.334640548235940360e-01,-1.955540139474677419e-01,-7.674551343015985072e-01,7.170762516803587394e-02,3.823070941995482808e-01,-1.916036932506695600e-01,4.604633898858553898e-01,-3.798371717603336029e-01,-1.577355312973074131e-01,-5.478525482083353854e-03,-5.420538940747710727e-02,-7.021104528500996533e-01,3.698505313879812961e-01,1.875679186571002632e-02,1.440163936401409051e-01,-6.237057157470066171e-02,3.783597097190441461e-01,4.768469836950934848e-01,-2.053719551347832073e-01,-6.382264281627836322e-02,-1.342047301130467885e-01,-2.886674114815699910e-01,-1.824960941524652602e-01,-8.923730966009539231e-03,2.850407095049148909e-01,1.474849104128640453e-01,-8.599343043113355511e-02,-5.567705477794592239e-01,8.187514014187297073e-02,1.645137826323042063e-01,-4.581817504396126228e-01,-1.494605906140901441e-01,-1.227218569031953976e-01,2.990972162997306283e-01,-5.260151621662563226e-01,4.676006988976693646e-01,-2.188531494632704189e-01,-6.371636954797660346e-01,-1.423913847320497361e-01,7.968951445725605542e-02,-1.052357534777478704e-01,-1.011610598122226479e-01,1.726257676038684408e-01,2.020415477051098752e-01,2.035649702754881683e-03,-3.115949142959446028e-01,1.779977980033319307e-01,-4.642740606883309640e-02,3.299061559886548589e-02,1.850523271169244310e-01,6.230058887488276742e-01,-5.179283648716256350e-01,7.314798685864769279e-02,-1.409494420104338841e-01,-3.687428257029750633e-01,7.239366763783043612e-02,3.546919135283500002e-01,-1.246161365166898426e-02,1.745885081286814855e-01,4.760246551721969421e-03,-4.861201388140984903e-01,-3.005432183030896098e-01,7.352600969966473221e-02,3.121937960214028474e-01,-4.163639930911439690e-01,4.065942505083355168e-02,1.195910495808701068e-01,-1.837177146773040781e-01,1.171675275115153514e-01,-6.781849259537553465e-01,-9.888012926264053148e-02,2.732501903409062516e-01,-1.151399470700276151e-02,-6.679444880574858523e-02,-3.099376109287815817e-01,-2.989491630306485015e-01,8.959070710802648219e-02,4.530018566017172121e-01,1.744939004123887416e-01,1.287869186534486565e-01,3.516959014318983279e-01,-1.906681230985765307e-01,1.261386653363658628e-01,4.339403954998249935e-01,-1.392221527058433439e-01,7.870711864922604883e-01,-4.113304529084008676e-01,2.235799482278090500e-01,7.748030818146284596e-03,-2.232940225896772393e-02,9.150899834744419259e-02,7.044483597292424681e-01,-7.107492847404432990e-01,-1.561247738631940385e-01,-7.359873853610075789e-02,-4.134519354830623605e-01,1.453558294648029936e-01,2.488560141623238076e-01,1.560697850680071719e-01,-3.886546656506192354e-01,5.579326169966788984e-02,-7.175193358029751112e-01,2.015590369495519063e-01,3.178883736366854840e-01,-4.609962998409537771e-03,5.541555233327261076e-01,-1.266901271206183344e-01,6.446861559785210805e-02,8.632241002265317320e-02,3.985470242026092347e-01,4.244388423115767230e-03,2.499998117903092509e-01,-2.727742621101819642e-01,4.932235977789625192e-01,3.089755328718538641e-01,-2.182422575944508725e-01,7.211809363540586104e-02,-4.172356312592581662e-02,1.593053425752237184e-01,1.838601976133328597e-01,-1.399283826299520805e-01,-1.141535532424656080e-01,2.849526686239353679e-02,-1.612711131913711349e-01,-4.934181567162398419e-01,2.593393852145730039e-01,3.981680517616221771e-01,2.054025127622419872e-02,-1.492907161947004957e-01,-4.362236568020169125e-01,2.161691005905785612e-01,2.245129409866242209e-02,1.232630961905728378e-01,-3.238749162409604310e-01,3.904615007011849048e-01,-3.807565726520772409e-01,-5.079098593521946814e-01,3.796626814010838347e-01,1.590915855086378131e-02,4.374084231462030403e-01,7.562380178926345065e-02,-4.634380194040027545e-02,5.383173183604230694e-01,3.052391853210388306e-01,2.028629636268887426e-01,3.846697732860953067e-01,4.906616473382592880e-01,6.069154085987285008e-01,-1.851970401971013425e-01,-7.264347975220881992e-02,-1.292494075462610748e-01,-8.652954239392597613e-02,-2.339678611467746472e-02,7.374937016036973991e-02,-5.867913350134611461e-01,-2.121749090306417895e-01,-3.719372999660730539e-01,-2.391114880799034559e-01,2.800485620464457023e-02,1.573444459376196758e-01,-1.103341485474626515e-01,7.895051983257560524e-01,1.609221391758351161e-01,-5.509825566974535516e-01,-1.826652860739709505e-02,1.088320554199020129e-01,1.788524994127208556e-01,-2.287311625550459693e-01,-4.334407319728402763e-01,-3.056412886011098951e-01,6.284998031741979851e-02,1.765012431624746192e-01,-4.039747530168578127e-01,-4.250613363130603672e-02,1.397886374873163196e-01,5.315153886980160669e-01,-3.907989368136691732e-01,5.938588131396232289e-02,-3.578436754370005468e-02,3.543868427240404739e-01,-1.266939408252116261e-01,2.554940901364655681e-01,-3.688596179774515371e-01,-7.351372549437938941e-01,-3.129275760506756293e-02,-8.347261144466110172e-02,-9.898796272979160094e-02,3.464968308183640211e-01,1.338317571316615384e-01,-2.434858309748565153e-02,2.978572270424499346e-01,-3.513630280294874897e-01,-4.397725419878572017e-01,-2.195755847516302761e-01,2.488475329462123131e-01,1.430429354363845496e-01,2.984732590497891080e-01,4.598352330215024764e-02,-2.863950483279091852e-01,2.566414538256391320e-01,6.961116825061981761e-02,-3.102933653470278941e-01,5.230191245667831224e-01,1.328209127194714123e-01,-2.670230582015706289e-01,3.192289341221779542e-01,1.253911388159221207e-01,-3.792460975735439943e-01,-2.065650618872094668e-01,-2.920366526048636530e-02,-3.091214359927505484e-01,2.457364654813264104e-01,-5.805035962289750717e-01,-1.964522901877888417e-01,2.132471986579896617e-01,-8.945484330043024235e-02,3.159886934120384461e-01,-2.251351733432316315e-02,2.859078978920559511e-01,2.346430121209827080e-01,9.225255739709344038e-02,-1.917825033683709102e-01,2.995013357421609235e-01,-5.820899372162416929e-01,-2.785024401385175485e-01,2.952148702215085518e-01,1.570421498255797355e-01,3.138764198476702849e-01,-7.538191014304606030e-01,-3.210900903341551427e-01,-1.790194337746834827e-02,2.502640053702057110e-01,-2.197404435408582546e-01,2.761238433218526911e-01,3.269366000352857266e-02,-4.663547655399578884e-02,1.313944037282722688e-01,-2.578467004136857088e-02,1.395579202734026358e-01,2.781572115777393162e-01,-2.503277195454676196e-01,-4.311339477784513208e-01,5.631821362604494396e-02,4.235192440030509098e-01,-1.412689959502243520e-01,4.026221872553826797e-01,1.885762929770579133e-01,2.458859824433846375e-01,1.094114368039127844e-01,-2.916247557679311000e-02,2.857803395481935960e-01,2.357504290697631510e-01,2.204276397795929335e-02,6.936152315696456627e-01,-8.661731978120293385e-02,2.576204784152412164e-01,2.142450003828541283e-01,-3.698257009851141364e-02,-2.629416036541984414e-01,-3.363453232422121686e-01,-2.707387872206446500e-01,2.718214794581384486e-01,-1.878120660123547281e-01,1.017445940397589399e-01,-2.642128823945484595e-02,-1.335572161329278036e-02,-3.324924021208970279e-03,-4.265386847589658914e-01,-1.160609273695108329e-01,-4.785382061259690900e-02,-4.437033579164554320e-01,1.434862792856845815e-01,2.078741153808993380e-01,-1.249485566235791767e-01,2.293913460768521283e-03,-4.214545978692022486e-03,-1.193179135760830956e-01,-1.554806863834392594e-01,2.848548059863479920e-01,3.554587639833797774e-01,2.397657422722771492e-01,-1.418036147313082584e-01,-3.189719627589770456e-01,2.271380375477061175e-01,2.915970718470397016e-01,-2.562595347970801629e-02,-2.506018877425997826e-01,8.417195728287965237e-03,-5.789641033663730507e-01,-1.561970778244953575e-02,3.546443603907341036e-01,-1.243611024305232848e-01,-5.619556542933686893e-01,-7.664038100183414581e-01,1.003768692246435723e+00,4.959172644007143194e-01,-1.168741324723647501e-01,3.902639240033342616e-01,1.343516705640627473e-01,-1.955392248949653355e-01,-3.374958193874989798e-02,-1.587171243438734447e-01,-2.161062734946854746e-01,-6.016561925363520524e-01,7.807013768162186784e-02,-1.658958023092494127e-01,-6.414901623395494190e-02,2.210950463530267640e-01,-3.756406509298958474e-01,-5.217431997664389032e-01,-2.604091644957332585e-01,3.411687641565620543e-01,-3.933161307468348994e-02,-1.643233198060438105e-01,5.148870424947078472e-01,2.286521828554150676e-02,-2.507469724435805181e-01,1.341269727425880576e-01,1.621776224508826858e-01,-4.939390306212468329e-02,-1.159923049441510534e-01,-6.977784774087176789e-01,1.279346599628843062e-01,5.470902886719088976e-01,-4.887262984770809338e-01,1.399025494541713231e-02,1.399988327910837646e-02,-4.968683623362654123e-01,3.695759201407573524e-01,-1.721148499316477176e-01,-1.066370619126865010e-01,5.098056123055800387e-02,3.853069662763766723e-02,9.787452532788068482e-02,1.527580307484408262e-01,2.708539104264184316e-01,-2.232501318675050028e-01,-1.788741524813386441e-01,2.677518099400819085e-01,-6.675871039189083811e-02,6.611799066603376573e-01,-1.615602271138015245e-01,5.123946409759091297e-02,-1.913485820354723227e-02,1.888828668821540824e-01,-2.138545658478600842e-01,-6.472730188742463475e-02,-2.247430016222199123e-01,-3.154400506922108022e-02,2.686643255623989354e-02,-4.987238838044752431e-01,-3.260690611388963878e-02,-1.987853129051726231e-01,-4.289089642253995360e-01,-2.446586902024013022e-01,1.191126668516427206e-01,7.577974181413790755e-02,4.232602879397072693e-01,3.802535196512658693e-03,1.529854751184379913e-01,2.027733116588530671e-01,-1.312854579599657956e-01,-3.596939178307679841e-01,5.975668207516544872e-02,-9.041836036633527085e-02,-4.527755305430059551e-01,-1.971226353931978537e-01,2.702101801237875578e-01,-4.003456139710800249e-02,-1.951410309649689867e-02,3.163394656481858802e-01,4.743394237576437078e-01,-2.841008982171236985e-01,-4.400154960505964219e-01,1.138269445993533996e-01,-3.166805936730457960e-01,-6.683093324495092968e-02,-1.138719462463053667e-01,3.996681102408236042e-01,-5.728611367666009563e-02,2.645583080861312331e-01,1.241174819575687482e-01,-2.385681956865387185e-02,2.486695940241236691e-01,-3.292656927567229053e-01,1.924224583497518015e-01,-8.848062803450598701e-02,1.121004627756767846e-01,2.635119496762367564e-01,-2.303164705935074608e-01,3.725167196610529308e-01,1.358356295102104427e-01,-3.181007275358196940e-01,6.771334117219621196e-02,3.212031348414661203e-01,1.490747114130044071e-01,-2.050920815498655236e-01,1.725664296015185228e-01,-2.587773057063779691e-01,5.734341769909642728e-02,1.610751933169123420e-02,-6.453863099641174994e-01,-3.890983947895770290e-01,-4.111724123532481401e-02,2.999218341297588686e-01,4.331562339314927179e-01,4.832102263541027676e-01,5.489424190636587042e-01,4.904756288544313142e-02,1.192724380766098657e-01,5.333375013841679113e-01,-2.641197649360773059e-01,-1.107587053469981236e-01,-1.416605883071105076e-01,-1.025926454734821247e-01,1.795598875327247268e-01,4.744924768503747670e-01,4.727394219093306038e-01,-2.849250398992478894e-01,4.576540669909555659e-01,-6.741159104492471243e-01,-1.012918559138436814e-01,5.670910207013030169e-01,-2.544782029899695930e-01,-6.886634862804968948e-01,-9.762004165746938911e-02,1.079335518738211985e-01,1.337487015254393841e-01,-1.170557361507660460e-02,-1.130521585070280895e-02,-2.175291928692724974e-01,-4.423921734101419201e-01,-4.376551310315687227e-01,1.070655519674876405e-01,-1.474890259180744734e-01,-8.977485121544404034e-01,5.224979441230709343e-01,3.363574794990770167e-01,2.806446349231911386e-01,-1.039358705969458258e-01,3.329646606831963007e-01,-1.808803036439426415e-01,-2.856823508889541618e-02,-1.982299236440214774e-01,-2.097828813540097148e-01,2.120644823140125923e-01,-1.579690254487427503e-01,-1.521703150944712923e-01,1.117631397329949677e-01,-3.315367987591249510e-01,-1.320571160039552827e-01,9.976257753447403953e-02,2.027491455631645068e-01,2.656764238075157714e-01,2.458233460765068268e-01,-4.991891267709857027e-01,-3.065713431319894711e-01,-6.707352771259743607e-01,-1.822506480125758999e-01,7.471508745799719520e-02,-1.865118033679865339e-01,-2.744611099890715833e-01,-4.702826546845690903e-01,4.501249640730508039e-01,-3.583508615683733689e-01,-7.404520502713633767e-02,2.117557224509412639e-01,2.858081811312554454e-01,-5.947867739768744055e-01,1.731004892807784523e-01,4.601796348919153234e-01,1.962409048868771488e-01,2.552300951327983181e-01,2.807988023564737534e-01,2.702973779177945124e-01,-1.866728519980473747e-02,-1.588926252224143187e-02,6.143033320328476765e-02,-3.373969665652391536e-01,-1.587558680232212804e-01,5.126122697731011479e-02,-4.093330578245995000e-01,3.767740823871428280e-01,6.730186796581125730e-01,-3.714359950862622939e-01,3.436566356212779616e-01,5.833223216407866785e-01,2.772500159393293528e-01,3.776468380322983154e-01,-2.389774437663429729e-01,2.693556202930189047e-01,-3.037004808601135863e-01,6.854534426160127647e-02,3.953801425970745465e-01,-6.480513252316695560e-02,-4.391574161128672382e-01,-5.296665623505517617e-01,1.280248412232874722e-01,3.732539614049108501e-01,-3.220156676569505549e-01,1.184113950273600474e-01,-3.466153559670711592e-01,-5.487787163818860225e-01,-9.787165848095143172e-02,-1.899753194313978655e-01,-1.788211284496756814e-01,-1.385755789786128622e-01,1.200549680045884596e-03,3.894620652029933128e-01,1.698946070276207213e-02,-6.482998059398892288e-02,-1.612531412450164126e-01,1.690072429425037159e-01,6.152316676083452451e-01,3.068675279210179574e-01,-4.009339123290521223e-01,6.674220770034504369e-02,5.425445635487333718e-01,-1.020037540535975312e-01,-2.768723140870623656e-01,1.639919365358229464e-01,-6.765942770510216531e-02,-1.227527468737951155e-01,-1.972916570270067949e-01,-1.820223940723176559e-01,1.843645975564672801e-02,-1.007892433258060147e-02,-3.965323222250587976e-01,9.521927092927520708e-02,3.844744587386411117e-01,2.362246825678370465e-01,-2.687673209715603639e-01,-3.204723610985311666e-01,5.738883924977585815e-01,2.934750789449741548e-01,4.817507870182383134e-05,-2.371155627511162267e-01,3.053730568869236772e-01,-1.985719023553773610e-01,4.403405117805394009e-01,1.622982951490531400e-01,-3.754110248464235244e-01,2.048122681414097368e-01,2.809655931084569791e-01,2.119628116013685948e-02,-6.102123455883994296e-01,2.520189168373004884e-01,-7.539810299964860851e-02,-9.444240792932231954e-02,-1.172838330577445770e-01,-2.164334653300210506e-02,1.577426702940767367e-01,-5.206661226234583495e-01,-7.493269806763999674e-02,3.478343152157263585e-02,-3.562546521953731116e-01,2.122901978419802216e-01,-1.131806468482129124e-01,-3.136079138480236117e-01,8.225226579483543854e-02,-2.332481058376067451e-01,9.336221988657869564e-04,-2.120708000385865544e-01,5.452691408233085735e-01,2.351505745208774256e-01,-5.307881881008819774e-02,-4.630747442305924860e-02,-5.623431005141193983e-01,1.080204223410598519e-01,-1.790590645074229270e-01,4.558164035804623815e-02,4.534542328982344439e-01,1.595346322390606697e-01,2.120254087807995347e-01,1.335717417334089663e-02,-5.043427727020781681e-01,-3.063599839818305082e-01,3.512023566821144416e-02,-1.473225655799114409e-01,-1.836989257705286815e-01,6.392214593400319389e-02,-1.879803668349781798e-02,3.624937232288222289e-02,7.296909281993153862e-02,2.768179357756685999e-01,-2.320536596578585131e-01,-8.702278510523158150e-01,3.968570258008106699e-01,9.189924383334323321e-02,-1.212545929890620905e-01,5.396610042476854829e-01,3.853280106282207518e-01,2.999258950624253961e-01,7.103585878268461884e-02,5.237430211707679861e-01,-7.607206423299517351e-02,4.974866408011968666e-02,5.849002678439785274e-02,-1.019296785918289316e+00,4.161852547807001201e-01,6.257661160339741402e-01,1.226920835275971122e-01,-4.257750328764565301e-03,1.329700070071423434e-01,2.986341876148070340e-01,-2.288105565374475292e-01,-4.394553807512776578e-01,-2.124640013268398187e-01,4.337779852928735358e-01,-2.797161085626174715e-01,-1.745509877000927385e-02,-1.216885098456735870e-01,-2.208642792062473839e-02,-4.228219619054190970e-01,-2.194146614960068020e-01,2.922561533003277812e-01,8.799260430521967102e-02,2.906210632033711608e-03,-5.023892406336700339e-02,-4.554413145869148360e-01,-4.151466281395896907e-01,3.196585566689799096e-01,2.109418947848889711e-02,3.518667211698474628e-01,1.021794109940740158e-01,3.205549543658637313e-01,-2.107678787154308730e-04,-1.762778505950367280e-01,1.446650215547106155e-01,-6.882122732402343734e-01,-3.893326156133393723e-01,3.497263954792108054e-01,-1.051505353491413762e-03,6.282485341719683536e-01,3.542327856518147078e-01,-2.321319250521962085e-01,3.506285709775144310e-01,6.746665901606915261e-01,-1.610983798412431167e-01,-3.862822341957344169e-02,-6.706590188613061054e-02,-9.647715435158982222e-02,2.079305673794868969e-01,-2.025250118002860367e-01,6.292453631212918674e-01,-3.826276557382019550e-01,-3.130717696056337651e-01,5.381417178622485697e-02,-8.032659368986531101e-01,2.278299122144970268e-01,1.808117344027262985e-01,2.419575406737946299e-01,-2.334943910630735836e-02,-6.066201833518869435e-02,5.239108431708303648e-01,1.433959571200317529e-01,3.837244377894621916e-01,3.504090572851195073e-01,1.356368775133155458e-01,2.456658526366222450e-01,-8.065323724462236665e-02,1.360510321107418624e-02,1.565923444124383279e-01,-8.587181410551041061e-02,9.895907090055128252e-01,-1.503200308519449524e-01,2.942223855862433068e-02,-1.039688907432003914e-02,3.279774718169022885e-01,-2.409558230068555296e-01,3.540656262105403851e-01,-1.359915446403107409e-01,3.717081655638048154e-01,6.016527823516537588e-02,2.126898807097398203e-01,7.311781847187238947e-02,-4.668914571713194128e-01,-3.226470857405585035e-01,2.128752557926860967e-01,5.074195175868201346e-01,-4.016845117081893068e-01,8.701171501993175406e-02,8.075726399676419476e-02,3.007574205277154245e-01,-9.569106041657501893e-02,-2.989772121933100824e-01,-8.166852566520675649e-02,5.165005255017721814e-02,-7.319187447244657196e-01,-3.816099106981815647e-02,-7.451458422683371330e-02,-1.854903359313258560e-01,-4.665013137767766160e-01,-4.979197482262663621e-02,-3.717145776431585169e-01,-3.562389620028586501e-01,2.773779790008012447e-01,-1.721592894671887808e-01,2.774754830894970992e-01,2.186862868749124000e-01,-9.834730403963637402e-02,-3.825270636648403499e-01,1.543813735373995022e-01,-3.995935888165341038e-02,3.258282143478186677e-01,-2.137935558800228009e-01,-7.095222369996399825e-03,2.353646155908390158e-01,-5.529236837045401615e-02,-2.716308126386553501e-01,-3.073225381209043761e-01,-4.756739766123316282e-02,-3.877350150890331304e-01,1.437574306291607706e-01,5.620795281764426887e-01,2.797011324759662854e-01,-1.019549623981843706e-01,-5.319893219855223454e-02,-1.231497499965312215e-01,-5.166808954660688791e-01,2.494844341296903745e-01,7.004695426588442020e-02,3.472099843105221906e-01,6.180925492098824359e-01,-1.036839474594887789e-01,6.548528428626299025e-01,-1.442190278507331502e-01,-2.949008526016140275e-01,-6.468700033757205370e-01,-4.143027819474371931e-01,2.426236022620809063e-02,-8.617736163510368586e-02,-3.389774711643224747e-01,5.152815607234960404e-02,-1.716767371367489137e-01,-2.662658792996510648e-01,-1.029600192655342056e-01,-2.952700976324507814e-02,-4.720903554716399803e-02,3.082120201839299023e-01,-6.363304846546644633e-01,8.322929522070927899e-02,-1.974189958248089571e-01,-1.121667597692483920e-01,3.220802167067251531e-01,1.285032433451085421e-01,3.956059045681397657e-01,5.905123726020214958e-01,5.188747618599964806e-01,6.822024204286776181e-03,2.495510548262290518e-01,1.834410445734484252e-01,-1.445454855787675630e-03,1.898999367993338960e-01,1.353311786869420830e-01,-3.532840629590109915e-01,5.242114167913198841e-01,-4.853289432913522883e-01,-1.682039239502670369e-01,3.585094966341980105e-01,2.753860424965634546e-01,2.657577714345183417e-01,-5.979595871583470723e-01,1.602086949477544986e-01,-1.044379186865760367e-01,2.192003870950286204e-01,2.137996267476659912e-02,2.576894386975784323e-01,-2.051564644582985486e-01,3.728909830249177992e-01,-3.176303035822194420e-01,-4.181741422815921094e-01,-2.500974614761930503e-01,3.298170448279872519e-02,-9.287407263516103684e-02,-7.782943529068256719e-03,-7.602392478882598059e-01,-2.205241243768336079e-01,-3.651682527813059354e-01,3.761201175817572850e-01,-5.220466739185208177e-02,2.293630949879263969e-01,1.107903874421860696e-01,2.121591497845423946e-01,-5.055663546629698968e-02,6.129789482088218028e-02,4.842656404557124095e-01,2.763551003477656698e-01,-6.075449820765905784e-01,-8.131367289524823461e-01,4.455106826730502734e-01,-3.162746350506102089e-01,-2.528319713066247143e-01,-9.825006445935137445e-02,-6.621453345998035145e-01,2.958257557987790110e-01,4.956191296819370540e-01,-1.747569913529657126e-01,-4.165208481017690922e-01,2.129184049240400722e-01,-1.885235874481498153e-01,2.431984228904034706e-01,2.512176881066981449e-01,8.557041728792788571e-02,-9.804464088408709754e-02,-3.334914558355355219e-01,-2.564792951653320774e-01,6.862110021085429667e-02,-3.992506208384607458e-01,1.774466399097395786e-01,2.121917070422526530e-01,3.021699259362408685e-01,4.803787154620445810e-01,1.208443081879356368e-01,1.821309530017586331e-01,5.347951616475220549e-01,-2.095875960558987727e-01,-4.506767917234037468e-01,1.829814454909711730e-01,-2.304356579411444006e-01,3.201432849001599745e-01,-1.707989994379739973e-01,-1.223407913473550795e-01,3.798662762596385217e-02,1.901844311280391775e-01,-6.146319446899549677e-01,-5.971456604593197021e-02,-2.375088283915273157e-01,2.744512331173303288e-01,-7.307827539237150838e-02,-1.554809231820126481e-01,-2.034618520132671637e-01,-3.506722017644317568e-01,1.215004964055741848e-01,1.923885700658015813e-02,2.258708420328932598e-01,1.147927862602216194e-02,-9.616733669350846503e-02,-4.959609450875927528e-01,-3.319145388322374268e-01,6.831150052890305746e-02,-3.592947823130642204e-01,-3.215309112808256709e-01,2.008710993514168375e-01,-1.551521825416089240e-01,2.480210194278455182e-02,-4.652593772311271469e-01,5.049912034845361886e-01,1.204317902041721344e-01,-2.758721118775201986e-01,-3.970338821667823703e-02,-3.509841018403005442e-01,-2.322576778127168062e-01,4.740985573957032240e-01,4.470920053200010402e-01,9.546857810654651999e-02,4.971145332061912558e-01,2.743037987357680452e-01,-1.720938654305097237e-01,-4.473343545366106899e-01,3.496593895999933199e-02,-3.931235392960972241e-01,2.993427988886256941e-01,5.004856317673977983e-01,-5.227454801396897929e-03,-1.786490221349670837e-02,4.138309894984609771e-01,1.268274352236202218e-01,-6.356373802899814573e-04,-3.116995318480171584e-02,1.577985541744554576e-01,3.016769497880562034e-01,3.069669093595637221e-01,2.271650946913789659e-01,2.137950066316102182e-01,-4.016358784231296997e-01,2.899110514431582075e-01,1.373094580221292660e-01,3.035543331965629976e-01,-2.576169358122061201e-03,-1.481660413124837872e-01,2.882120837761644946e-03,-3.238320456351533316e-01,-2.054025079858658454e-01,3.218621893243185372e-01,1.019384636649432185e-01,2.888011145366695676e-01,3.952053361446239976e-01,2.256322130236321569e-02,4.609078995943705626e-01,6.538667434213880636e-01,5.408289481927847087e-01,-3.506847614575333560e-01,-4.017585307316622334e-01,-6.976593892215322557e-01,4.901537854320325849e-01,-6.870747962975305712e-02,-5.616695732958880694e-01,-5.293458675251286882e-01,-1.190228702820964601e-01,1.297302913434356109e-01,-7.121786696904568170e-02,5.687403825466138402e-02,-1.086850885396915128e-02,1.661019286795893946e-01,-1.132604778246895649e-01,5.327022371152003721e-01,-3.317021033186197121e-01,-2.331452252691604277e-01,4.016485193701596623e-02,-5.255979999675010061e-01,6.570942619005455676e-02,7.393094972224253381e-01,-4.083289709010997637e-01,4.498981365221922379e-01,-3.188033657953759370e-01,8.054253480636254514e-02,6.032936496113999736e-01,4.394286885621207644e-02,-3.743695809833368360e-01,-3.891232482260404968e-01,-5.450609775239574628e-02,-2.842819940550238567e-01,9.559978534859510102e-01,-2.742249131540268059e-01,1.409040070598056860e-01,-2.011170983261626188e-01,1.401400196098905870e-01,-1.640928616870458434e-01,-1.768812694679009270e-02,5.187592466853389039e-01,5.939629543192422034e-02,1.595247275502094941e-01,-4.565311136430003081e-01,-1.867333150528851238e-01,-2.142951464780681881e-01,-1.632843833556746338e-01,-2.673525943033675523e-01,-1.640794977168730795e-01,1.734396992302477958e-01,4.326782375282709481e-01,5.392336607652820080e-01,-1.640158846458272535e-01,1.235586041561704679e-01,-4.772549917674380193e-01,2.926589610411940989e-01,3.104642457695843544e-02,-4.419160153137372676e-02,2.706637190267229265e-01,-3.905323665849277925e-02,3.036415019174012464e-01,3.887952350827878489e-01,4.281083079806619618e-01,6.747768445173840668e-01,4.429613778147918346e-01,-1.336947888578413068e-01,8.562098037980533927e-02,-1.144866545857720352e-01,1.504744700188604678e-01,-1.359136783616966826e-01,2.056300948250071869e-01,2.878048568984727384e-01,-4.163157236951731122e-02,-1.461388529827195304e-01,-9.662154118705777728e-02,2.496584665017672344e-01,4.427119114015459211e-01,6.521646303325959737e-01,3.059533379909539774e-01,-8.727446519947494596e-02,-1.794393197695956510e-01,1.688152084638993300e-01,-2.353555808851141573e-01,-6.753755761056991908e-03,1.675985510284851987e-01,1.451960305525061279e-01,1.117449244236191352e-01,2.471001214866906659e-01,-1.889169877751232379e-03,-1.558771484066889812e-01,1.787634374831188408e-02,-2.390099947718400120e-01,7.102077630092046290e-01,4.084640349299952788e-01,-6.421979765282898045e-02,-4.433305534112024215e-01,1.195602988358416136e-01,-3.231246378894822024e-01,-1.967156208497346515e-01,-2.321744277622174724e-01,-1.449761153421718352e-01,1.987335930034814929e-02,-3.440839426406738788e-01,-5.888567508004661361e-02,-6.902833097058416745e-02,-2.357401120084814394e-01,-3.168638182825618266e-01,6.096442500835449474e-01,1.943931551938312685e-01,-2.533555002149249225e-01,1.158296956422167484e-02,-4.492995185539379599e-01,-1.962258391542564540e-01,-8.391401741444402818e-02,1.365895087603201663e-01,6.275215234109932094e-01,1.114594804189211752e-03,2.941817358326767606e-01,3.394108079682066348e-02,1.832641547220456302e-01,3.026838885207245450e-02,2.013516567008032110e-01,-1.944361664914744381e-01,-2.832643220370262838e-01,1.526908959866294657e-01,-1.941728206297536063e-01,5.363510691996091484e-02,-2.240469472062220913e-01,3.129177928846446077e-01,-1.523740825558525247e-01,-7.570929945595347710e-02,1.265004889395859589e-01,-9.837046892919826258e-02,-4.504712232957960860e-02,-2.275267519319576492e-01,2.860605525945897343e-01,3.229043852408431392e-01,-3.530468242487022068e-01,-2.748906798430570952e-01,4.275101038150884714e-01,-1.819752273710331103e-01,-4.488419006865446148e-01,-2.885559274422381248e-01,-9.546780350175294860e-02,2.741314806465494081e-01,1.106234740600027799e-01,1.548416313847760795e-01,7.705741059192471043e-02,-4.163885980070149984e-01,-6.173499105252522323e-02,-4.083673983486144077e-02,-3.545293603274636829e-01,7.620600293726640384e-01,1.728922972787762524e-01,-6.310359907060042461e-01,1.719279169808223817e-01,1.485295137962555911e-01,-1.637016582507618556e-01,2.652167832905079070e-01,2.883377129781971582e-01,1.867351316827434993e-01,-2.016756095193228959e-01,-5.125631814199206326e-01,-1.115630993446222602e-02,9.660725843599145268e-02,4.363823666227705234e-01,6.203157503051633936e-01,-4.283914807220019078e-02,4.358925803878291871e-01,-1.960808784800867691e-02,-4.210320054654614341e-01,-4.126257808193061205e-01,1.134423961241079054e-01,-1.318903219284624229e-01,-3.709924925954588559e-02,-1.602448787247485185e-01,-1.143789474250755944e-01,-8.118661150343686392e-03,1.046485521288333664e-01,1.748489071879726353e-01,-3.767165102689790657e-01,1.989882465138661516e-01,3.524828994723819275e-02,9.127157959516053742e-02,-1.221715433596849837e-01,-4.542881121539761868e-01,-2.417876367149784933e-01,-1.553232592034188564e-01,4.652267169828179227e-01,-3.106523182161046170e-01,-5.076410009275195145e-03,-2.675771125853526056e-01,-3.328589065656211154e-01,4.479752270608661768e-01,7.220944945266688508e-02,5.211148634529937790e-02,3.400236056450156030e-01,1.227887473079572606e-01,5.562732984722280616e-01,-4.183368653339894494e-01,1.937015245593389223e-01,1.247559519666996755e-02,2.721057621995947029e-01,-3.912616989055170413e-01,-3.261435433375426407e-01,-5.613929569741286096e-01,2.725563297504542404e-01,-2.999061410845745845e-01,1.160641395047082580e-01,2.640605944267473623e-02,-2.785018466050449559e-01,-1.573269725111939993e-02,-3.362479417737003207e-01,4.279217585120418388e-01,-2.010005481964997898e-01,4.176568058506091585e-02,7.732206109760519919e-02,1.830446718030016851e-01,-3.484370547522409045e-01,2.957582520358816303e-01,4.277500306765347204e-01,-3.308348815035438983e-01,-1.446284553280613450e-01,-4.871973095904260087e-01,5.419275720918122902e-02,-4.352890489803020735e-01,2.381110309702210992e-01,1.468027925387125621e-01,3.277176798844533834e-01,-1.394712830244898560e-01,4.235435529376618269e-01,1.570253570022247802e-01,5.345635605497829346e-01,2.219974633573704725e-01,-3.594681900141007830e-02,2.140246542494297077e-01,9.637701594044603692e-02,-1.810304081089864070e-01,-3.341491329568700985e-01,-2.346448212071160500e-01,3.275153952736695184e-02,2.545991392249277174e-01,3.563733038062938951e-01,-5.166952120187980890e-01,-3.081503740974780303e-01,-7.857847098962042476e-02,-2.698823271281956537e-01,1.385560501173853376e-02,-3.619062001025730169e-02,2.727017638521779808e-01,-2.033498785718386159e-01,-1.206530395630032448e-01,1.426016626278752419e-01,-1.823779199434833742e-01,-2.222913075021248630e-01,-1.155250086801079268e-01,8.001828631116855717e-02,5.235355631261302545e-01,-4.125342917509555174e-01,-3.725988508447331538e-01,-3.850336024422109094e-01,5.566659351227131181e-01,-1.222366293579897345e-01,4.090538005128550592e-01,-6.353793913614843580e-01,1.605487262899182865e-01,-1.021289046167481729e-01,3.026446319480248226e-01,-2.571014950322858539e-01,-1.531886925871405736e-01,-4.099279760400341144e-01,-1.224147450247691921e-01,3.068550078220888544e-01,1.939431543199874319e-01,2.355289362786891494e-01,2.755052087259006743e-01,5.465088857457720689e-02,-5.260038979218870092e-02,7.028972439008450424e-02,6.743660807174168825e-01,-2.518460078056026785e-01,-2.648070526912114642e-01,-2.443242405809694928e-01,-1.412436981347671983e-01,2.888157200850655082e-02,7.899541072462579194e-02,-3.051080291315304005e-01,2.484539126741875381e-01,1.665525349277791889e-01,-1.553904065819529390e-01,-8.294136215424874337e-01,-1.359718663715729636e-01,3.497100209587833963e-01,-2.418558763758174024e-01,9.789145195308281144e-02,-5.374728192709517238e-02,1.237732197450037291e-01,-9.380888883076503315e-02,-4.543234478230915308e-01,-4.630963554803269738e-02,-4.955690596593588237e-01,-2.113005455038703961e-01,1.388826505741560247e-01,-8.943058288520687460e-02,3.686132583906900351e-01,-9.617183237660420492e-02,1.116876680216753390e-02,-1.803277764200258426e-01,-2.434057327658650793e-01,4.263188057094857708e-01,-2.213396772703456888e-02,2.176087781161136214e-01,8.533127981594576528e-02,-4.308647504571880282e-01,-3.053627338634610777e-01,-5.419549243840273700e-01,3.225854679948084169e-01,-2.542393468478207352e-01,1.614974702229583781e-01,7.990100682077851124e-02,-1.991088650785109160e-01,4.109696384064492336e-01,-1.698707880472267451e-01,-1.718150085018932405e-01,1.091132367757661620e-01,5.153585744482512832e-01,5.134555427530290705e-01,6.973815371323314194e-01,2.529992402248243399e-01,3.814600154481108396e-02,2.486924724175809120e-01,-2.890494458692945412e-01,-7.904759114427459821e-01,-1.705833596737003355e-01,-2.908224876944375814e-01,-1.092127242525756936e-01,7.172475282817283304e-01,6.068108722213191863e-02,-4.477787105111907806e-01,-2.505170129483900721e-01,-8.677018688813060987e-02,-9.992878094643245501e-02,1.352668996424045145e-01,-1.218765473842332164e-01,-5.494034181581375353e-01,2.344908021406396648e-01,-1.814055082848198552e-01,-1.055260678234325455e-01,2.580651167333967710e-01,-1.004621955051480664e-01,-1.318006233604332791e-02,-1.369368550689341324e-01,1.176157612399955227e-01,3.193994773871025594e-01,9.566890000485706036e-02,1.828526209352666632e-01,1.930025777440227130e-01,-4.786115202360852541e-03,8.420113088385598743e-02,-2.655657517866845674e-01,9.098049661522424059e-02,1.095067002129377354e-01,-5.182748833643686659e-01,-2.085252749384027271e-01,3.970327208616418746e-01,3.219099784235466832e-01,3.620405317898554576e-01,-1.684818444178092789e-01,4.262382803689684918e-02,-3.902037181097500057e-02,-1.515965108003909378e-01,-2.825330339109930478e-01,2.299527168966597201e-01,-3.368906324021481158e-01,-2.916108270628244847e-01,1.626814858827006771e-01,-3.965996915597466699e-02,-2.556555075908431007e-01,-5.826345067611198303e-01,9.612384503668806868e-02,1.805962411509676527e-02,-1.548514993031143705e-01,2.863246543026726210e-02,2.026907020820188643e-01,3.070174414058481349e-01,3.128541893059697543e-01,7.662752130094060976e-02,5.327810713024913047e-01,4.885810940344565423e-01,-2.912571703957890501e-02,1.194912254563876980e-01,-6.539063740848805040e-01,-4.801343577823056763e-01,-1.043052775384385178e-01,6.584832374812092659e-02,-2.644708341029684551e-01,-1.044525911304594601e-01,8.839944240373863726e-01,1.395834781042046453e-04,-1.114990403837459038e-01,-3.255621073201284688e-01,1.621798526309042310e-01,4.918367410333506773e-01,-2.938717039988612556e-01,-1.581063393341015366e-01,-1.700287072912371744e-01,1.660527637746025964e-01,-1.103522655049448686e-01,-1.763361885322288491e-01,7.850649369543934997e-01,-1.631856311213601002e-02,3.440811886136578568e-02,-1.437565796808614460e-01,-7.675681874125165338e-01,5.567779161141047650e-01,7.253678444620489940e-02,-2.375228389644211402e-01,-8.432740054705218924e-01,-1.320307085639650935e-01,6.587430461084526900e-01,-1.304567762934540076e-01,2.956793827734203323e-02,-3.462209403874741409e-01,3.726823606277681056e-01,3.202024119770871535e-02,-3.898172561742110215e-02,1.055460264640650098e-02,-3.264957219037858960e-01,-4.914247334844224491e-01,-4.050987405705570588e-01,-8.586918923834926942e-02,-4.260277780778387036e-01,2.721338929118910510e-01,5.281150187571911347e-01,3.054755888268134711e-01,2.441698261391359592e-01,-1.896725300513229517e-01,8.974460288014307618e-02,3.614854270577025908e-01,2.897400733057801658e-01,3.139460795617706745e-01,3.058398246815509092e-01,-2.324591121983921038e-01,-5.492174151543784827e-02,9.140190228253418370e-02,-1.183381923858112666e-01,1.104891310931305770e-01,-3.790250690923266941e-01,1.933334018376246799e-01,-4.539180014822497000e-01,-4.049567711010442633e-02,5.818453052808463255e-01,2.450871592739381211e-01,-4.913161240758959214e-01,4.646191675793854281e-01,-1.354748423831673432e-01,1.357196341218129265e-01,-5.538939074102764426e-01,6.590312491677821072e-01,-2.680775624458246464e-01,-2.928152989611790269e-01,2.470008052900851403e-01,4.011211326459686588e-01,-9.524362215946630128e-01,2.856444558368181896e-01,3.142523516069005152e-01,-8.209976890217418610e-02,-8.979012270560758624e-02,5.728732222065748836e-01,-3.287517022879288819e-01,-3.706559824410350368e-01,1.802795365079867471e-02,-5.259469444639983671e-01,3.499227242149796080e-01,1.701337192422586533e-02,-7.649821655112210017e-02,-9.647144560164064853e-01,-3.126143459805379166e-03,6.077707569379350305e-01,-2.966146665055821030e-01,4.514879107328835794e-01,-4.300093731246046880e-01,-2.492379770607607292e-01,-3.754132832219033572e-02,-4.537588812435794372e-01,-5.222491941803357463e-02,2.261034655302971152e-01,-2.490108034449154129e-01,9.239937985851934266e-02,-2.213204786230712484e-01,6.012946304563083766e-01,-5.890928748840434936e-01,9.074654758389344433e-02,-4.179717417420448222e-01,4.536161313044030918e-01,2.219901098987525634e-01,-1.616946835937279128e-02,4.991639273164578949e-02,-4.624047212801846857e-02,1.248439572880103987e-01,-1.732863541770124360e-01,6.447570395381600761e-02,-9.205161930712932317e-02,-1.991403106253024080e-01,-8.345299188124698231e-02,-3.735924980996325195e-01,-3.833540860590267663e-01,4.820956131779919884e-01,-1.026443222317524329e-01,3.561293864943245180e-01,4.020356519105864890e-01,3.733397908774405138e-01,7.793538759915688563e-02,3.107022437602358425e-02,2.565316870901222512e-01,2.842117255078245308e-01,-1.661268215716013852e-01,1.458720763444229518e-01,-1.576956771351783193e-01,6.199126690464084044e-01,2.241854212850448447e-01,3.775595581153280422e-01,1.727885497882950816e-01,1.711437178731300274e-02,-8.988266416171689088e-02,-5.416441294595353284e-02,1.549796585213334410e-01,5.622470755857729430e-02,-1.070453619571214848e-01,-4.536873481469171077e-02,2.217408318181612881e-01,3.362981542415353908e-02,-4.123729443626045210e-01,-5.177966195298465690e-01,-1.248909035901315523e-01,-1.408834751190130574e-01,3.824002125256292239e-01,-9.442751860580375634e-02,-1.660703235324650084e-01,-3.277837585832533707e-01,-1.076918428045803289e-01,-7.818865298791756457e-03,-9.675034282279827702e-02,-6.353121663468447311e-02,-5.095477516006744478e-01,2.145183549807879730e-01,4.490957998367180459e-01,-6.618104028760156687e-01,4.479803909142358181e-02,1.679886222424285258e-01,2.811610003366514232e-01,2.565287986445415891e-01,-2.908010061601596363e-01,6.756462129480976520e-02,3.578294939126277496e-01,-4.815442749730800553e-01,3.015726559150820330e-01,1.815813445225093470e-01,-3.348308905101052280e-01,-4.930653201977054367e-01,3.577889177684566713e-01,1.631551165925106683e-01,1.571119333967394838e-01,3.846653184023052230e-02,-1.228886931807260940e-01,2.075894428131926650e-01,-3.007156947660636348e-01,-6.542988357529574417e-01,-4.157955728319902289e-04,2.432373712285694212e-01,3.987552028283379291e-01,3.401235386813001305e-01,2.048993697451967355e-02,-2.345736268160899529e-01,-7.770978677735132512e-02,-1.526840052948245409e-02,1.365017487283277098e-01,3.672715292204883353e-01,5.776479866567580529e-02,-4.593022807660859796e-01,7.023691718206002133e-01,-5.803291149461101833e-02,-5.799826461355637175e-01,2.280280120449962034e-01,3.511365459773155839e-01,-1.860396452028928449e-01,-2.817416822694273071e-01,4.615972453658674923e-01,7.788608841747465816e-02,-3.795505234209110013e-01,-4.079730075005950085e-01,4.795681195227124299e-02,-1.976299481013277237e-01,-8.303531707442812770e-01,-7.988189702692763405e-02,7.288850989855544249e-02,-2.636490712199861530e-01,2.878765923868613630e-01,3.075039874307333720e-02,-2.901789840153544686e-01,2.006390423889028163e-01,-3.872810206601565719e-01,-4.390173209185775360e-01,3.801580633056418357e-01,5.291870823747680808e-01,1.777890923478195884e-01,-5.909104434133881367e-02,2.394644650256907426e-01,5.274565977593084209e-01,-5.304732890279899582e-01,4.211214412182071043e-01,4.093216227196176393e-01,2.070269003733962720e-01,-1.533650126828559335e-01,-3.398750226984882938e-01,3.141171243226779097e-01,-3.132618443269187813e-01,1.561953189764533900e-01,5.995153477737950043e-01,-2.709886412975548997e-01,-1.373667705485555057e-01,-2.570907904042204484e-01,-2.887725678563952264e-03,3.096316531372281800e-01,6.754109358847391054e-01,-3.369999896044179044e-02,9.237041048895326678e-02,4.634689300174957977e-02,-1.754087653478168529e-01,3.730777262305662867e-01,1.931871494490349228e-01,6.981517814520257215e-01,7.750807555558474338e-01,-9.102755856448582761e-02,-3.227403618374069527e-01,1.307827924219326088e-01,-3.083469422474048871e-01,-9.149123286502572339e-02,1.452238130043582709e-01,-4.651751203548972757e-01,-1.165174717997892809e-02,-4.510606554777762955e-01,2.909596739323082049e-01,-1.218453547487266114e-01,-3.805473847750492390e-03,-9.215656032222144245e-02,1.454940835867217681e-02,1.595013439598759186e-01,-1.935411419742086303e-01,-1.176261371484541018e-01,4.318451978839375760e-02,-1.268495453901191117e-01,-1.804754233513881923e-01,-1.961051696912068931e-01,-1.420783568522723250e-01,-5.385289666878343429e-01,-1.137829202027432207e-01,-2.701842314428524738e-01,-5.810820005760100049e-01,-2.398007718784495035e-01,4.480451205824582672e-01,3.102966030200186021e-01,-2.056457457082579154e-01,-1.026725705236233993e-01,6.027189220680045229e-02,-4.202418719533715374e-02,2.306882438458618678e-01,2.085326351128594935e-01,2.633062504822194019e-02,-5.384557149268923704e-01,-7.824213299809990030e-02,-2.300218151422207813e-01,6.522600772753791576e-01,-2.771762775664574630e-01,4.908109359193536803e-03,2.396708937631832903e-01,2.773594830351245322e-01,1.264542051177178772e-01,7.616934799749051910e-02,-3.380263912980620566e-01,-5.116592714635914696e-02,3.092421915906358731e-01,9.199901922833904344e-02,-5.077416217048410368e-02,1.096021895215159858e-01,-1.981126994654870133e-01,4.749319122748021232e-02,7.512705269082520232e-02,-2.240539210780472801e-01,-4.271686327805999661e-01,-1.832600672438747247e-03,-3.494832364323783858e-01,-8.382582573244602431e-01,-2.454009203796252425e-01,-1.692710407279023888e-01,-2.765885394275081621e-01,-1.151438358062859685e-01,-5.255703889202506529e-01,5.424535135639495936e-02,3.727022266454342592e-02,1.878361845113334649e-01,-2.637516144517872974e-01,-8.259677038483038969e-02,2.345697083489662049e-01,4.746253766878595903e-01,2.723219159233472020e-01,-3.293307576162958494e-02,-3.348185867365456314e-01,-3.399803499766498871e-01,2.190325120763322864e-02,-2.146281519793527548e-01,2.932186378506425051e-01,5.438135206231465846e-01,-1.335029194871894809e-01,-7.708374944623178071e-02,-8.683389049916645508e-02,1.100127591717817988e-01,2.477160605856962849e-01,-2.290722998414980727e-01,2.349775835347028552e-01,-1.710341516202057432e-01,-2.511667204961047783e-01,5.867405311448423699e-01,-2.180955457537642472e-01,5.651221832671628198e-02,-3.959697191327749555e-01,-4.159957641241919801e-01,2.387139680462127544e-01,-3.432757378205723575e-01,-1.574445390658905583e-02,9.153623493019905077e-02,-9.556768165259550696e-02,3.296176742725386299e-01,8.072522400626606920e-02,6.977475002623613476e-02,-4.183601948449438418e-02,-4.975015400293357204e-01,3.121680912792559326e-01,-3.211439999673185164e-01,1.380140537140955304e-01,-1.981060857426395483e-01,1.323372672298925856e-01,2.251438420669737428e-01,6.562737076964927363e-01,-2.342245705582635951e-01,-1.021303345640523080e-01,-2.101141179761822908e-01,1.817296885757492542e-01,4.165807642804009170e-02,-1.730582120716545602e-01,-1.637050323790383288e-01,1.711685571693889393e-02,-4.336833415887014070e-02,-2.405472753803970243e-01,4.368003369996735497e-02,1.001403010784116532e-01,7.646011531581951848e-02,-4.380727055898284705e-01,2.769980488702105670e-01,2.277076659809687542e-02,4.023060107377383066e-01,-3.768572329925472253e-02,2.700819927925129926e-01,1.730954722770463861e-01,4.123153433410458590e-01,2.687465332979745436e-01,-3.376015073510467146e-01,-6.367223780225935055e-03,-1.143543253395801484e-01,-6.677732295970862861e-03,-8.979286362091994794e-03,-1.585282446721458793e-01,2.015232138900776016e-01,3.153120447966814566e-02,7.269314854244035562e-02,-2.693846718848301736e-01,2.848868400672414092e-01,-1.248048941749397844e-01,1.147454277239231407e-01,-3.626169314754595918e-01,-2.151083951271818007e-01,-2.219642052413619837e-01,-5.075376533866931411e-02,5.179028647288559661e-02,-5.426137834610290644e-01,-2.608708184935497054e-01,-2.317289308569060180e-01,2.752035642825313988e-01,-5.158705006478748745e-01,-1.729096428831705667e-01,5.895331712207653174e-01,9.396278413764214132e-02,-4.701768357042162561e-01,-1.540910431003106873e-01,5.333218677965390064e-01,3.771400170412715913e-01,1.511321527928495834e-01,2.315718790864621512e-01,-3.505271693393265942e-01,-1.094968827342929774e-01,-2.767841900387178478e-01,-3.384366243420401654e-02,1.155639608472464192e-01,-3.467486749524184009e-01,-9.064182653501010045e-02,-3.668146964585442538e-01,1.917543174596347544e-01,-4.940991667168613544e-02,1.366053959637357207e-01,2.286185193189320397e-02,5.646247624235227747e-01,-5.368875482639786645e-01,6.170056178422849147e-01,-4.268978693286806236e-01,1.633718374721383482e-01,-1.704717548534744054e-01,1.226666617520305175e-01,-1.008172714121107344e-01,1.172531122119754438e-01,1.508367788559037137e-01,2.752214442030746777e-02,3.540701080530673783e-01,-1.519327380019891982e-01,-4.068307164187742742e-01,-1.773647868510464659e-02,2.643363747931849472e-01,-2.301032384874022729e-01,-2.619112949015579006e-01,1.823231679752877060e-02,1.808751015783508498e-01,-2.029057733707390412e-02,-5.779936712220769962e-02,1.115364691062281227e-01,-6.162374262697518645e-01,-1.109448555665643599e-01,4.539134698950454960e-01,8.794934281559667333e-02,-2.223526700146135071e-01,-4.783415454299917990e-01,4.077901731904916283e-02,-3.111777839272514279e-01,-3.235194432912988707e-03,9.992285624119713605e-02,-2.649896446038672027e-01,-1.154067322038272864e-01,2.526310352103459111e-01,-9.325642445811208048e-02,3.564114470124436496e-01,-7.549185758468458796e-02,-1.615759523281214485e-02,-7.788023753906108126e-01,3.839024852783084474e-01,2.773990072640478144e-01,1.612773799442011602e-01,4.996466570783143074e-02,-9.013150126802224604e-02,1.994796795986956695e-01,6.668960619037939130e-01,-3.291101247897006837e-02,1.105514119471837503e-01,-1.190976942023093399e-01,4.801872528563869147e-01,-2.411067437628023613e-01,-3.991098126035018123e-01,3.468969276036213412e-01,1.083198395012050230e-01,-1.276462274188218046e-03,-3.029977536606336952e-01,-9.891004300072393784e-02,-2.949393647386981399e-01,3.330299583394007168e-02,-2.835934754386650325e-01,-9.107774686435471390e-02,-1.177171168802685908e-01,5.808409256814527771e-02,5.833589314565439804e-02,2.837836963312512784e-01,2.237924465685952810e-02,-2.735015432109971223e-01,5.332597516765817947e-01,-7.493185059998779263e-01,5.227998182135873417e-02,2.762947265294822888e-02,-2.312773475087099018e-01,4.964237736815235724e-01,-1.706012154353521715e-01,1.069718526873610909e-01,-8.247063078128802349e-01,-3.361900215306216633e-01,-2.384018976223523656e-01,-6.167555442489108808e-01,2.597024096219593403e-01,-2.098380489797773973e-01,3.906688866742934474e-01,1.355492430562376949e-01,6.625709247932788648e-02,7.583074683506479952e-02,-5.303004579647510042e-01,-7.528773064448092134e-01,-3.817664458293481555e-01,7.254596946518995226e-01,-1.924135415226889967e-01,2.334583056781519839e-01,-6.261440149578711978e-01,-1.433163387839384018e-01,4.835760698347979503e-01,-2.397672263905581969e-01,1.078146804336653497e-01,-1.371179855860213959e-01,-4.068329020546563868e-01,-1.494502902939126576e-01,1.700221490202826480e-01,3.207910586089878224e-01,2.611532512895650693e-01,-2.128563710785568719e-01,-7.432137243678399452e-02,-4.306590027881718186e-02,-2.733901687341474540e-01,-2.063070229231733083e-02,-7.309200480511898190e-01,-2.858804259922615443e-01,-4.619991601831191508e-02,-8.561817739642318958e-02,-1.589317299692415489e-02,-2.991286567440228916e-01,-2.343633900318055074e-01,-2.473447181630529859e-02,-3.040987729006424667e-01,-1.133421835837241654e-01,-9.741463904618241632e-02,1.000922577032060390e-01,-1.870808417353862496e-01,-2.944177562437458318e-01,2.590523382037833167e-01,2.525729495408199354e-01,-1.666887169540837432e-01,2.134597471054410778e-01,2.978782099926853277e-01,-1.927204834925999588e-01,7.438681736812723100e-02,5.409386776454435664e-01,4.159231236233305040e-01,3.680503386081647454e-02,-1.575226358467438081e-02,-8.872108680549219140e-02,1.527193177710645666e-01,5.604090410992380589e-01,-7.983440732871012468e-02,-6.778733693812094563e-02,3.822999558204042692e-01,2.224501454850927040e-01,-3.064739445894365533e-01,-2.716679215942753300e-01,-4.290919651162804216e-02,3.722942638873074639e-01,-5.748078144357948727e-01,1.253046910895870836e-01,-4.384894388590031000e-01,4.101410207410828845e-01,-4.624904556091543051e-01,-9.389165325339826618e-02,-6.252424770424663825e-01,-2.132487855504671681e-01,-3.404189426356985654e-02,1.916110060544553573e-01,2.102340405632640297e-01,4.180575267850744625e-01,-3.488189231749808106e-02,1.402489417901504054e-01,1.532535154377479558e-01,-3.935803114255091995e-01,-5.386922429680918167e-02,1.262957626044839132e-01,-4.126227850987358448e-01,-3.060557081293993620e-01,2.653068081653570665e-01,1.312946778020850358e-01,6.650499512582178085e-02,1.957465675373614433e-01,-3.563745717924153844e-01,2.383315579397775053e-01,-2.886872780100175895e-01,1.150902162413012728e-02,-1.149395923291576284e-02,-1.992059356627993161e-01,5.704951689762844946e-01,-1.533055532115840391e-01,7.019313708622506587e-01,1.708357939502312961e-01,3.248121089172859022e-01,7.192799742897117987e-01,-1.989278628566480966e-01,1.859952315588375704e-01,-1.968544425762232541e-01,4.142036205706974283e-01,3.788901811886368626e-02,-7.663616297148063972e-02,-1.436505807741437213e-01,-1.596930076312665092e-01,7.576080711839187909e-02,5.871190314564456170e-03,6.989724335478508799e-01,7.809351694593436033e-02,3.656829264308922856e-01,-4.399485478715626785e-01,1.378407325600524980e-01,-2.157658776937820544e-01,-2.930661739969925850e-01,-6.303760043244166500e-02,-2.071085689118818129e-01,3.181653816529214640e-01,2.711090855457147786e-01,-9.352559047575279005e-02,-1.597689695131768450e-01,-3.935223578412396783e-01,4.789781188462106098e-01,2.832123113643160092e-02,-3.310643510092838859e-01,-9.465841158041715664e-02,1.709902379182759724e-01,4.975991734621968560e-02,2.900313787247112973e-01,3.867697564526525467e-01,-2.270318968089927170e-01,-3.947345457108202005e-02,-5.555274540813071038e-01,-6.086845207604345553e-01,-2.587691742136731254e-01,2.583699732878837474e-01,3.581659609521090776e-03,1.803692928337170542e-01,-2.098462579798566485e-01,-6.103640294360332397e-02,3.988571892146972053e-01,3.295876284707343062e-01,8.235867251755253637e-02,2.235468044222805317e-01,-4.337980654316943574e-01,1.455150961080478311e-01,2.710067807268075613e-01,-2.461784418189127688e-01,3.641036637496606471e-02,7.945094166774258060e-02,7.959509066365794139e-02,2.025364677472722974e-01,-3.678528103492013090e-01,-3.322938111449512677e-01,-8.510699049105591163e-02,1.619136685258307229e-01,-1.845747307326860986e-01,2.853792576340864473e-01,-2.277971874756808124e-01,-2.497668516688000828e-01,2.137565324128500033e-01,4.027775658671357839e-03,-2.288954224591254194e-01,4.745656030046476181e-01,-2.846935922630201565e-01,1.865247924959222980e-01,-5.234319604299351170e-01,1.750678407247019744e-02,2.264369253969846993e-02,1.532517801223625409e-01,2.579452977677330061e-01,5.866688915006156718e-02,7.506246300482161127e-02,-7.299326343305158338e-02,3.252293656665077859e-01,-4.480567937166595183e-01,-1.142917730121190273e-01,2.752263951392719399e-01,-3.280754061464056237e-01,-1.380475930550509600e-01,1.323653398971233741e-01,1.104420073113576845e-01,-2.548785068992735423e-02,5.041741000646765558e-01,-5.464721762380555514e-01,3.419905895350604935e-02,4.846805880223706980e-02,6.668222057817088100e-01,7.910845882315625799e-02,2.251272155897401372e-01,8.831736866003940534e-02,6.491822509385644091e-01,-2.397060092209851723e-02,2.567324054415414114e-01,5.537626036260362428e-01,-5.551483573802201699e-01,-3.049848336252276582e-01,8.534552928799814253e-02,-4.050821177441895626e-01,-1.698655552098203847e-01,-3.105266549457823544e-01,-2.613358188449462216e-01,4.934260458880442846e-01,-1.511961803760088902e-03,-2.566738531604835227e-01,-6.959556362120435935e-01,1.139415422860760863e-01,2.097175648958970462e-01,9.302470568414619723e-02,3.447943317092105886e-01,-7.518000713707530258e-02,6.285520461783348223e-01,6.377443257442105828e-02,4.378213811604029226e-01,-3.982471602426668200e-02,1.732868506815151421e-01,1.151793484574394899e-01,-7.093785737901823207e-01,4.326088531352190181e-02,4.171320452951120250e-02,4.706641869845750240e-03,-4.915034946581249842e-01,-4.146544410707448391e-01,8.702135288643027267e-02,1.728788210122867430e-01,1.888091411908315864e-01,6.446132074158663836e-03,6.779326388738335374e-02,7.216397232087595759e-02,-1.382954349964849172e-01,2.368088899628965904e-01,4.817232589501079798e-01,4.200413562717805194e-01,7.288468300621813167e-01,-5.164666166698476252e-02,6.978651278562005705e-03,4.904903242547575815e-01,-2.215754618946668975e-01,-2.591559359764848969e-01,-8.016566676593021856e-02,3.109687825384568338e-01,4.056549575224708826e-01,7.425193087836393646e-01,-2.787616162140689746e-01,-1.993327170090332112e-01,3.864409488671588511e-02,-5.353866603341451286e-02,-3.093814154268736405e-01,-3.247989577707378200e-02,-1.295822663265441821e-01,1.064949352196660204e-01,3.717475272944086861e-01,-2.799287666582214174e-01,-4.430399046442826672e-01,-2.421536254354469953e-02,-1.192843942742050217e-01,8.882103898582550949e-02,8.260565473589213947e-03,6.773386108380187801e-03,-1.190382625485846974e-01,-3.550887315541114697e-01,-1.275772424794283655e-01,-5.421654593556237689e-01,2.653716497994669798e-01,-1.506601215352594003e-01,3.892215801937685266e-02,4.496257500308107335e-01,-4.800784717714603467e-01,-2.951399109750136307e-01,-5.066694039519176185e-01,-3.282239225822956574e-01,2.819927599003634877e-01,2.331688345443507504e-01,5.288240302509225055e-01,-8.811802886430580850e-02,-2.496574599227355251e-01,-7.141238244931435997e-01,2.808539855385133177e-01,-9.201015576135650187e-02,3.046990246182563200e-01,-5.788060252632830638e-01,1.847008249051614315e-01,2.113477488518399339e-01,-2.822602441973978138e-01,6.674759921636103099e-03,-2.250591809949593070e-01,9.672680126427884995e-02,-5.662911660541495446e-02,-3.027958109994632885e-01,-5.183878391668658714e-02,3.548591577892982740e-01,1.995191941563293769e-01,-9.682074781947086484e-02,3.022565482533222658e-01,-2.386344363704386018e-01,9.180479429371525280e-01,3.727769058472334973e-01,-1.628961967410238743e-01,3.820200544216020289e-01,2.517747264903545945e-01,9.766837638861129711e-02,-6.775747950826804811e-02,3.551085054031971056e-01,2.454232959941642644e-01,-1.740650495080081628e-02,5.164098889728612196e-01,-1.568988314653742833e-01,5.183753993413560135e-01,-2.687249511509821054e-01,8.733260958939963181e-02,1.424487373979968219e-01,7.662527740022978540e-02,4.869947716250887931e-02,3.814983920228207093e-01,3.975176453509556701e-02,1.036225352274035560e-01,-2.822060270407538152e-01,9.461549247261176465e-02,2.263106473630709936e-01,6.070344591807237400e-01,-1.129006248716879490e-01,-1.603403424138284128e-01,-1.415858778610095126e-01,-3.861573110239239701e-03,-3.888486414104869171e-01,4.065314082628091463e-01,3.247830410433556469e-01,8.405832995760682824e-02,-1.689057569392982822e-02,8.429655168370289720e-02,-3.005091364165434209e-01,-1.462702442318629947e-01,1.612479182807771416e-01,-3.597239725773327401e-01,6.507443839615951742e-01,-3.577847984225722144e-01,-9.527915962925845306e-02,1.633935458171009991e-01,-5.678732609968549783e-01,2.673755385169732102e-01,-1.966741881338754105e-01,1.213605274221572078e-01,-2.717473707350128720e-01,-3.513073594122252952e-01,-4.342665348866808217e-01,-4.990772594600089707e-01,1.435451346792749605e-01,2.170849001702165187e-02,1.377970988856012380e-01,2.399505886224931051e-01,-4.967736737162201655e-01,4.270695480539387079e-01,-3.314412207522701714e-02,-8.163306469016056166e-01,-5.283967140567015497e-02,1.228721318164289200e-01,-4.730621541709908451e-01,-2.760906862424394870e-01,-7.542967194132497999e-02,-2.365061055874232709e-01,3.821505986321763193e-01,3.816188854278813047e-01,-1.724840743803534027e-01,4.359562631694716139e-01,9.365822051266101816e-03,-3.673417107252613389e-02,1.556760532771520045e-01,-4.761200907481263900e-02,-8.470643471158467719e-01,3.566822681460555811e-01,3.090219509913371548e-02,-1.368484276401814026e-01,-2.350939165186024804e-01,2.033835647417935877e-01,-4.066941128602377664e-01,6.633376574616857424e-04,-2.883304165819803311e-01,-4.062607321566047425e-01,1.617540138288479923e-01,2.572815971662910026e-02,-6.241459148419848946e-01,6.302675160858551839e-01,4.451697649474024854e-02,5.940429820360219881e-02,9.310644064296980105e-02,1.679585829830009536e-01,-4.528314596863767805e-01,-2.232443578163844644e-01,-9.917281362928663524e-02,-1.745833601829616111e-01,4.950130876263739155e-04,-3.182352414520773776e-01,2.224815950183798852e-01,-3.806689288747412969e-01,1.754701124406968793e-01,4.350043386665937428e-02,1.308786234668509185e-01,-4.006606849314527929e-01,-2.833963352154668033e-02,-1.034031871455449308e-01,3.606917348318410821e-01,-1.237833065944995842e-01,-1.179619532367164741e-02,-2.648358721271756866e-01,8.227981690422666583e-01,3.378538837689140095e-01,-2.156377697491364542e-01,2.127636200516919707e-01,-1.275259295200961707e-01,-7.256204378141929701e-03,5.391260803163548838e-03,-7.235441936628070336e-02,4.158633153231754420e-01,-2.099686441905726786e-01,-4.178636057224249800e-01,-4.644961478457691473e-01,-1.873902425828356810e-01,3.683462131315193289e-01,-3.826217317528060047e-01,3.535948736345415622e-01,2.439039447927842663e-01,6.889891870920299144e-02,2.687580671359944273e-01,1.215089624822405651e-01,-7.230383212126567649e-01,8.058691938711615155e-02,3.241672079725260169e-01,6.557070723083653629e-03,2.513336402770033895e-01,1.627397581402737770e-01,2.268838389241024378e-01,5.243839027242266360e-01,-1.687227178303492281e-01,-1.361432139077977388e-01,3.990742717898604353e-01,-3.909512669144027952e-01,-3.845107686826272908e-01,-3.222291399868983108e-02,9.756126000239570550e-02,3.945079718917333667e-01,-4.569739052280716307e-02,3.150032650045248017e-01,-1.289756604294913234e-01,5.087623716796384199e-02,-3.228132611725442747e-01,-7.657589386451071900e-02,3.359835121372651279e-01,2.792904740842720029e-02,2.300173675118827588e-01,-3.633322365785477959e-01,-4.538972435788868887e-01,4.165070586438061190e-02,1.950337010332119925e-01,1.532519425161458226e-01,-3.344560388834433295e-01,-2.432857164699994967e-01,-2.298248151465405731e-01,5.140869349182806969e-02,3.443145470126044994e-01,3.303153877133045979e-01,5.089878797116544895e-01,-1.833970443723432209e-01,-1.383940691111910926e-01,-5.218789706870091694e-01,-1.701180859798361311e-01,-4.753588972377303379e-01,-2.300719516377850715e-01,-2.725548600843116231e-01,1.056263128300542059e-01,-6.084995160182828967e-03,6.087373165036769063e-02,5.214611259552167644e-01,9.304403743736792964e-02,-3.488417374329120801e-01,6.433993568431624344e-02,4.965104913941611464e-01,-4.464166544807949416e-02,2.494091034577786137e-01,1.212494716058982042e-01,7.075194393613215560e-02,-5.261852372130493283e-01,2.114830942207966968e-01,1.618070586412870271e-02,3.321704392221523916e-01,-1.619945865855956790e-01,-1.873400163186974832e-01,3.896133512609085137e-01,6.568463794880756712e-01,5.904860283762993767e-01,4.872134649211049551e-01,-1.452117480663920046e-01,-5.225433265821197715e-01,-9.940396288233674382e-02,-4.077239224723588906e-01,7.608540703846465580e-02,-4.582750267595593618e-02,-5.606148951866181118e-01,-2.665170363080107130e-01,-7.565483352309267939e-01,-3.341126773310458820e-01,-2.060676328599410356e-01,2.681749671204101682e-01,3.035729563810993792e-01,-4.313544271424592930e-02,1.441784851908535503e-02,-3.226948683603127477e-01,-8.834511355839730698e-03,3.412104672811124284e-01,1.645189891745035271e-01,1.947489883554845147e-01,2.397515714003740916e-01,1.839056950800563861e-01,4.988156851268187308e-01,5.234692114424457920e-02,1.626452454206578635e-01,-3.674985870399642973e-01,-4.372453943359716488e-01,-2.219720385419398923e-01,-6.543704425098634259e-02,2.097727765461807614e-01,4.016639517076571742e-01,2.356526917408098554e-02,-1.032594954794512077e-03,1.243602493722860969e-01,2.567160148128796449e-01,1.667601573235394374e-01,1.578469189039275189e-01,-1.359353462700461923e-01,1.554110064051920370e-01,8.464112631227553585e-02,-1.855666656006081661e-01,1.345463235257908785e-01,-2.238273697347853974e-01,7.863884454619291670e-03,-3.996337762328914800e-01,-2.821890259276352286e-01,-7.084252724011924629e-02,-3.690379093313949088e-01,-1.253708515275507585e-01,3.607525122197649536e-01,1.874044169446057451e-01,5.119500692691272281e-01,-6.523311478991786205e-02,1.431821182217737909e-01,6.291731327285235986e-01,-1.356497302958758339e-02,2.267972513708393645e-01,5.482058396242794895e-01,7.773428575973670429e-02,1.211604505433833412e-01,3.656291662976024481e-01,1.659067841976401003e-01,3.860977302555879676e-01,-3.025424474013657661e-01,1.395287273873115630e-01,-8.355020004420028734e-02,4.104238258748645340e-01,-2.979597214365771185e-01,-1.075085904298238998e-01,-2.693158646798797518e-02,8.567844253975361035e-02,1.264291729847076551e-01,-2.145071603414378247e-01,2.963172442290692987e-01,-2.155506366993218959e-01,3.486456193116512225e-01,2.123670705472697207e-01,-3.730245533304442640e-01,-5.463113235770298282e-01,-4.857393778649658489e-01,-3.310631637738429278e-01,-6.449401813192935373e-01,-3.592910502805441442e-01,6.678311431248394880e-01,3.083193127026059507e-02,2.267750610887900309e-01,2.173487588790671832e-01,-4.326286853926432641e-01,-2.494017530749085831e-01,-6.135899903750715589e-01,3.987694558947037504e-01,-1.211940804397418220e-01,-1.563905002284532789e-02,-2.843302966829855949e-01,-1.927034811560291161e-01,1.895720671322574380e-01,-6.908361380219701919e-01,-9.293329218893747745e-02,-1.560568012155830186e-01,6.403089890856403232e-02,2.190623780077835814e-01,1.308666424479438262e-01,1.742976563593075581e-02,2.552004299515912566e-01,-1.892758830588221058e-02,9.069690668437060954e-02,5.804341308184177706e-01,2.849242236047027088e-01,2.765039422107016809e-01,1.045101147218763238e-01,-1.339820845181758924e-01,-3.038081845755101207e-01,-1.128688422367307986e-01,3.440692344014405490e-01,6.062476022060651060e-01,2.500059990711666069e-01,5.658513240154183777e-01,-3.473287275452353051e-01,5.564003397302984544e-01,-3.661691731770762570e-01,-1.313894041899913157e-01,5.545194738683222324e-01,9.430568441481125552e-02,-5.213506651103234635e-01,-3.193884732568965101e-01,-6.872829255933602874e-03,-4.169876949155731927e-02,1.195197683806883820e-01,-1.837854859306215227e-01,4.385324416801120867e-02,4.752050737160885829e-02,-4.878759698838776304e-02,2.356692143906292947e-01,7.163900399468201563e-01,5.405372995883221676e-02,2.859803778339091163e-01,-1.527481523839993235e-02,5.186161695136483341e-02,-3.215149186511499502e-01,2.253260370737381613e-01,-6.019018318118446453e-01,-7.791241218664342050e-01,-2.694490158114895562e-01,-2.681703917977838053e-02,-3.610392360984341353e-01,3.017401348632212654e-01,-1.133850974757241309e-01,-3.778171951700839970e-01,2.572745947044403625e-01,-2.420491471142726392e-01,2.472447329099059787e-01,-2.102760912431622942e-01,2.416701537922699150e-01,7.020381006912616018e-01,1.846031069428883398e-01,6.223367089393199575e-02,-5.348545612654220793e-01,2.503608580044709431e-01,1.715282490502711699e-01,8.690647827557192173e-02,1.735851248292509252e-01,-3.573739156330936750e-01,3.574904072939493749e-01,-6.233231101999509027e-02,-4.030916353383209860e-01,-2.089493556857522152e-02,3.618040693418622111e-01,-2.018112398176094835e-01,1.676389835266161032e-01,3.713615126290242818e-01,-7.739094188648017181e-02,6.796615442298212240e-02,-9.873052748112200183e-02,-7.639461877819808677e-02,2.386737636146318287e-01,-2.376775983162316974e-01,3.807527128158288421e-01,3.561809142244682369e-01,3.115660184131945065e-02,-3.115672166605818472e-01,5.340109121117131430e-02,1.525200300897468220e-01,-3.859120655917813725e-01,3.038016036765717742e-01,7.383352636043691297e-02,4.584752029652346406e-01,2.391460171535073620e-01,-2.461928135205914969e-01,4.855551481069790287e-01,6.130338863980782094e-01,-3.117345729589855452e-01,6.355112302946923641e-01,-3.016989903737906653e-01,-1.380189964818723247e-01,3.971983010999911162e-03,1.202707856956526794e-01,1.743706043772557668e-01,-4.405141616595721343e-01,-2.867987850123578791e-02,1.201260774643292395e-01,2.307949900499365326e-01,5.825159476283024995e-01,-3.589965906344597113e-01,-1.129273152293987087e-01,1.418915799368084540e-01,4.123482394095940862e-01,4.448107370769392027e-02,5.693850351769636636e-02,-4.698765281661260174e-02,1.761007358484686924e-01,4.667526100665834177e-01,-1.299293573920229927e-01,-7.067002606005772652e-03,3.895656530796114958e-01,-1.978772580588887553e-01,1.379340802587930292e-01,-9.893506019599093010e-03,-2.915032788451133450e-01,-2.007709590706259206e-01,-2.812720244323920205e-01,2.893224950045008778e-02,4.959780699537709170e-01,9.405369082187083063e-02,3.722489067460389434e-01,-2.033330373706621341e-01,3.733391444033486994e-01,1.100118731016789808e-01,8.934115341266923860e-03,-3.615607400286079409e-01,5.864534659871725175e-01,1.979798161905923781e-01,-6.067998231264624953e-02,-1.022334154005814510e-01,1.545960709982472647e-01,-6.529541587435756800e-02,-2.003775639540291142e-01,1.471543662013916898e-01,2.629231787184076463e-01,9.445787786850692869e-02,-3.690292646232509050e-02,1.600238279299024957e-01,-1.034056629855789056e-01,-4.275957837107664528e-01,4.320145583442840387e-01,-1.446357101600161399e-01,1.669856641536046973e-02,-2.015884904791776511e-01,-1.726282585837236594e-01,-2.786517874493405489e-01,-4.663392177468247274e-02,3.421890584395866075e-02,3.436564633427425797e-01,6.794494595551364702e-01,-3.357884890152111335e-01,5.103557607730008217e-01,2.614797306548918288e-01,2.761734679494496913e-01,-1.161425581724724460e-01,-1.813252620413875194e-01,-1.312632672104655229e-01,4.477592465582920511e-02,-1.143786476421264214e-01,-9.449561702542873254e-02,2.390108640587329004e-03,-2.728368197904968984e-01,4.280081930133545348e-02,3.375579174680912869e-02,-2.594205502069640498e-02,-6.818324568761958970e-02,1.092170953971604991e-01,5.250662472980458517e-01,-9.477098294766998776e-02,2.338031794288603082e-02,1.897905478549961611e-01,2.668905154417503534e-01,2.050034200699561437e-01,9.388983857417647350e-02,-6.065284064706158995e-01,7.363244968086816999e-03,-4.903173037186647210e-01,3.228442258031007928e-01,-8.414014921880511588e-01,2.282060423705713492e-01,-1.901360319295163359e-01,1.346487242082233249e-01,1.119289733893121114e-01,-9.474621253596365172e-03,-9.244645155773195677e-02,3.560854566428737211e-01,-1.051802385542720958e-01,4.176547699274882341e-01,-3.755800898892419082e-01,-1.693354818947705176e-01,-6.130873681384943485e-02,1.094644715969099735e-01,-1.536652464923079497e-01,1.528031637556052647e-01,1.273130101707017070e-01,-1.682580709021688770e-02,1.472133708585445649e-02,-1.385081318683504814e-01,1.845754276975581643e-01,3.624723957833884680e-01,6.555599613688205540e-01,-3.685687388820056976e-01,2.764339758459714858e-02,5.127838772108930243e-01,-4.063512187010354104e-01,-2.152192112054080592e-02,-3.221319365416154268e-01,2.405718783590054533e-01,5.577899861225898981e-01,3.528770067769762542e-02,1.523433396720126100e-02,-1.947329410877389200e-01,3.275506567691428561e-01,-1.024132079362061049e-01,3.750391788310346586e-01,-1.365316392055361816e-01,-3.674072758858497045e-01,3.153735735090651415e-01,-3.022435755516606481e-01,1.881360641853021820e-01,-3.670991111568645549e-01,-6.410061422677644505e-02,-9.007608968077937539e-02,2.860204298060017858e-01,1.926669538491046774e-01,3.092190549087982521e-01,1.378519949998361915e-01,-7.090494902201468497e-01,1.048151283413084438e-02,5.360787482821095101e-02,-2.826370423838042711e-01,8.999111297923108321e-02,-1.643478153365963146e-01,-3.155779672540660608e-01,-8.453199702294333928e-01,7.926230400350056660e-02,2.414004200876022910e-01,1.244323885127950474e-01,-4.087619266726768008e-01,2.144815665912591929e-01,1.510829009564307879e-01,-4.765180674232235569e-01,-1.051415316955442159e-01,-2.494555806105352158e-01,1.490428354584661663e-01,-2.114914979778957649e-01,1.834959645080650736e-01,-8.351120104137538941e-03,-4.569101589327337343e-01,4.256390657535755184e-01,-3.533628848878441198e-01,7.382295712607815918e-01,3.213371590379018317e-01,-4.499009049824957973e-01,-2.036682331438177396e-01,2.459734555163474445e-01,1.105145025527162483e-01,-6.014982808994526198e-02,4.098274224374325869e-01,-4.515869909583929975e-01,-1.975282628960264297e-01,3.200230663823385724e-01,-3.823624121752200455e-01,2.313106447924954609e-02,2.231358850071594735e-01,-6.092606512558138010e-02,-2.842215861917354314e-01,3.596642386323365970e-01,-6.014385940613629911e-02,-7.683717741330206574e-02,5.750993381240003810e-01,-1.264728992722210232e-01,-1.196936428217102305e-01,-3.771616290355653961e-02,-1.919386954449618099e-01,-4.038757658855243737e-01,-2.560935394677081312e-01,-3.501635704605990385e-01,-2.696276881868875375e-01,-1.393716777977086207e-01,5.676235760406625475e-02,1.978503173262732284e-01,-2.397557188689370122e-01,4.279689508908597340e-01,-8.224131319485632197e-02,3.256805305859548083e-01,-1.461197619233511047e-01,2.317402320327353188e-02,1.259762708947852194e-01,2.769341529421411319e-01,1.823519632981514260e-01,-9.381176493085238710e-02,-3.392504609399677462e-01,-1.612997256187729267e-01,-4.062535162042676951e-02,2.265873254574380657e-01,-2.438250267854238928e-01,-1.044772765580194718e-01,-4.986920442435421319e-01,-9.690405111220615209e-02,3.326149709214012984e-01,1.400820535881088236e-01,4.539869409876317041e-01,5.530171825416281273e-01,-1.372996230197346401e-01,-1.116551133861748007e-01,-1.345649117909886450e-01,2.773204918360195337e-01,1.642117785887862447e-01,6.677772375532173288e-02,-1.203813751490195594e-01,-5.571349177278623888e-01,-6.792836100918285894e-03,-1.037009215522699396e-01,-3.764438840047679147e-01,4.261064832462573698e-02,3.690289358970403888e-01,3.882022769597733292e-01,2.111664557565490763e-01,-3.813819678104249933e-01,2.327938092173275908e-01,6.598084472733258508e-03,1.753807871658317752e-01,7.654693346222456174e-02,4.269793113549018027e-01,-2.468042198045857227e-01,2.373263932301792889e-01,-1.619915927953998191e-01,5.245878564823569512e-01,-2.354064255196282041e-01,7.880728032083333945e-02,5.459374429679367813e-01,-1.201425159665510667e-01,-9.488617179859624995e-03,-3.134811158780324569e-01,-1.523056020448026460e-01,-7.491257562082378335e-03,-7.687107042905128029e-02,-3.728113383232576350e-01,7.400629694286356419e-03,4.846313779212137463e-01,2.715187164241631423e-01,1.920959568648314963e-01,4.218753192254267592e-01,-6.658651546814347011e-01,-7.539491928171795920e-02,3.443294453880269557e-01,-2.907386729483578125e-01,-2.666066620265080123e-01,-1.750436490091663785e-02,6.167127639199478789e-02,-1.047688855568982974e-01,-1.029753326837502259e-01,2.947061728559572935e-01,-3.064855338463541856e-01,1.054360500426241437e-02,2.143680141933695105e-01,-3.976041041955737931e-01,-1.909417293410217431e-01,-1.899476774494216480e-01,3.520933628656080505e-01,-1.885386146075028468e-01,-5.011650569900786278e-01,8.927164683428761086e-03,-1.616661225770464616e-01,1.125986775201964496e-01,2.214939109872040846e-01,-1.425256241169782223e-01,2.360548617728819021e-01,-1.139515531134064341e-01,1.684344513933415666e-01,-7.100034215373746127e-01,6.150317193631314738e-02,-3.035900968804536304e-01,-1.940292502355545901e-01,4.744077582295905260e-01,3.283374403731605939e-01,-2.830219074451931216e-01,5.693345516809604490e-02,-3.315378687831692373e-02,-7.032906360783069966e-02,-6.703110874040016376e-02,-3.779459500127677618e-01,3.416864541427758195e-02,-5.600732144310595351e-03,-2.581712940967530456e-01,1.728531634397144634e-01,3.869137967414848500e-01,-3.293633055118754260e-01,-3.162466734652543687e-01,-4.491649810353634531e-01,-4.961487656686817266e-02,1.168137936367602825e-01,1.482005146516486294e-01,3.514588033313629234e-01,3.325684751192969912e-01,-1.538726507558261791e-01,-2.039076966698444987e-02,-8.906860968629037867e-02,-7.896865547603230118e-01,7.256443917411882147e-03,2.958741747757831844e-02,-1.255446650663757380e-01,2.083164883162756664e-01,2.841049226651988224e-01,-1.633548586695430030e-02,1.721885578052817223e-01,-4.008303774850227597e-01,6.715475667037668073e-02,5.057977305876480978e-01,-2.916118952506093209e-01,2.508774594915721273e-02,7.802711179745347447e-03,-4.362316459368389271e-02,-6.442164776149983396e-02,-6.623447559819255204e-02,-8.006213424694372249e-02,7.649910486035425838e-02,2.372666801021361752e-02,2.446544823794454537e-01,1.757159235295792030e-02,-4.085061998966099672e-01,-9.706506486108282261e-02,3.164046552579882210e-01,-1.988621328336765415e-01,-1.491797140849908387e-01,1.294073928122300710e-01,6.445166805519878528e-01,6.241597135504979577e-02,-1.475683956095498739e-01,8.363245138238122045e-02,-1.717104197770794871e-01,-4.547832458549772583e-01,-2.283682851410012149e-01,2.385047322634460398e-01,-2.059532097395044559e-01,-1.316663814741194649e-01,4.152138111588411507e-01,-4.015619724701922910e-02,3.772346052221944857e-01,3.216689640591234300e-01,5.986208522284348632e-01,-3.701577676298955510e-01,-1.268422795804888814e-01,-5.345244740674643946e-01,1.311895448959221611e-01,2.121227760415385633e-01,1.876276881463624369e-01,8.942280137550329133e-02,1.620989248985183206e-01,1.003084235412071840e-01,4.391866727249901792e-01,2.225620297837358208e-01,-2.850040344211671739e-01,1.727229447198596335e-01,7.383221558679746443e-02,1.930984578190937662e-01,-1.065150372005401885e-01,2.231025873503834078e-01,8.641137295749642955e-02,-1.332441037396043249e-01,-4.103806120193480012e-01,3.345648588206226459e-01,-2.270607469591625904e-01,1.928555408211053701e-01,-1.172135649253076006e-01,-7.076579459858874932e-01,6.116528398258730403e-01,-3.303944896321821534e-01,2.024218104802779084e-01,-1.732832430725252393e-01,-1.034722116947677378e-01,2.120572470237382656e-01,5.391334271752210583e-01,-3.655962875836100134e-01,1.808405701294401868e-01,-1.983779496587450009e-01,2.994418014418939733e-01,-2.386844319799549807e-02,-4.514637082066975671e-01,3.197977695185988956e-01,-6.212457392061823125e-01,5.091229261047085231e-02,-1.492640616243477991e-01,-6.718564522056814925e-02,-2.574589693387498851e-02,3.846197941744222693e-01,2.248348119606703374e-02,3.360026087868015487e-01,6.088089804214699696e-02,-3.466193874814270659e-01,8.230019749766277759e-02,-3.591105600211811355e-01,3.333411775032902313e-01,-1.563022180096904634e-01,-9.388207196438096147e-02,-2.362139164394259916e-02,-3.148861900352010329e-02,-9.370238569885419588e-02,-4.194810205697936389e-01,-1.109070330937017707e-01,5.679092698046195320e-02,1.915988093509100321e-01,6.088236118132270835e-01,3.191952574372880491e-01,-1.654227498565113974e-01,-1.747877074574950285e-01,-4.746632162098562285e-02,-3.766719166935978413e-01,3.817385741542601019e-01,-1.046208976733193768e-01,-5.887941046579304727e-01,4.201985970826621619e-02,-7.884622383771239251e-01,-1.595096105673968478e-01,1.436592304081122928e-01,-4.265417183278408242e-01,-4.712553018753719014e-01,-3.807283484072210983e-02,-5.749029172756096040e-01,1.766169861736179014e-01,6.851597986050071698e-02,-1.630382175215285001e-01,-1.246950716167745041e-03,1.429351458475066061e-01,-4.934638133478616018e-01,-5.894457769935077529e-01,3.025438345235086368e-01,1.134583490482492657e-01,-2.778748677972503467e-01,1.449847005848088344e-01,-5.430494357881975320e-01,2.381713948016231930e-01,5.274377894628562435e-02,-3.024371582611427023e-01,2.034451456945371439e-01,-2.083836482248514477e-01,3.125141244174384214e-02,-3.083387924309282102e-01,-3.685781492387326663e-01,4.607245250374483181e-01,5.004854675261859454e-01,-1.981446878947939194e-01,-4.932509680339563496e-01,-3.617093371347875896e-01,-2.082413156280352173e-01,3.649723461264206548e-01,2.098643778170402319e-01,-2.604781715065713765e-01,1.751816247922585446e-01,2.931912160238034915e-01,6.266831817661666637e-01,-3.915720918405888318e-01,-2.652254812489854841e-01,1.798854360026588273e-01,2.667337581733044138e-01,-1.120936264029722407e-01,-5.324282296084220656e-01,1.309840552190821017e-01,4.795749373097167589e-02,2.571508257759257954e-01,4.037648209463905458e-01,-6.874496843430662196e-02,-2.776146609697955903e-01,2.622211237278496698e-01,-5.657352063296822164e-01,7.227394436969835079e-01,3.085705089782394550e-01,-9.257959334658674710e-02,-3.512636384124080968e-01,7.195802415160406085e-01,-2.100684576084270172e-01,1.512366285753920514e-01,3.463593682576829869e-01,-6.646220042638198988e-01,-5.331601763668887273e-01,7.886614773183595051e-02,-4.449394913780275740e-01,-1.499416182804216846e-01,3.984634195791678102e-01,3.293213728365330939e-02,4.187787076482696325e-01,9.562124090384694491e-03,2.664298332579642659e-02,-1.496763237645819256e-01,2.173615806509661963e-01,-3.918421805016799042e-01,-6.586966032296662776e-01,3.000340347397255081e-01,6.414793669803354748e-01,2.426189871400574460e-01,-2.584234620833200657e-01,-1.441496116005745211e-02,1.824920255758353260e-01,2.674057526569753040e-01,-3.807858828832678122e-01,-3.029326754741403227e-01,5.617413465920766402e-01,-9.222606423913298768e-02,2.582672178833120835e-01,3.719522563798879911e-01,-1.887332550810476572e-01,3.410215560216079411e-01,4.824512698969564417e-02,1.434995827377473498e-01,3.178765086017840136e-01,1.500727394786406932e-01,2.023419275436201537e-01,-1.350761663791434641e-01,-1.033371007609653197e-01,-1.044618731232459380e-01,4.103194848158336905e-02,-4.874667487817278544e-01,3.231280611768074240e-01,1.840065418700087552e-01,-1.881498913111777915e-01,-6.572526871566355955e-02,-1.074733061090035052e-02,-4.103386909211490519e-01,-3.074311480490104498e-01,-3.644191472467628312e-01,6.097512572649829155e-01,1.623997163855738779e-01,3.101239888498650288e-01,-2.619998679992929791e-01,-6.318820062918645286e-02,-1.221908436723239122e-01,3.288054156289298424e-01,-2.152675755298954774e-01,4.407789025074941580e-02,4.247285140575833284e-01,-3.356360672665190115e-01,7.455194886803870324e-02,-3.929623925860051964e-02,-2.975636727731280629e-01,-1.552448596975809780e-01,1.142201214594789904e-01,-5.506575330221050724e-01,-1.165136747721035732e-01,-7.324844789290367586e-02,-4.034329303133059041e-01,1.595942967551360406e-02,-6.650477085686524736e-01,-3.749841827832686714e-02,1.156329928158072173e-01,1.875293903766463433e-01,-1.798073839577406519e-01,3.085385587767792287e-03,2.805979655604203815e-01,-4.355375192000580931e-02,4.340453273765158548e-01,2.204614986058865689e-01,-1.403417202439808872e-02,4.632390734092065032e-02,-1.428617176825704438e-01,-4.411570787240718383e-01,-3.520635228702990727e-01,-3.838815748457688470e-02,-1.775437507981865726e-01,3.454532753903903353e-01,3.552456253767215244e-02,3.017174080576713324e-01,-2.568920961826126614e-01,-6.338633362508138136e-01,-9.351531691840544655e-03,-2.793689035563577949e-01,1.746333875477928399e-01,-4.417907547094120924e-01,2.807405150816438266e-01,-2.533734481926900456e-02,-6.886502138396038974e-02,-1.464215128353591744e-01,5.150994509538158184e-01,-5.276307924259771021e-01,2.219798848029074789e-01,-3.134741504506037280e-01,-4.160877953702961096e-01,7.805832193222886350e-02,-5.032548748908650671e-01,-2.417668686514507781e-01,-4.106840286406532314e-01,2.492168313146966019e-01,3.006629668430888525e-01,-3.203222285750356724e-01,-4.431330455949415437e-01,2.155632598470534622e-02,5.891624669119912561e-01,2.884538356834944195e-01,-4.741523963345974368e-01,-1.597651914038214493e-02,-2.851018650758335160e-01,-2.401883086977455728e-01,-5.892196534524282159e-01,1.980389666581614527e-01,-7.244877288146493038e-03,8.328455331397661976e-02,-4.803310802693738779e-01,1.153916975413281226e-01,3.445466163332448484e-01,-6.385530494947970481e-02,1.431931859849452371e-01,-1.871672361300891901e-02,3.684790329836786227e-01,4.764417940010918229e-01,-1.561287327523085411e-01,7.283329746563137197e-02,1.750357815226259717e-01,3.525488551329936104e-01,2.368478214324348796e-02,-7.710676665379961880e-02,-4.449956400442920401e-01,5.166972827221625320e-01,1.012301620397080965e-01,-9.408339071949967103e-02,-3.564459570060901639e-01,-7.764591029040930625e-02,-2.629033893733351279e-01,-1.457491463804005127e-01,-2.186313197277428844e-01,-1.782729299525326605e-01,-1.876763913237648462e-01,4.595710175089801064e-01,3.364318595458461458e-01,-1.109645743539536683e-01,2.720443697755783319e-01,2.792861188860553678e-01,3.645249686674900125e-01,-8.424660164279429431e-02,2.136332460134971190e-01,-1.692263811171586946e-02,-4.627454905966564280e-01,-6.360748275328791113e-02,-3.924756150233902341e-01,-3.165864853630683262e-01,-4.443087878702699223e-03,-2.798434979609119577e-01,5.839701414315275757e-02,3.934325272797931615e-03,2.468433636806549036e-01,-3.252466676539048640e-01,-4.061305784749353470e-02,-4.328365485519554690e-01,2.071635654810203286e-01,3.396693987016825012e-01,6.799250613902707574e-02,5.994408965575322989e-01,-3.014068076216001035e-01,-3.743775231262799208e-01,4.330092196007964689e-02,-2.342129189686528723e-01,-3.336265307996741925e-01,9.211372633566167201e-01,-2.408688328552531233e-01,9.945593915387714035e-02,-3.212104418036624831e-01,-2.550808031302662648e-01,1.468014308153628433e-01,-4.773022198426361551e-01,-5.263743204382262397e-02,-1.821652235573996068e-02,2.337080360469351026e-01,-4.046918253503193341e-01,2.997728926072415478e-01,4.357559874180012560e-01,-4.478578084394994607e-01,2.740583070263846038e-02,-2.171785870953168718e-01,3.195697939275973787e-01,-3.822760690741638379e-01,-1.760303248458051084e-01,6.644814821157776774e-02,3.588195203529889188e-01,4.802497638008550174e-02,1.936272517933901594e-01,4.319001262507939920e-01,-2.733769743089291548e-01,6.597374251442630899e-02,1.337128879407222318e-02,4.516399997719409143e-01,7.302791753044424183e-02,1.345999701944666782e-01,-4.844671013060654341e-02,9.585725480372911389e-02,-6.096875153338909836e-02,-5.702387780041781040e-01,4.309444927930614622e-01,4.534270910049503223e-01,1.600194718135304894e-01,-3.550458362538163604e-01,3.513634088386944354e-01,-3.282528803935742534e-01,5.547188068126939209e-01,-3.358375818119600509e-01,1.363981977849320903e-01,-4.334121265970954928e-01,5.026586232715133384e-01,-1.358894754208711184e-02,-1.569561161465399535e-01,-1.265584199234112139e-01,2.360765093220905109e-01,1.030837071592471538e-01,-2.014705999962731198e-01,-3.202140569751862897e-01,-2.469406568990013262e-01,7.950381585827209774e-01,-1.939058230588732445e-01,-2.869260632669665134e-01,-2.073228044654634172e-01,-9.121313152833100679e-02,1.402522814875809265e-01,1.387296021448494038e-02,-2.157213046066951967e-01,5.740267317794442992e-01,-4.175222068322145819e-01,3.036886292291974820e-01,-3.063806078630056454e-02,-3.450982030235776321e-01,2.209765817313363578e-01,2.273646403633188540e-01,-5.534869693458253914e-02,-1.582735128418600798e-02,6.693514621445780799e-01,-2.683801458462918843e-01,-7.231155888742078763e-02,4.029345328852498853e-02,-1.902017683374618018e-01,-4.422829494801143457e-02,2.231232570266702409e-01,6.213227110492215433e-01,-4.808121043871411704e-01,9.323264138792770883e-02,-1.531681002267993863e-01,-6.813128616072763322e-01,-7.535524564262087166e-01,-1.995055672857155293e-01,3.122043738110391597e-01,3.420067399765181620e-04,-7.365713337824104645e-01,3.483623286739213065e-01,-2.026716924054811353e-01,8.985399609023449197e-02,2.021110181475369375e-02,8.599941410014746435e-01,2.741294418130582611e-01,-3.219939630535260944e-02,1.031764749998880654e-01,1.276300978711341627e-01,-4.319000716146749463e-02,5.723864630075892884e-02,2.622450073031722395e-01,4.685374965689386717e-01,-5.121180744136774043e-01,-3.422373015449707845e-01,5.935330660069377817e-01,9.418504354985803018e-02,-6.122823380620666667e-01,3.202285977349085822e-01,1.012457118828598568e-01,2.070256386356272293e-01,-6.150562497234683956e-01,2.365800583894191456e-01,-3.518766189013963208e-01,2.979558658263471368e-02,1.523439385043859062e-01,-2.704629325817779761e-02,-5.829657667672540067e-02,1.352417736612127330e-01,-5.577215030852966660e-01,3.434375766833895893e-01,-3.598687201289516580e-01,-1.014977354502392681e-01,-4.912752494910441192e-02,-1.697144422686387710e-02,-3.588703892282090746e-01,-1.644810114923020983e-01,-2.872325020726533840e-01,1.483427085702333503e-01,-1.406516497751536254e-01,2.507445459337550586e-01,5.518848192486844884e-01,2.706602228070232874e-01,-2.730415693156775236e-01,-3.599466289962797161e-01,3.762949010122099841e-02,-1.463521422022563134e-01,6.496290233587813656e-01,7.923120282385298641e-02,-3.702305380952037456e-02,-9.726132688025099227e-02,7.902400526910807743e-02,2.030528293128693595e-01,3.074384404491995459e-01,3.045462028666460208e-01,8.464564906552661805e-01,-4.551596686897420030e-01,9.775104205955223100e-03,-9.157866655013578716e-02,-3.446746161577123324e-01,1.582888534785829859e-01,-6.244248031715476238e-02,4.161986914093671608e-01,1.649786043551091930e-01,-4.478430130561751321e-01,-2.699691454342022512e-01,-1.728348747239580319e-01,-1.842935665734166117e-01,-1.647498759703497073e-01,5.471944319465164158e-02,2.943910931868927786e-02,4.131655902571304551e-01,3.379479104465273887e-01,1.497505989801793946e-01,-2.032442728480201022e-01,1.570794080281743416e-02,-2.194021620863391142e-01,6.214724385698434661e-01,-2.854180008965402915e-01,-5.547174885500992525e-02,-1.511443227096243846e-01,7.502192703466305235e-02,9.837576622979510299e-02,-3.667280482159367139e-02,8.109095881973404224e-03,3.630791178309704659e-01,-1.403460091380059616e-01,-2.255287226018588276e-01,1.403282391254386530e-01,-6.346498354612942205e-03,-7.940347532540208489e-03,-1.643686285532018065e-01,6.506429766268502224e-01,-2.883985210507969410e-01,6.489998951031846763e-01,-3.025172098054992320e-01,-2.408056046432142661e-01,1.953232812706280352e-01,-1.793353238690098550e-02,3.331464977789629911e-01,-2.165656811751015542e-01,-3.550318738571682769e-03,3.652406557988522873e-01,-3.336108112093988387e-01,1.674318253688266978e-01,-2.072962909274824184e-01,-2.053225872040627953e-01,-4.982459497089158917e-01,5.107937524661656514e-01,-1.747515789111622753e-01,7.207836553549811232e-01,-5.198653434318172284e-01,-1.352177343652519736e-01,9.439097210143335137e-02,5.105448756275485778e-01,4.297041297821344724e-02,2.068371096911089668e-01,6.333066185171446483e-01,-2.868932230791163551e-01,-3.488413098770006826e-01,5.611751405552876243e-02,-2.705782233408701165e-01,3.283774224301026085e-02,-2.418891993891450487e-01,-2.883560901286342237e-01,-2.198124619916962952e-01,-1.350405150574875840e-02,