-4.696423588234889812e-01,3.689222062412564895e-01,-3.899002461419517548e-03,-2.069376042753097722e-01,-1.050918519578721566e-01,-1.116975152195343393e-02,-6.792438426404726060e-02,-5.325755632433866460e-02,2.134446211599089205e-01,2.948890595393062197e-01,-2.443124077606239064e-01,1.554226525749932697e-01,-1.011113870441215923e-01,-2.141220534329412728e-01,-9.181514436266992318e-02,-1.262241506395682389e-02,-4.057027051030781539e-01,3.335613882833773913e-02,3.772495633477054300e-01,3.112431096088961735e-01,-6.908111132956788747e-02,2.970537672032598220e-01,3.985598815984977422e-02,-1.027156625644263660e-01,1.583166678746975864e-01,9.455610468880930319e-02,-1.311131768397729436e-01,-1.704949728900683192e-01,2.237810076683044158e-01,-1.798519528621059793e-01,3.587604569941784671e-01,-6.319905570824015106e-02,-3.511790769335798590e-01,-6.792400338259342307e-01,-7.152346486629359568e-01,4.600356309236502406e-01,-6.965881359408999940e-02,-3.418505181095346512e-01,5.269734577959633848e-01,8.443398903569228064e-01,1.582023976962109724e-01,7.665816879115643079e-02,1.146234155752958450e-01,-6.982710644979400749e-02,-1.342205533441187260e-01,-2.496969740639913907e-02,5.852292741370843099e-02,1.134980667536005239e-01,2.503951305568687391e-01,-2.146394662496114436e-01,-1.070277641521706763e-01,-4.724724684217784798e-01,4.212477229323137728e-01,1.185869880879990013e-01,-6.423695328366849644e-01,-3.398291063528484091e-01,-1.517181674347850839e-01,-6.355923577316828776e-01,-2.009996330601165615e-01,-1.767047200148712596e-02,-4.081798433432185513e-01,2.096544799779802293e-01,-4.134092237795514713e-01,-7.652043241716047217e-02,7.016366193282147501e-02,-1.102554242476099927e-01,-2.516258481780884737e-01,-6.021170387913172412e-02,-1.143967455916970188e-01,-4.470920404096634382e-02,4.025074380424781099e-03,1.119125738062190373e-01,-9.033788836556237711e-02,-7.213739672446378703e-02,-4.441971232965701843e-01,-1.333233153880542254e-01,-1.795531516028282815e-02,-1.845111683462470620e-01,2.188945367604053921e-02,-1.997824436736347631e-01,2.878729426461577590e-01,4.377451228113212744e-01,-1.785437021603244467e-01,-2.619121058149794790e-01,2.713974348889429122e-01,6.117992484455329893e-02,-2.162129570136328838e-01,5.937997182397116575e-02,-1.581591999878280419e-02,-5.309819926630650055e-01,-2.367503096296030840e-01,1.908025294019685958e-01,1.875171660397910098e-02,2.442213054162508667e-01,-2.619596374136917150e-01,3.314433131449090464e-01,5.048101471073804247e-02,1.853567464520981811e-01,4.486447319767973285e-01,-3.329699665589817559e-01,-1.336194786415189628e-01,1.003313618593785900e-01,-1.683163651679629030e-02,2.605541672203225412e-01,1.223349562661596224e+00,9.936657738210297186e-02,1.660740880380456586e-01,3.077197829635914816e-01,-3.838795011855627992e-01,2.573163010509648130e-01,7.596195193501256715e-02,-3.178746141438049122e-01,-2.818505964834717714e-01,3.466581462552942305e-01,-2.292198483570595802e-01,2.563290432601827429e-01,2.235155351675153779e-01,-2.899153055150046066e-01,3.591329302806339774e-03,4.224298454525014790e-02,-8.552848884172213617e-02,4.133241525365378699e-01,3.347431346000505348e-02,1.580049209069761262e-01,-3.945373387034084578e-02,7.814234302107607721e-01,6.772934132020974607e-02,4.610998963494088998e-01,-5.888914076187277274e-02,1.172762542819211773e-01,-2.801765450507827659e-01,-1.864205038355619681e-01,-5.036404918422129340e-01,8.353171706396944618e-02,-3.849474497022532110e-02,-2.636449984345383135e-01,-2.419205232369059724e-02,-1.849244825710278095e-01,-7.835395256122783536e-01,-6.419479172853079785e-01,3.331163879270761241e-02,-1.329370940478402929e-01,-2.954765374338685358e-01,-3.630656740832449020e-02,4.968224485115432798e-01,3.081929037016869349e-03,-3.630855466086646000e-01,4.671926234213576445e-01,5.952296315526990345e-01,7.497809317855565203e-02,-1.564913856956360039e-01,-9.195222718052722954e-02,-7.150572910781716196e-02,-1.131778024284493950e-01,2.919184745179420060e-01,1.194722148059823713e-01,-1.609132613546998825e-01,-3.526839270863433851e-01,-1.130332265794292690e-01,-3.092666835167942607e-01,-8.705802593229211572e-02,-2.404896385577219575e-02,-8.184079518253957464e-02,2.352190418923612858e-01,-5.734680046291714683e-01,-2.825028282677586877e-01,2.273474200055170813e-01,9.975114329844297911e-02,-5.535699813056519508e-02,2.208999268462372156e-02,-1.311355330815378939e-03,5.026584304110769813e-02,-7.747403508791115279e-01,-3.512274383186114179e-01,-1.381271431133781480e-01,-1.593190967525594942e-02,-1.269664098155019738e-01,3.556868920637911713e-01,-2.778988688910140614e-01,-1.646769425304727141e-01,5.873120541260238442e-02,-1.777552496777556543e-02,3.438062608210766258e-01,-6.011055776782702614e-02,-2.423141717173466214e-01,9.198249647106114535e-02,-4.342655044444865831e-01,8.326471010656766314e-02,3.054002413045168174e-01,7.064313707816860521e-02,-1.245500375923655895e-01,-4.203167638407339646e-01,-1.645327401564821573e-03,4.953103042641998632e-01,2.644365899005834963e-01,-3.745128183641209807e-01,9.948077470846283799e-02,-2.520334943967429409e-01,2.230672496156278217e-01,-2.019404259140188673e-01,5.556183730979267210e-01,2.817498790851616919e-01,-5.527439286790741119e-02,-6.935646772269489502e-02,-4.768194118778543156e-01,5.120242026818276893e-01,-2.978025814389385628e-01,-1.869281730347014392e-01,-1.047267377495163104e-01,1.567541637949804445e-01,3.638846992148943582e-01,-5.555840453209657248e-01,9.876543084640308778e-02,-4.253959166701847816e-01,-3.108528345983051500e-01,-2.352390071582716735e-01,-3.272751464210216232e-02,-5.587081181975138700e-01,3.244743298998278291e-01,-2.174805411279396028e-01,4.588261725757401127e-02,-3.210536852656728501e-02,3.125336754746577683e-01,-4.237580491862131260e-01,-1.409665679447014708e-01,-4.388481148482344107e-03,2.144472625661247578e-01,2.850395914152550544e-02,4.698095750566009254e-01,-3.131208832203399850e-01,4.779459052146325937e-01,7.310623503001256740e-02,-9.060326660256151632e-02,-6.602355342943978522e-01,-2.303112534232784891e-01,6.116949069870767364e-01,3.020617748636599265e-01,-3.401080035286662695e-01,5.210916956463248345e-02,4.480159448037947523e-01,-4.576683731034598135e-01,-1.444837332546569653e-01,1.669576121745212915e-01,3.491257828099754712e-01,-5.142923219934117385e-02,-1.907970425813774185e-01,9.349252884977167499e-02,-5.216023074647395674e-01,6.705830148784988620e-02,1.125422301120846021e-02,-2.692350934391754547e-01,-5.356968064978941124e-02,-9.410033152609877105e-02,4.265163598008708812e-01,2.152384016899012154e-01,-1.424134881939169983e-01,-3.364656561661905076e-02,3.908448758540618573e-01,2.069256589801288515e-01,1.246563774629744770e-01,3.261683025632515220e-01,-1.093974397401888121e-01,8.381228445859861820e-02,-1.235009157932944329e-01,4.218741580010860748e-01,7.716849995181943034e-02,-2.742517266023154487e-01,1.805295996204905537e-02,7.395590919603727276e-01,3.300138251490896124e-01,-2.007259691896392251e-01,1.005542179669571129e-01,-1.700769986822391333e-01,-6.845732083716174476e-02,9.486270354953643680e-02,1.325537925864694599e-01,-1.860805988082846196e-01,5.094865042339062899e-01,-4.154611276370955286e-01,-1.378655037696260022e-01,-3.996907374909274835e-01,1.375334064686290769e-01,-3.646733508109286093e-01,-1.337753560806827779e-01,1.578789519055696922e-01,1.391230169476787293e-01,1.728793332143910289e-01,9.634221108622985641e-01,-9.150578384205040883e-02,-2.268737380622835864e-01,-3.075711556519447054e-01,4.777509293677689173e-01,2.922760346032607370e-01,-2.987763421078491466e-01,-9.923148993261797501e-02,2.116524683137254170e-01,-2.047698909075705842e-01,-2.612117459103491801e-01,2.670479640834295121e-01,1.916472469688669522e-01,-4.443455729030530987e-01,-1.234161738931450862e-02,3.053212956810215650e-01,1.428494002894998838e-01,-2.499700518275063121e-01,-3.276976564774118916e-01,-3.703194961250083628e-01,3.243181449772931657e-01,1.208511011695749190e-03,4.931888330014626287e-02,-5.194990546296556211e-01,-4.934532712254258158e-01,6.718295169267545289e-04,1.538930610407018285e-01,3.859137006352563598e-02,-2.171450800446190488e-01,8.683010582742776984e-02,-4.664013063904587364e-02,-8.718737837905984334e-01,3.168334362712195706e-01,1.535816345452476472e-01,-4.512492114082314876e-01,-4.247066699823714986e-01,2.641443794823556956e-01,-6.827819280705389460e-01,-2.460012969210816358e-01,-1.192995627972883166e-01,-4.820581391605879840e-01,1.267718581188002555e-02,-5.737391912615020795e-01,2.438278784076079453e-01,1.097257771265925247e-01,9.932654968053319933e-02,-9.646046501548617702e-02,1.957433298200079441e-01,3.731830905880478833e-01,-4.186993639154996671e-01,-3.102719436202141523e-01,4.404938456587529499e-02,1.903013446600544667e-01,7.904446582105251196e-02,2.497173357394030790e-01,1.397815976497468748e-01,-2.095555008464278224e-01,5.438464115776688867e-01,-1.758630961263358550e-01,-5.542207901434088591e-01,1.676939784584414728e-01,-3.423867090905474003e-02,1.315472029829332368e-01,8.475112282324001600e-02,-5.641613822944293449e-02,3.096193432750475871e-01,-3.769966051373792593e-01,3.210822711166484988e-01,-9.110811113122449512e-02,-4.604833063064632803e-01,-1.497992487957400531e-01,-2.514698546366892495e-01,6.390705181338377505e-01,4.826522444341516116e-02,-3.120832007077227188e-01,3.475104019848753722e-01,-5.198733037500276044e-01,6.713081174800554496e-02,2.250573177815390069e-01,-5.862717253485930091e-02,-4.047916574464243689e-01,2.087545003565785817e-01,2.965754510790568066e-01,-3.453136885989127602e-01,3.061907495688282257e-02,6.091534433448585195e-02,3.773448172418885638e-01,-3.416163559858200749e-01,-1.851893059726765489e-01,1.582293480574701316e-01,3.071930351217848076e-01,-3.849934716552888547e-01,-3.752738804253739624e-01,-7.914618467414788472e-02,2.694256898393019295e-01,-1.174346547063258028e-01,7.479383769882403943e-01,2.192200044788993329e-01,-3.421089513824278061e-01,-4.243312027352768578e-01,-8.476513291068325795e-02,1.564968305020535688e-01,-2.015090406026287528e-01,2.668144032682028266e-01,-2.245398838935236396e-01,-3.830766619613046875e-01,-5.005289939130437293e-01,4.873522580371595914e-01,-1.578486931098108670e-01,6.189983986222776791e-01,-3.796771472134189418e-01,-7.514077590101465587e-01,7.924531353167080239e-02,-1.120472117646132554e-02,6.159427091395092146e-02,4.246872974169395576e-01,6.737546706256930529e-02,-3.406930679263876771e-02,-3.319820098131359698e-01,1.486308379727824258e-01,-2.009174371694575634e-01,6.050880179982107698e-01,6.396348082280987890e-02,1.592673159684710738e-01,1.584925699746229932e-01,-1.165617810875996113e-01,-1.729619997076974891e-01,1.705140301144361381e-01,-1.423445943356662635e-01,-5.065376133894357036e-01,4.727303242827076563e-03,3.519950297259623606e-01,3.016378614228259480e-01,-1.877259084533844380e-01,1.791991474156430508e-01,-2.776531403748273008e-01,6.518762738340906360e-01,1.356068186039650555e-02,2.326838153843883983e-01,4.684995854954210684e-03,6.214863942590646145e-02,4.032778335122988445e-02,-2.613633865306036475e-01,2.487187410760591522e-01,-2.230007519465366239e-01,-2.222227339005822255e-02,-2.787272421791863186e-01,-5.126437678858408731e-02,4.767766073548660999e-01,3.930127097493726213e-02,4.176579012667299140e-01,-1.765541419356306957e-02,-8.454945596670679908e-01,1.864834882476525402e-01,5.850133483856979205e-02,1.385518509597659931e-01,5.847880945390417917e-01,2.147855671793093002e-01,-2.838984516456821705e-01,-3.515785917009422445e-01,-1.349198358551591259e-01,-1.763518582989095917e-02,6.683095648361839225e-02,-3.382384393429274105e-01,4.012702144109191876e-02,2.166635670541952330e-01,2.847401959195905441e-01,5.123014600251765693e-02,2.068497695179460916e-01,4.792953991534504299e-02,1.709773753391627404e-01,-1.587214106999940977e-01,2.187708035823580088e-01,2.235215565640669977e-01,3.435583880288546887e-01,-3.647872671484773122e-01,-5.120853275874808208e-01,-8.891477415975940213e-02,1.725301464767325377e-01,1.355122477431737818e-02,1.701436734963168440e-01,-1.799860375819913871e-01,1.334428995354791994e-04,-5.534673284074028698e-01,-9.482858728265172732e-02,6.441119281848142752e-02,-3.160802094975199289e-02,-1.026465389332301970e-01,2.361109251619258331e-01,-5.417283086515990720e-02,1.769373647008402051e-01,2.341231852204676278e-01,-2.544867693919867016e-02,-1.036406075068458943e-01,-2.613607832248167617e-01,-1.652711033143524355e-01,-5.854727165746135276e-01,-1.583350167471141157e-01,1.915231587421596660e-02,-1.448123940244100127e-01,-2.733544716545532327e-01,6.197357493102875758e-02,-1.170618491464305022e-03,1.595387616037845235e-01,7.850626645264720260e-02,-4.435036126487743591e-01,-1.034655433710236494e-01,3.262009333409666700e-01,-2.656659153350053315e-01,5.587744692402649704e-01,-3.984421150967116243e-01,-4.320862448892193175e-01,-1.839727929879168000e-01,1.899812808062493752e-01,4.510832562349921249e-01,-4.558172379030685228e-02,-2.926252145022989123e-03,-3.780191900030951957e-02,2.874882834440267709e-01,1.539559590681023327e-01,2.138673936731124159e-01,5.537699634049261244e-01,1.672640376059004313e-02,2.758380517713495544e-02,5.989153015087855803e-01,5.411694497604169207e-01,-4.744417262388115897e-01,-2.458064268252355966e-01,4.858431593225072120e-01,-3.821743140093821212e-01,-2.574841212414367697e-01,2.943883005648215700e-01,4.762747076748618386e-02,-2.295519361810570980e-01,-3.943634596678134985e-01,-5.211694717515047426e-01,4.411471571843172956e-01,-3.937803372538258850e-01,1.070447548302028325e-02,2.578818053015577427e-01,-2.764257128595791202e-01,-2.286935415881950484e-01,-8.739745364846876474e-02,-3.270336090588373823e-01,4.976927331395014087e-01,1.456033665872877303e-01,-3.123750834342123306e-02,5.496482973761809832e-02,5.887008454088965559e-01,-3.704583719984384516e-01,-1.997197397161475929e-01,5.225207038583831176e-01,1.881214882868511018e-01,2.453786616193714964e-02,-2.633151074653605206e-01,3.894550596197811076e-01,2.731541151050445038e-01,4.516973805320280144e-01,4.934363795818895726e-01,7.989817850314561570e-03,2.283714292556106862e-01,1.223182389860789920e-01,8.406959736433827768e-02,-4.872760154496169061e-01,-2.270152033596687380e-01,-3.259867845353265486e-02,8.780567038611500341e-02,6.143824434304064885e-01,1.312382973210409753e-01,3.760359501934684712e-01,-3.249065803900419436e-01,-2.266263978541437907e-01,3.918762142879804733e-01,1.852163027660485572e-01,9.906509584686434833e-02,-4.626994773331481459e-01,-1.692704199743115534e-01,-2.518202458496336393e-01,-4.723618327289747509e-01,2.111788523816478524e-01,3.776863759407422805e-01,-3.511399436197902291e-01,1.237357371959416086e-03,-4.462984212721909372e-01,1.146454039107367706e-01,1.041382712378773612e-01,1.543865493733277416e-01,-2.283454027565752498e-01,-1.723458675066693313e-01,2.289664975209307896e-01,2.330542498946786001e-01,-3.189657090697937125e-01,3.428618788498744019e-01,-1.865873919141192994e-01,-7.629790059598977603e-01,6.405821826245004791e-02,3.745118820796926595e-01,-2.147042965475124687e-01,4.523775684953592613e-01,-4.077881451468436946e-01,-1.689651109178035571e-01,-7.160489327808230130e-03,-4.944395884234382976e-02,-6.940502648863459134e-01,3.505628207027478016e-01,2.897837424472778783e-02,1.260209463513631278e-01,-4.953958144442359435e-02,3.750246275019460951e-01,4.712079372830979551e-01,-1.923047715046306838e-01,-7.590071787959927485e-02,-1.258671777094655941e-01,-2.806717087385902087e-01,-2.110333386251095622e-01,-2.044759430105641540e-02,2.742097546309903433e-01,1.543409200192332187e-01,-9.418970249939952188e-02,-5.370405614384912152e-01,9.532125077864089802e-02,1.459364397456821838e-01,-4.465011525390152891e-01,-1.454380361948446054e-01,-1.403420488646098530e-01,3.088655874862675232e-01,-5.311723248935243946e-01,4.514077848368331924e-01,-2.293487435503238636e-01,-6.404911434645904622e-01,-1.550533866080819889e-01,9.266622150539029212e-02,-1.110995178840890191e-01,-1.044790090031885305e-01,1.780246778168614874e-01,2.224609250660412596e-01,-6.094704032307004561e-03,-2.876410418378183564e-01,1.786119725992210971e-01,-5.934585599643503462e-02,5.169423337816155678e-02,1.675211574629286715e-01,6.154039022110215917e-01,-5.078152014638481759e-01,6.815077102947549037e-02,-1.175321587467225704e-01,-3.759258209622365343e-01,5.832985408521093595e-02,3.526575974485868792e-01,-9.723114102166578732e-03,1.537642526466563853e-01,2.549884919425508475e-03,-4.912181786302100561e-01,-3.014551292564777718e-01,7.761508874977907091e-02,3.257945619546437910e-01,-4.222184254174038420e-01,2.952551483645318026e-02,1.186247062425309917e-01,-1.709201190046285845e-01,1.113925702496914721e-01,-6.918158056353648222e-01,-1.081213328022618270e-01,2.698038266510915939e-01,1.401950373967215252e-02,-6.429296125906863724e-02,-3.036084180084942519e-01,-2.903480574723815155e-01,7.928180237485756010e-02,4.482918923042175097e-01,1.718322179108730530e-01,1.298415374175876102e-01,3.285436866400742728e-01,-1.695000764308471908e-01,1.235804788196504245e-01,4.451061158455560940e-01,-1.485637845760801323e-01,7.859969946050058276e-01,-4.187008103702793971e-01,2.291972032126621539e-01,2.290711677288639891e-02,-2.812307796575831340e-02,8.946968972422497668e-02,7.004927722457632289e-01,-7.268121791585566704e-01,-1.701535225003606433e-01,-7.133784347411187277e-02,-4.156850432340820634e-01,1.271746607514047112e-01,2.434456769438144985e-01,1.586000686102326529e-01,-3.978627791926057089e-01,6.012038725672329276e-02,-6.891535190451402171e-01,2.087389332378317697e-01,3.010443137188237306e-01,-1.205997739467006523e-02,5.666957819472603353e-01,-1.211796800034678351e-01,9.169438471309535044e-02,1.088016022907727365e-01,4.021662567472994443e-01,-6.316910367885879111e-03,2.587057327517829908e-01,-2.942984157857123084e-01,4.947409058207597465e-01,3.068331818257845067e-01,-2.270265702541283404e-01,7.276352188003888666e-02,-4.745205816156611300e-02,1.718694122312196815e-01,1.897285189623585389e-01,-1.465838850286055595e-01,-1.283866504250296969e-01,5.167434187478888580e-02,-1.441442126239451116e-01,-4.802273899014465885e-01,2.510052229599039064e-01,3.883363128970627187e-01,3.378004904349263260e-02,-1.489696006321561683e-01,-4.529501984913636981e-01,2.131202185913641800e-01,2.832066186986489237e-02,1.315849550839297832e-01,-3.100394505548865198e-01,3.717903596722178516e-01,-3.783939178790662883e-01,-4.932357789103803958e-01,3.665598355254529594e-01,1.710696327254814311e-02,4.423587691538754529e-01,4.931253425695555914e-02,-3.202528906840217127e-02,5.505746722016444661e-01,2.972867947893317320e-01,1.910474649192925589e-01,3.652537187098335303e-01,4.975595290747677479e-01,5.950923039554488758e-01,-1.830711221227643293e-01,-7.430061690287122211e-02,-1.414153673915322373e-01,-8.615771767126274849e-02,-1.093882735496390715e-02,6.075864222878112064e-02,-5.801939653227610183e-01,-2.011957067817095601e-01,-3.673383320108687400e-01,-2.281441700774812786e-01,3.304843981050097079e-04,1.467001789411524759e-01,-1.040456884694113543e-01,7.938250142321940928e-01,1.603294783489475905e-01,-5.491591011004786083e-01,-2.107753572075761472e-02,1.167839744714815609e-01,1.717927758277041639e-01,-2.214826248169269873e-01,-4.212201858097504026e-01,-3.186248608205217714e-01,7.299370050021469769e-02,1.580234964843335865e-01,-3.950240747022309429e-01,-3.920167617590374770e-02,1.323308956455210572e-01,5.188519407919668369e-01,-3.954736790394730583e-01,6.420881128140548677e-02,-4.038226397941250406e-02,3.439157817298088560e-01,-1.178846117573182639e-01,2.540026155859350099e-01,-3.734493058090264106e-01,-7.461576398094119655e-01,-4.966362145018241026e-02,-7.181461233755860596e-02,-9.825194284193689009e-02,3.511548789485106070e-01,1.393743355400491324e-01,-3.320024530589311962e-02,2.966362270975805293e-01,-3.373579623771161828e-01,-4.555445691178274803e-01,-2.203271793712847648e-01,2.514812771776926414e-01,1.463494625380905023e-01,3.053485807757360115e-01,4.890006551466839074e-02,-2.904296124618215291e-01,2.633315597803200792e-01,7.043582503367787351e-02,-2.948954732688195968e-01,5.217113733108555973e-01,1.313668414799996909e-01,-2.480585689155860585e-01,3.302586970274718481e-01,1.214575277185035440e-01,-3.622728465596359859e-01,-1.853007828092111398e-01,-2.090515450963542285e-02,-3.189927660456239322e-01,2.402731126080460966e-01,-5.767404579976669332e-01,-1.847475912844521173e-01,2.178870671568605422e-01,-1.040033743567366914e-01,3.206056499939801685e-01,-2.852972279428474256e-02,2.996805340061841072e-01,2.367618549224020930e-01,7.906909308528822788e-02,-1.759785270262154422e-01,3.094904413508643426e-01,-5.953054689663554999e-01,-2.885503652849448208e-01,2.778400810107289898e-01,1.542552757499016103e-01,3.147949157259917197e-01,-7.734787853020689274e-01,-3.197576294512605721e-01,-1.864429639206860098e-02,2.577905940784804284e-01,-2.046059092395605683e-01,2.582981895046467247e-01,4.369263379211076742e-02,-6.708261505815399373e-02,1.178660030116508162e-01,-1.715709482464808366e-02,1.451641220974496937e-01,2.888550545067635755e-01,-2.596816261933161396e-01,-4.110382980418199050e-01,4.163951542255169697e-02,4.289360155568570088e-01,-1.320820990240315074e-01,3.999037546569809143e-01,2.018125945979291347e-01,2.589513092842984920e-01,1.041385567682819313e-01,-1.155590719176714798e-02,2.818097407998201298e-01,2.431481307202540132e-01,1.321482953750233863e-02,7.088613644906273104e-01,-7.805282615878297858e-02,2.519231470384110105e-01,2.213786949016792183e-01,-3.568560365961011283e-02,-2.700987254755066735e-01,-3.353712277308041334e-01,-2.792512471884971981e-01,2.781898715692522894e-01,-1.831105386061912255e-01,9.781311146075943874e-02,-4.423618303388359568e-02,-1.392325963994140228e-02,-7.585755424869235729e-03,-4.236623613210091510e-01,-1.224365857844792876e-01,-4.334493485926683987e-02,-4.450886118851863915e-01,1.487570125895465445e-01,2.249716993073653803e-01,-1.096356421325781483e-01,-9.550907693394519726e-04,7.695134096376998571e-03,-1.406114918720239304e-01,-1.492742248119718895e-01,2.984371892492570510e-01,3.646401616856853600e-01,2.428092929098253361e-01,-1.430212353033614436e-01,-3.202726472234814770e-01,2.072784517989903763e-01,2.715382994234382674e-01,-2.353414894955669148e-02,-2.631114574474036627e-01,4.182030610727270614e-03,-5.759815783767017194e-01,-1.890052455155317654e-02,3.549337556385586678e-01,-1.334399769740324537e-01,-5.698520456228758357e-01,-7.716755475614455184e-01,1.006824647486581403e+00,4.592292401801416624e-01,-1.123884661584290678e-01,4.242416254692654709e-01,1.395764896838987135e-01,-1.940604485798161638e-01,-1.519080365065990021e-02,-1.613203179455534320e-01,-2.047412882745954232e-01,-5.904499482361946772e-01,8.202845589967074080e-02,-1.778235046890958848e-01,-5.810069413800567767e-02,2.144104873036673242e-01,-3.872810374944040124e-01,-5.145349675479256035e-01,-2.847957842296452435e-01,3.606321133202348705e-01,-3.834888090568505659e-02,-1.864269139077739945e-01,5.158502194715876010e-01,1.089192335576000779e-02,-2.451154126225063568e-01,1.253668856931696163e-01,1.731164916437815116e-01,-5.193200661961181602e-02,-1.039826770654293797e-01,-6.881801026885387973e-01,1.372791937829805631e-01,5.470564245556382987e-01,-4.973570790932281827e-01,2.641584102929597083e-02,3.261849582139954122e-03,-4.515056674526327085e-01,3.693899962314736163e-01,-1.577707013474541342e-01,-1.055067629220604736e-01,5.908208854433402712e-02,4.674321602359819694e-02,1.168133766817455732e-01,1.525044860367839872e-01,2.788890365093287249e-01,-2.294203493065034849e-01,-1.889189720201259748e-01,2.584113532348730202e-01,-6.985577767933563720e-02,6.354635936013044439e-01,-1.570917491458399817e-01,6.210054311386546677e-02,-1.387080339997481641e-02,1.953290530944278014e-01,-2.166723809053591465e-01,-5.256895146619642439e-02,-1.990706766435703656e-01,-3.551740420507201040e-02,1.762419403026651427e-02,-5.171359475348302759e-01,-3.282192897573980861e-02,-2.017201543897447213e-01,-4.177457981286431532e-01,-2.544824155914797159e-01,1.216012416960746273e-01,9.288726385206325098e-02,4.266383707390397628e-01,6.431270928487766922e-03,1.459035601580485064e-01,1.920472846650236876e-01,-1.214303091054736577e-01,-3.509113590210343192e-01,3.670555227920577201e-02,-1.018300649059708379e-01,-4.680251415727759712e-01,-2.055922801344273465e-01,2.795032459273121828e-01,-2.615485671162322279e-02,-3.456253022764103899e-02,3.261088783290466697e-01,4.821570800752150721e-01,-2.799565648395338502e-01,-4.297510615489332220e-01,1.198653784889302659e-01,-3.053928685396393727e-01,-7.944926435012752974e-02,-1.170654957087397668e-01,3.937555468300624750e-01,-6.045838696649578903e-02,2.357419522125933087e-01,1.261008568188646539e-01,-2.877635788324888963e-02,2.448608118556298840e-01,-3.628624470933143886e-01,1.946334516064734954e-01,-1.030648237868259515e-01,1.178816590889357196e-01,2.558707067233090826e-01,-2.414477216170635987e-01,3.871711119258965939e-01,1.575209717100334861e-01,-3.152771059852234603e-01,7.511376338064204572e-02,3.247385371053931880e-01,1.759922551650328071e-01,-1.942970209438386886e-01,1.763163427774260550e-01,-2.610527847264352275e-01,5.007575190722497044e-02,2.717205313245841386e-02,-6.453750040652218578e-01,-4.013178084203112839e-01,-1.573335129416590303e-02,3.003178723345285572e-01,4.065253973980507696e-01,4.917373646731793002e-01,5.417604792383732271e-01,4.717066216798177641e-02,1.277156109670940509e-01,5.496635350316424473e-01,-2.527349209852978174e-01,-1.094511018506879457e-01,-1.347545272416469930e-01,-9.085357807339480840e-02,1.779996502201089681e-01,4.718277147615377864e-01,4.625152393827277053e-01,-2.807531148098038054e-01,4.771584112437136094e-01,-6.612548432419381728e-01,-9.450050567478202046e-02,5.717562412089485235e-01,-2.654643543732549404e-01,-7.072849645947706376e-01,-7.450992922495748572e-02,1.100029382384181964e-01,1.356156589960017256e-01,-6.080322966172481414e-03,-2.466205295017377674e-03,-2.121215647848698760e-01,-4.252406200015085291e-01,-4.416761709066209241e-01,9.869428507010059859e-02,-1.539604091096814231e-01,-8.889814553422433763e-01,5.350430181419267850e-01,3.224110571333619890e-01,2.590068747731086862e-01,-1.000352397771129692e-01,3.220781313601375762e-01,-2.002289968986673552e-01,-2.333014174182305306e-02,-1.975940445667405954e-01,-2.090444165142995581e-01,1.823702258233489415e-01,-1.788802852846177460e-01,-1.418455519163123457e-01,1.167531199110129758e-01,-3.219563308249273614e-01,-1.371410803496119768e-01,1.044405320160045059e-01,2.084826248660265335e-01,2.738094287750038047e-01,2.727376718681895906e-01,-5.001244037515629737e-01,-3.144607315982075879e-01,-6.549046933738653653e-01,-1.925257737671027813e-01,8.268414384278553741e-02,-1.898339835701406131e-01,-2.626961394102674818e-01,-4.702827664165643018e-01,4.328773942153846810e-01,-3.636973536283646946e-01,-6.515099024009254891e-02,1.909378137957360999e-01,2.670668713724667076e-01,-5.781961792844172443e-01,1.983255322643893426e-01,4.695203207552182678e-01,1.927860660069092569e-01,2.402167901079265422e-01,2.697809450932538433e-01,2.679029777554664538e-01,-1.795532706486985264e-02,-2.537545796223794961e-02,7.096482089012774719e-02,-3.280607065610073314e-01,-1.630581159652449152e-01,5.908975594300779066e-02,-4.039751130159603965e-01,3.633713963175049799e-01,6.772422299106497512e-01,-3.761389067415350507e-01,3.417175927394671131e-01,5.633768356007743394e-01,2.884282556655489160e-01,3.807189912145371169e-01,-2.487118843193684148e-01,2.743870387550346179e-01,-2.870989189056609714e-01,5.407712581405742930e-02,4.176373560742618340e-01,-9.437033306544986844e-02,-4.470952663912545200e-01,-5.163350319753721163e-01,1.134841266181426389e-01,3.659543532111396713e-01,-3.407769664259198139e-01,1.333075878481944643e-01,-3.394577159667452326e-01,-5.547348114216623660e-01,-9.834551354196841011e-02,-1.875506601176203103e-01,-1.834640803106006579e-01,-1.459121717806238228e-01,1.117174958877072480e-02,4.103439056308171851e-01,-1.079948259744772932e-02,-8.380021934263717776e-02,-1.440092800572966014e-01,1.822850670453089184e-01,6.057323357497901295e-01,3.187179174582379093e-01,-3.784261815482729552e-01,5.019120326457480324e-02,5.317321236082540592e-01,-1.041786559683576668e-01,-2.622279109930030216e-01,1.630446240244157463e-01,-5.682060374694045124e-02,-1.445209772865311826e-01,-1.928665697129872958e-01,-1.789521370450533888e-01,1.371078114768112602e-02,-1.920808996101083799e-02,-3.940940519748062365e-01,9.429057738755168561e-02,3.797345359905889284e-01,2.314917655121187801e-01,-2.873099965358262842e-01,-3.453919268440012180e-01,5.716907707426761576e-01,3.119948612174222036e-01,1.810610543204806827e-02,-2.230063850922373303e-01,3.052794331684359763e-01,-2.003154034416433082e-01,4.509227434826267311e-01,1.534186044655545256e-01,-3.688039586530797997e-01,2.038277323063561186e-01,2.777006265457325207e-01,-5.353125505371024787e-04,-5.982511807744200771e-01,2.462596461153067351e-01,-6.245449901041129348e-02,-1.142458926412499298e-01,-1.146005596980011337e-01,-9.458835275196111197e-03,1.699280730947904938e-01,-5.042882002005754094e-01,-7.094798872882247809e-02,2.526733996300596988e-02,-3.329710831477835642e-01,2.189006746347660903e-01,-1.194908178014724431e-01,-3.028455166280420441e-01,1.136097690342251360e-01,-2.328305094185742774e-01,-8.026676983915730090e-03,-2.334951599989887328e-01,5.325404338129365867e-01,2.368577344505715943e-01,-5.810931131228719293e-02,-5.671887120316936037e-02,-5.676922494264657892e-01,1.066577015667781181e-01,-2.008519032548735650e-01,4.747774924143957631e-02,4.395888462105989603e-01,1.683354306050051097e-01,2.021433161677955170e-01,3.577798214416118977e-02,-5.102618027654505228e-01,-3.322621607022616108e-01,3.141381708713523319e-02,-1.363088562568740003e-01,-1.704112892334082030e-01,5.726294488605826460e-02,-5.345381181864857986e-03,4.742969728258070172e-02,6.335709720250044807e-02,2.931179468127166898e-01,-2.517877621051061721e-01,-8.530478078599420533e-01,3.960491478019492195e-01,8.259450195172772513e-02,-1.142681141018652702e-01,5.568035115422406145e-01,3.736878227755293103e-01,2.878787787305769341e-01,6.394276957264403982e-02,5.174369915533073572e-01,-6.785085850931683871e-02,4.223995919684959965e-02,5.774823215824523986e-02,-9.901105080416975346e-01,4.236215115161102163e-01,6.199675643065827302e-01,1.458540639609298140e-01,-3.315349264374412019e-02,1.219176976447215593e-01,3.105410974667971447e-01,-2.259818231494206409e-01,-4.496150891431706653e-01,-2.213201410083173448e-01,4.373540901008333703e-01,-2.691784157759616325e-01,-1.194537016206209147e-02,-9.612461237794006630e-02,-1.316130845871402166e-02,-4.151300993359124392e-01,-2.101930106523015596e-01,2.678588561031755022e-01,8.668892822673880671e-02,9.324562620754428544e-04,-6.102286422967126422e-02,-4.527246268062357082e-01,-4.052033606266112753e-01,3.053007439615035845e-01,3.203360758494885191e-02,3.614669579991359738e-01,1.113828767644248069e-01,2.998041871178111495e-01,-2.807191427019818664e-02,-1.675648742586822726e-01,1.502779080625855079e-01,-6.891884750274884786e-01,-3.896426354244695300e-01,3.501082523010363712e-01,-7.217221418924909745e-04,6.189529463836139778e-01,3.558140983829747306e-01,-2.169437914632196818e-01,3.621910580365868548e-01,6.648364547491166787e-01,-1.680049735285067958e-01,-3.905811761390040604e-02,-4.422858514894327520e-02,-8.798840707549734907e-02,2.159461204316441563e-01,-1.958082183310345947e-01,6.164094103356938525e-01,-3.920955522372271962e-01,-3.070370187865286704e-01,6.449146782980363923e-02,-7.932108477368292609e-01,2.204126851861076264e-01,1.626946966888515311e-01,2.355118077055770864e-01,-4.336078108172467666e-02,-7.749204896030696677e-02,5.120791652660000581e-01,1.264662754792850174e-01,3.943790791550463859e-01,3.676146269024406776e-01,1.102220383402852111e-01,2.505337458783507554e-01,-7.386214946075085608e-02,2.354042105530353146e-02,1.492369009190227525e-01,-9.398253806509890285e-02,9.929352741327749365e-01,-1.382541999659681331e-01,3.403780986588972324e-02,-1.866138477105691237e-02,3.159355325813439364e-01,-2.119772322851077584e-01,3.703828414448516737e-01,-1.541109120485577022e-01,3.671335793874164755e-01,4.374841123871380660e-02,1.957869017392959710e-01,7.601402336723216135e-02,-4.692272251963391927e-01,-3.203428606920942223e-01,2.086397671660746578e-01,5.155999847667331881e-01,-3.982356379110426059e-01,6.050316493832110648e-02,6.628209081852622087e-02,3.155268833926378469e-01,-7.466902722589617569e-02,-3.093871628383499384e-01,-8.397987051455088614e-02,3.827751146426073420e-02,-7.325051884250093348e-01,-4.551192162497492283e-02,-7.545130804391364521e-02,-1.888089023635318997e-01,-4.736212145660538830e-01,-3.898217423591583686e-02,-3.863613312075959150e-01,-3.662988572853050351e-01,2.749340800119602357e-01,-1.893766682477214247e-01,2.624671577540749201e-01,2.327829346871701788e-01,-6.523731789877054710e-02,-3.838898080381442646e-01,1.643257124426737159e-01,-4.094045759252797761e-02,3.349611568611951529e-01,-2.211565179529046132e-01,-3.197127120239449949e-02,2.128258446477532262e-01,-4.386260396435758685e-02,-2.775133636924883573e-01,-2.962866870120907103e-01,-4.762832139230045725e-02,-3.704834205108213374e-01,1.281983899796741155e-01,5.702740940977478745e-01,2.695098928286998596e-01,-1.115048511757004285e-01,-5.642023245131510406e-02,-1.123881315585292251e-01,-5.157873434597967099e-01,2.480089531131182690e-01,6.113505718104068204e-02,3.533253504682377089e-01,6.066999012887491771e-01,-8.600315274181480341e-02,6.704885003974171420e-01,-1.489937399900639337e-01,-2.825603114188219855e-01,-6.425114656120761714e-01,-4.255853735700461105e-01,2.151019199037139396e-02,-8.261908076219869057e-02,-3.352955707853600420e-01,3.953545150630691923e-02,-1.653401704702996688e-01,-2.674832442842184910e-01,-7.677351668810791785e-02,-2.239040195022714078e-02,-5.421004340859202075e-02,3.195906920155918152e-01,-6.312787063480072014e-01,9.816985802241422199e-02,-2.103919176654508172e-01,-1.162873930175469112e-01,3.408757616143706648e-01,1.372257500126352059e-01,4.059439691163296282e-01,6.067687456750997521e-01,5.243788514437303094e-01,5.697691352245839655e-03,2.451897992823909300e-01,1.999492651776385577e-01,1.947281897330531766e-02,2.075723688240535270e-01,1.604479255769477031e-01,-3.261769293946699677e-01,5.145615410712530702e-01,-4.886601426664947678e-01,-1.690709539740811729e-01,3.536478383207102283e-01,2.651649948541307533e-01,2.702319216538768276e-01,-5.946550705117209512e-01,1.770537664544939993e-01,-9.386942901012580720e-02,2.331453027848949533e-01,3.759844940204190578e-02,2.795978260040189456e-01,-1.866225582906750058e-01,3.752413468694163479e-01,-3.310092815855477655e-01,-4.047521785046758191e-01,-2.327104391757400803e-01,1.948269143835544212e-02,-1.028235303130092815e-01,1.841631018860860614e-03,-7.494062689545620826e-01,-2.214846738217476074e-01,-3.703081812067269274e-01,3.862999730202582582e-01,-4.654690074840799746e-02,2.218485423214998087e-01,1.159389408913102520e-01,2.189507902114721516e-01,-3.403339494988903008e-02,6.479658070061791730e-02,4.762074581718298560e-01,2.717851333749619624e-01,-6.081938799033951293e-01,-8.304056286559093891e-01,4.419246882043878499e-01,-3.196809626050667319e-01,-2.442694913184136063e-01,-1.002443957630326787e-01,-6.790658807737467439e-01,3.020924074322072772e-01,4.861255163253107026e-01,-1.948360941874482666e-01,-4.374336807426888463e-01,2.111790217552702020e-01,-1.878810918570462118e-01,2.576339717223478099e-01,2.423569873245272066e-01,9.493215364322021843e-02,-1.031766747649121574e-01,-3.346585369305309920e-01,-2.749722990383277610e-01,6.793099992323038683e-02,-3.992371912411142865e-01,1.796979599269575290e-01,2.069085011563439047e-01,3.010740230929422334e-01,4.582584241181167362e-01,1.396585211183985487e-01,1.687280454938002994e-01,5.335629471989065120e-01,-2.079453844128220652e-01,-4.573409290853925890e-01,1.694477219008014846e-01,-2.257350859691448774e-01,3.231215103977300163e-01,-1.810322102397790289e-01,-1.002599540369833453e-01,1.988375220258029735e-02,2.154288925535449428e-01,-6.043315173775707372e-01,-4.646099651633207178e-02,-2.341071414273169782e-01,2.871726142315044750e-01,-7.851339544937704917e-02,-1.293030555294650552e-01,-2.199079075525622873e-01,-3.380069207273064813e-01,1.165779300671505592e-01,2.602627844832196627e-02,2.302927877475703100e-01,1.304783479219212561e-02,-9.762031456042943867e-02,-5.059008214934987979e-01,-3.320557226442876209e-01,6.095587952460976983e-02,-3.606449804750851973e-01,-3.188320346510594150e-01,2.038284444187015987e-01,-1.663660935181546785e-01,4.158306617997149096e-02,-4.470128810541436626e-01,5.094062024199916827e-01,1.082616308525426313e-01,-2.693198175217490498e-01,-4.632914640536330703e-02,-3.453635421195094257e-01,-2.392365276434751664e-01,4.684521101086156492e-01,4.318694228194386864e-01,1.070400960925994155e-01,4.859097640856581690e-01,2.568409320731224743e-01,-1.709110779411517067e-01,-4.509527877518071937e-01,4.302508103617299490e-02,-3.818802161608781942e-01,2.994846214273769180e-01,5.026802999426284169e-01,8.790871364644393254e-03,-3.128775376223734764e-03,4.060298076798911637e-01,1.174355657814767501e-01,1.220704089958270060e-02,-2.432790518906281785e-02,1.536401241176769961e-01,2.913397906919159008e-01,3.266220678995134241e-01,2.392534290271189912e-01,2.049585961595227768e-01,-3.908686883282848634e-01,2.747906729891679278e-01,1.419134522652565900e-01,3.121880694420690050e-01,-4.617948453044628046e-03,-1.318189805346313137e-01,1.229438192069078929e-02,-3.314069242037989693e-01,-2.168530059824092526e-01,3.182150715774991756e-01,8.503271101501498619e-02,2.862273330010576822e-01,3.991288220222944383e-01,2.222009139793853366e-02,4.812369020016952770e-01,6.314309776341703317e-01,5.659982407185244480e-01,-3.560709828514150299e-01,-3.964292870561424986e-01,-7.028388270492453849e-01,4.953271584277514350e-01,-7.038917472434370881e-02,-5.618414706393590752e-01,-5.443185189299610816e-01,-1.114778975794148141e-01,1.427922374095171032e-01,-8.277730790176390796e-02,5.889538402644986514e-02,-1.402202717403695093e-02,1.902287372292816858e-01,-1.187898969058260590e-01,5.492770141022373931e-01,-3.268157068552220434e-01,-2.204640482015558234e-01,2.845387646183562824e-02,-5.066581716856664031e-01,6.463483389148368119e-02,7.368158030624830657e-01,-4.028971234934666246e-01,4.363806973340836337e-01,-3.241632451605742093e-01,7.420616225857873394e-02,6.092028723181917016e-01,2.949821128226750785e-02,-3.757111138847950005e-01,-3.788369536663944714e-01,-3.253404877022694763e-02,-2.882950149926964412e-01,9.694911987751438920e-01,-2.690462250422832047e-01,1.424602942516969839e-01,-2.101302326498392381e-01,1.502820256494218909e-01,-1.536186245802534933e-01,-3.907046076745075702e-02,5.222347811568578413e-01,4.128807066788028196e-02,1.467653175837660973e-01,-4.615890709435134798e-01,-1.706198076813160991e-01,-2.065529128036711903e-01,-1.667225190104752452e-01,-2.606950665589326532e-01,-1.519691769008141569e-01,1.516929965202280517e-01,4.358352801735590476e-01,5.411105628116165134e-01,-1.687444776054436713e-01,1.216679383310312057e-01,-4.797401856077302962e-01,2.798072588379287295e-01,3.894828335163302846e-02,-4.370349656036097430e-02,2.823779613418477275e-01,-2.207034855220189884e-02,3.025420796757410935e-01,3.935195934127964645e-01,4.443119018047995694e-01,6.843209145822696238e-01,4.076840311658436744e-01,-1.250929517732222163e-01,8.147523313858687222e-02,-1.087481915704359703e-01,1.465673967429503011e-01,-1.225547258929199912e-01,2.289230841042375897e-01,2.885250654287680461e-01,-6.243079341983931441e-02,-1.660937060534445620e-01,-9.759510220780258372e-02,2.486265832053396463e-01,4.320048969000901407e-01,6.685735774158368949e-01,2.962114040706630980e-01,-6.660389019417076173e-02,-2.225469092804301385e-01,1.612619759832275845e-01,-2.634261875573120082e-01,-1.463111337368698008e-02,1.685214251113502093e-01,1.781026969538356541e-01,1.117222724528264127e-01,2.397384725802054473e-01,-1.961545196376051139e-02,-1.463798089557163951e-01,3.228978055001988784e-02,-2.276977165836440720e-01,7.073524875663669276e-01,3.769549383045898150e-01,-9.194355873275941726e-02,-4.458824075424193123e-01,1.231029132454771746e-01,-3.329984498656962111e-01,-1.990642528871268413e-01,-2.185514618985944790e-01,-1.464459131699965555e-01,-2.467691098365966569e-03,-3.296749612910901406e-01,-6.434065850581617563e-02,-5.141942593329148353e-02,-2.557189358445418614e-01,-3.386907243659396105e-01,6.184044866578134458e-01,1.683188033682162799e-01,-2.532624927274644278e-01,2.101251636911858484e-02,-4.427671257107342329e-01,-1.871868934421915542e-01,-8.777191199324850535e-02,1.407889901376132014e-01,6.546932315055842277e-01,1.789897495379744533e-02,2.886868687624628560e-01,3.126060558080419327e-02,1.939938127736623441e-01,3.563249182854411751e-02,1.957009620008125228e-01,-1.797790417162742627e-01,-2.723283117512005358e-01,1.409234318963956678e-01,-2.164585189861248093e-01,5.436567450053055722e-02,-2.252692502840973887e-01,3.100072385451786428e-01,-1.453725945502941652e-01,-7.758235960593774794e-02,1.283567999161020490e-01,-1.122605474679524845e-01,-2.753628591395573810e-02,-2.347169090456034390e-01,3.050788990855881622e-01,3.107561160913509535e-01,-3.623715204096520370e-01,-2.451372161109132974e-01,4.304754384789895583e-01,-1.654234326680217027e-01,-4.223835421644688837e-01,-2.877102929087385075e-01,-8.466748181642730353e-02,2.651681854315616205e-01,1.149725264055381918e-01,1.453303446177307001e-01,6.269250223830857838e-02,-4.129562763805810777e-01,-6.832744250623980220e-02,-4.493849554963429832e-02,-3.608250643580399042e-01,7.909202554529409790e-01,1.859866276215325631e-01,-6.227944575359735113e-01,1.736232382174693334e-01,1.584967269923044375e-01,-1.975691655671615865e-01,2.494675084422152966e-01,2.896056344438787677e-01,1.940453293137067714e-01,-2.405649209633534680e-01,-5.121347007259792194e-01,-3.857581948761239915e-02,1.378310700900358676e-01,4.442042940092957304e-01,6.066827518689323906e-01,-4.217685461830499027e-02,4.402619811771520952e-01,-1.835568207726735387e-02,-4.294935153204484934e-01,-3.995571008373506872e-01,1.026100028114827339e-01,-1.306647960650759721e-01,-4.740955422168387223e-02,-1.637849752311566764e-01,-1.216153556392884083e-01,1.536099477373521933e-02,9.961680066616573903e-02,1.935471875292002764e-01,-3.869930493392661486e-01,1.908955005296462948e-01,1.961888707054465150e-02,9.337485970536107960e-02,-1.254904214275286978e-01,-4.646344866621033853e-01,-2.441593489800028272e-01,-1.570555493560272797e-01,4.698259141636098035e-01,-3.109934977743969986e-01,2.566270184251260786e-03,-2.688445472090584265e-01,-3.555768713378378854e-01,4.619844333529449787e-01,7.970361039001148951e-02,4.300167742913723473e-02,3.513854488061735615e-01,1.326346100918986970e-01,5.440526351213581524e-01,-4.078800292665755722e-01,1.809214733713687961e-01,-7.002245085036769984e-03,2.833151947959487993e-01,-3.869335594487042784e-01,-3.319980132929668537e-01,-5.300548083552966139e-01,2.786651856389157911e-01,-2.878383168772851719e-01,1.279889027259940304e-01,2.020056848952639372e-02,-2.850101822628544612e-01,-1.339296684800829126e-02,-3.117338574365302040e-01,4.024330873164373990e-01,-2.109385539060285308e-01,5.878462630530667532e-02,9.181019812127580448e-02,1.750932827952831061e-01,-3.463357069215529660e-01,2.994321532434605637e-01,4.317372264600717879e-01,-3.476752987120212413e-01,-1.399557208167910571e-01,-4.788947765784752897e-01,6.160354101454428022e-02,-4.135766929604660080e-01,2.165095083162232870e-01,1.788073661021036265e-01,3.110473675814226513e-01,-1.277384846037144528e-01,4.274658593009995622e-01,1.487439913567339955e-01,5.202786048344966163e-01,2.335665835633200793e-01,-3.474226988055287291e-02,1.953950595468470774e-01,8.947800066790466411e-02,-1.849588614180259494e-01,-3.366933890867567780e-01,-2.289559736577376492e-01,3.016846024810358393e-02,2.400079042468253321e-01,3.588735136188789254e-01,-5.030540254006725664e-01,-3.005411776041428396e-01,-8.245735539817122817e-02,-2.674562809451299095e-01,3.136083547841003738e-02,-3.497580655651977288e-02,2.790526570802719930e-01,-1.992337304522400487e-01,-1.204153033533925388e-01,1.396057451248481629e-01,-1.734401932343694330e-01,-2.204368595243878515e-01,-1.281852576380174413e-01,8.175667394804814192e-02,5.530986979277521254e-01,-4.002888942185189869e-01,-3.740581755398275088e-01,-3.855369370434931775e-01,5.657117787172989409e-01,-1.124511467963179023e-01,4.014776503866457902e-01,-6.122485907498743662e-01,1.448595287358808159e-01,-1.064387871120889423e-01,2.902706100317093973e-01,-2.445979599169962326e-01,-1.567153669860644194e-01,-3.996290585877548263e-01,-1.318042912139231748e-01,3.124062515883794799e-01,1.738767573230673436e-01,2.462061065385175718e-01,2.758873422965898992e-01,5.561666097322000291e-02,-3.882078902547472787e-02,7.711483468965604771e-02,6.810405962758485643e-01,-2.658026967293687925e-01,-2.877633334095008877e-01,-2.462702987235619312e-01,-1.537010111623957898e-01,4.176108478476814323e-02,6.941674451127029244e-02,-3.000652614508853566e-01,2.393758844299389288e-01,1.879530615964371265e-01,-1.613428491023025657e-01,-8.386360585113196153e-01,-1.306057532040136027e-01,3.426151632717865381e-01,-2.629766503584313186e-01,1.064361614594747235e-01,-3.875248437324872730e-02,1.321793215492766405e-01,-7.699910929716022312e-02,-4.500157863498496225e-01,-5.604597222214103419e-02,-5.050081519179281386e-01,-2.356981832664326315e-01,1.354602744658123525e-01,-9.686153327315091821e-02,3.841448547043648798e-01,-8.181315186405040130e-02,3.303293891469153559e-02,-1.764251296203896979e-01,-2.186373310303118545e-01,3.887285945458096026e-01,-2.784440352245572473e-02,2.159051943340822011e-01,9.144185507603053154e-02,-4.149151360527255639e-01,-3.222078199836071466e-01,-5.585888866071533343e-01,3.175857720614042590e-01,-2.647023655378534790e-01,1.648700771925380448e-01,9.224434583752322281e-02,-1.991724376417148001e-01,3.866489930037372846e-01,-1.653259076924937510e-01,-1.623828856199211468e-01,1.179066656542594321e-01,5.180317445275358645e-01,5.221609527172086374e-01,6.994676692290311415e-01,2.495099426095681028e-01,4.098535788555177084e-02,2.543916665587215298e-01,-2.892342578195070679e-01,-7.688222447213486355e-01,-1.714723590572311551e-01,-2.854773833859823307e-01,-1.067626622152564736e-01,7.221932331103664282e-01,5.826868429182917308e-02,-4.528121540758581198e-01,-2.562192098605168833e-01,-9.891373299994127288e-02,-8.800292487458720447e-02,1.311761251234153380e-01,-1.101490472415784516e-01,-5.585316899953889358e-01,2.310486009118866702e-01,-1.771911395249297638e-01,-1.128392486313704035e-01,2.601142799525563709e-01,-9.282071206158981624e-02,1.052779752895960375e-02,-1.403594777270203986e-01,9.791638448482670176e-02,3.143271763492364590e-01,9.825130067419761415e-02,1.864871736129110613e-01,1.984960749645490741e-01,5.322195181382745680e-03,7.365517392184010859e-02,-2.559505159267296270e-01,9.868125017245228670e-02,1.035455720929325946e-01,-5.143060059859563271e-01,-2.265129470838440628e-01,3.928088639917927671e-01,3.043094471005163837e-01,3.798305990409209243e-01,-1.825039770058640154e-01,3.772540398310259002e-02,-3.370118851499001589e-02,-1.357842788551890389e-01,-2.709663910190093783e-01,2.295932400766012016e-01,-3.590731174718158614e-01,-3.059703603565882557e-01,1.867059810837321254e-01,-6.209278517299832850e-02,-2.577720745225952070e-01,-5.783746803521099267e-01,9.517876459994271954e-02,3.886729720985122871e-02,-1.420680348592328890e-01,2.546991772244738134e-02,1.900971376748044894e-01,2.964184605065900424e-01,3.305592046315744548e-01,8.579408214407086009e-02,5.353584764805888740e-01,4.952947805302179152e-01,-3.142779926245084510e-02,1.044515074582741260e-01,-6.475170034690899135e-01,-4.784812504291131030e-01,-9.792098409561253436e-02,7.726434593831330022e-02,-2.834378809028086921e-01,-9.394279310167366615e-02,8.832038341997793252e-01,-2.957094356078943630e-03,-1.070921582599805300e-01,-3.373896354973958123e-01,1.618282484578736635e-01,4.729979368673015161e-01,-2.961507533004125725e-01,-1.620087735067582413e-01,-1.770651124576197721e-01,1.467597070706345153e-01,-1.223633046268947644e-01,-1.662250523905169364e-01,7.957632488235177881e-01,-1.995649955153100050e-02,3.119949711279247292e-02,-1.216713215476215720e-01,-7.768803183411245872e-01,5.400342971123928137e-01,6.923215030021249994e-02,-2.459661774560032710e-01,-8.384724750429988216e-01,-1.176578315432812438e-01,6.678527139544500058e-01,-1.357549952358425016e-01,2.839519056145539677e-02,-3.421642566093863191e-01,3.806824088077495616e-01,3.845055101305913658e-02,-3.670772504087255195e-02,3.121753163704698436e-02,-3.470772501122139642e-01,-4.890775020103225179e-01,-4.026396096782152711e-01,-1.018841154934703036e-01,-4.089142814188469477e-01,2.840673520778266292e-01,5.193717093341738700e-01,3.073596357258832068e-01,2.454407900709033308e-01,-2.038900587356397565e-01,8.395005293948711034e-02,3.953600656976111183e-01,3.065083688453751343e-01,3.090272992408399921e-01,3.186314598914866125e-01,-2.472040026737164498e-01,-5.646609834999689881e-02,8.317273111596759638e-02,-1.141710325893008776e-01,1.048354719122539525e-01,-3.571330020384104187e-01,1.896578604016941894e-01,-4.349387998593150506e-01,-2.854574908624030877e-02,5.707760699140547178e-01,2.458386341657823049e-01,-4.739954136071115598e-01,4.807799709140370137e-01,-1.381784784792513543e-01,1.378601901220680159e-01,-5.747861619313495707e-01,6.451738029130870133e-01,-2.753624438514495898e-01,-2.990051489856758726e-01,2.537856984475537758e-01,4.124449516930407955e-01,-9.573058726136972618e-01,2.934756321725425776e-01,3.134949646501211107e-01,-9.012815400698812041e-02,-7.342371611650418128e-02,5.679924687523756344e-01,-3.330730314304066741e-01,-3.687774504359082051e-01,1.612041057533125654e-02,-5.263917654399323798e-01,3.503866476522172202e-01,1.912461981074524073e-02,-7.918721072083084733e-02,-9.585362963203765130e-01,-3.577959676541428435e-02,6.124877960732941773e-01,-2.831642815012930248e-01,4.530203935995861242e-01,-4.366687061024507877e-01,-2.267357871461630481e-01,-2.922136188305084897e-02,-4.761362305155308894e-01,-5.227006574095635627e-02,2.519270401879648569e-01,-2.565170503601299501e-01,8.988725713404699391e-02,-2.318951451943045694e-01,5.983355110608348237e-01,-5.782315367551479346e-01,9.808756298174552135e-02,-4.242783918586204295e-01,4.450989661732202562e-01,2.406303839559540136e-01,-9.054832781049002022e-03,5.617460250799444915e-02,-6.513121186475120949e-02,1.193483215861505381e-01,-1.628824552306228080e-01,6.628819702441257622e-02,-1.065009524917324701e-01,-1.932884461018692934e-01,-8.115788595235913505e-02,-3.586413788285683912e-01,-3.970771261720180134e-01,4.630874123400640086e-01,-1.275022998236777783e-01,3.586247750591458616e-01,3.838212042593123208e-01,4.045127111406099929e-01,6.973582989377241637e-02,2.515808870401091760e-02,2.344416046471111681e-01,2.966312909356273453e-01,-1.707671107470987437e-01,1.537147893432855295e-01,-1.471431127856710763e-01,6.051265389846607334e-01,2.164961637873001332e-01,3.655965287819883947e-01,1.543486642794965891e-01,3.032972211675864088e-02,-9.055617395567876204e-02,-6.327112398004586247e-02,1.409087042528333611e-01,4.584677914640949981e-02,-1.021963051629480590e-01,-2.563401817905366920e-02,2.247527592678652264e-01,4.529456971790980779e-02,-4.189967482843200974e-01,-5.239794443658380985e-01,-1.505969299307109710e-01,-1.420509589127316452e-01,3.549650531290852173e-01,-9.003636029101934335e-02,-1.725479621808294062e-01,-3.245031181720109403e-01,-1.056753867741382913e-01,-2.114567280861155002e-02,-9.896397110884948278e-02,-5.340219803464659604e-02,-4.930094406362323101e-01,2.255067745415345326e-01,4.575971231686334351e-01,-6.599010502119381227e-01,5.473678685987475034e-02,1.648965543800985645e-01,2.847034754966316084e-01,2.678062019022824924e-01,-2.801828062171581313e-01,5.210232895262859043e-02,3.552104144276385100e-01,-4.868837311803088097e-01,3.123673455559183854e-01,1.770929874647345081e-01,-3.207264712229618286e-01,-4.912742093473131955e-01,3.524324175405712523e-01,1.683076327855116405e-01,1.567681820077377886e-01,2.963814318078190901e-02,-1.183803304805678691e-01,2.233491452372415031e-01,-2.906884970567209514e-01,-6.628628902450484084e-01,-5.920029944289943377e-05,2.503887984554515334e-01,3.998502025582463815e-01,3.566293574636765218e-01,3.320991745078957086e-02,-2.401682628636670480e-01,-7.063435184956320945e-02,4.903408613647890907e-04,1.285245221585747388e-01,3.795021507829802188e-01,5.445556538904210153e-02,-4.738617700474806460e-01,7.081263389050989066e-01,-5.592652264383492222e-02,-5.887345815370106372e-01,2.302811178658025204e-01,3.660672584013913711e-01,-1.947536913778733225e-01,-2.955602533075727401e-01,4.516871198644045182e-01,6.490473463832024947e-02,-3.778721870048313280e-01,-4.004831424315074551e-01,4.643713995927525179e-02,-2.077387747308319654e-01,-8.445051180783601508e-01,-6.462765982587018176e-02,8.056491851044179919e-02,-2.525490844246239264e-01,2.966544246985743372e-01,3.080606349432710167e-02,-2.877427705468160180e-01,2.303674172803181763e-01,-3.984401037031083948e-01,-4.362361102568703131e-01,3.729762499419922994e-01,5.152521404502242719e-01,1.807733212755087693e-01,-4.599154104865228743e-02,2.374464678386425387e-01,5.424247183936558026e-01,-5.161853725724641073e-01,3.943710333643269950e-01,4.081290712349902039e-01,1.900063940257813444e-01,-1.574887742145728853e-01,-3.408241580063289811e-01,3.145366696668913664e-01,-3.045739241737516756e-01,1.568160371928103980e-01,6.057158830717679354e-01,-2.614935888870066893e-01,-1.462593190414407662e-01,-2.417799907374210133e-01,9.299475006655443313e-03,3.073251334067212959e-01,6.708265397472032987e-01,-2.157457152612123064e-02,1.062349944478746117e-01,4.867997726794999480e-02,-1.650106645024991270e-01,3.933662846450816097e-01,1.859799441347637916e-01,6.914610141962489465e-01,7.832024871448093339e-01,-7.366141858760480443e-02,-3.506385404912780168e-01,1.365628980368594203e-01,-3.124571848016864384e-01,-9.459783622860881702e-02,1.174760972099842676e-01,-4.656973986976764013e-01,-1.324953910956215390e-02,-4.645702240403557504e-01,2.906394751752336969e-01,-1.340297375988607764e-01,3.729208132774830542e-03,-7.934726412802101114e-02,2.813165990235959313e-02,1.547625654688941643e-01,-1.764861652776315293e-01,-1.051912412721863754e-01,5.641632582686528785e-02,-1.266619769753289937e-01,-1.897360414130100370e-01,-1.843632523180168958e-01,-1.537515230505302755e-01,-5.290628233707316275e-01,-1.096456331151482860e-01,-2.488741346976151847e-01,-5.898638746710103131e-01,-2.283553329174504432e-01,4.645291331160670278e-01,3.272521999499725109e-01,-1.971702379589182763e-01,-1.070412526961515010e-01,7.562180873708790330e-02,-7.339488755181022839e-02,2.370764465932776177e-01,2.100379618864791076e-01,2.373513068288729544e-02,-5.449921383124880503e-01,-9.388354015660022034e-02,-2.353900296065920272e-01,6.537980755912040642e-01,-2.641230529359503421e-01,-4.054887143203655606e-03,2.236080293940710950e-01,2.764479195211274609e-01,1.133273432983117474e-01,9.695353385893146214e-02,-3.354195241442013420e-01,-2.024472683794829864e-02,3.119747976463197459e-01,1.025601933274661037e-01,-5.497701035361853700e-02,1.040321050013593984e-01,-2.036285300298071588e-01,4.617116601394126441e-02,7.526338950125324723e-02,-2.225122048842457234e-01,-4.269590802263864560e-01,1.892879048247813473e-02,-3.368519278267819161e-01,-8.486349640752866019e-01,-2.584523778356933033e-01,-1.927131920057774117e-01,-2.742194252622334183e-01,-1.214876272638437255e-01,-5.406141195138539635e-01,4.338077048915647826e-02,4.991175870024208705e-02,1.984716413672333590e-01,-2.555339815513161805e-01,-6.246938187917976809e-02,2.360945804769682965e-01,4.837614362656765254e-01,2.821766178883979292e-01,-2.904468055906406221e-02,-3.313812390201117397e-01,-3.409805106926644402e-01,2.132527252489012717e-03,-2.146672023048568079e-01,3.019401590853049711e-01,5.377201632477611737e-01,-1.499315495615241578e-01,-8.451639631041518719e-02,-8.680355509847371975e-02,1.091736340320564880e-01,2.410338213079302461e-01,-2.442462655218737011e-01,2.212725885273451876e-01,-1.540840161733678382e-01,-2.499190240851666134e-01,5.679142450108083384e-01,-2.112448835706758898e-01,6.751439680182323710e-02,-3.937800906575861237e-01,-4.218795052372614762e-01,2.228829663455307863e-01,-3.540880655102952579e-01,6.533330514084071273e-04,9.575713539140252861e-02,-9.816217188243003822e-02,3.200583862451750194e-01,7.846458266815199700e-02,7.579891468590686798e-02,-5.118202010754227538e-02,-4.893938746081479829e-01,2.999673802301282555e-01,-3.268025604326056932e-01,1.427197539616303634e-01,-1.998519815166621971e-01,1.464226806727995656e-01,2.262645743934971476e-01,6.625090791928208711e-01,-2.391015687549443713e-01,-1.011576693056735893e-01,-2.224971542497161670e-01,1.882191515316209707e-01,3.807812955516697018e-02,-1.534765955103536417e-01,-1.495481164707574140e-01,1.538640842067422188e-02,-4.427264067299415545e-02,-2.243579973509141900e-01,3.226936462703702824e-02,1.271086840849917354e-01,7.294698520888671933e-02,-4.747331625843657643e-01,2.539224730239542649e-01,1.606497424843919899e-02,4.096707039358260527e-01,-3.170703146341530970e-02,2.918900649861624896e-01,1.624873423156793784e-01,3.968999134291026354e-01,2.726233760581061039e-01,-3.299666372977930195e-01,1.873442031067268886e-03,-1.300586960095873046e-01,-8.965526331317232034e-03,-5.512710233227561922e-03,-1.428807016095003102e-01,2.100301339949756096e-01,3.384559472472596642e-02,5.629929669592580177e-02,-2.729412344679482683e-01,2.743150498564692619e-01,-1.208656772745698715e-01,1.336773114235592086e-01,-3.506519971446653283e-01,-2.253553942937644161e-01,-2.340875485525829580e-01,-4.116471976504350316e-02,6.080844338699974844e-02,-5.350302998800946508e-01,-2.512148682711970449e-01,-2.204605294992776909e-01,2.663269526231737405e-01,-5.160023244990440405e-01,-1.769652337178839741e-01,5.938133184602027992e-01,9.717932953479160862e-02,-4.795742079428086391e-01,-1.424799529207061155e-01,5.367632580488103100e-01,3.439767504191517666e-01,1.604581642616912662e-01,2.351115994932358455e-01,-3.435192981050906869e-01,-1.103288779372890993e-01,-2.728554990160326765e-01,-3.401791337808959814e-02,1.125559042303142798e-01,-3.520728875680168568e-01,-9.612623456993574234e-02,-3.704572936993529853e-01,1.828278281337396005e-01,-6.806513684860092395e-02,1.290784627500874415e-01,1.791719372449661687e-02,5.894146245650260241e-01,-5.357292814318090901e-01,6.279884659047746398e-01,-4.098789023226753203e-01,1.750619500023049280e-01,-1.510245131573885458e-01,1.380255273932166904e-01,-1.004551516073656781e-01,1.179980725589615809e-01,1.446403470094304589e-01,2.131081010159528374e-02,3.667512932698604455e-01,-1.615654031745785979e-01,-4.012925411026589950e-01,-1.985243167118332097e-02,2.856439498393065768e-01,-2.321078196848330166e-01,-2.684372464738579711e-01,4.517834881622431395e-03,2.016018176847921839e-01,-4.235376916829229621e-02,-6.293481984433382803e-02,1.085990657029377582e-01,-6.142348685533642882e-01,-1.000089799052285705e-01,4.452663319556504629e-01,9.191175659435221745e-02,-2.220060169493299485e-01,-4.683646930341359149e-01,4.307263310558336750e-02,-3.176739733310575686e-01,-1.173686342378257343e-02,1.109807816751271214e-01,-2.436925533019856649e-01,-1.195182916643343085e-01,2.651616286344956608e-01,-8.953712620498777142e-02,3.496822380527470631e-01,-7.797183980802058212e-02,-1.625883028230606583e-02,-7.757239432425511172e-01,3.850717494955507303e-01,2.823875132832646129e-01,1.924322118886311050e-01,4.691091930562022588e-02,-8.460151268092558352e-02,1.846835546647951909e-01,6.665684750503599876e-01,-2.946135549626534983e-02,1.110282115314110835e-01,-1.034921218660253411e-01,4.792277643163183609e-01,-2.506653256800719376e-01,-3.935219257169476625e-01,3.266965076094801579e-01,8.395794540568696229e-02,1.262883797448659078e-02,-3.159829250275550949e-01,-1.045768907649452101e-01,-2.890986865346016343e-01,3.506517039136883979e-02,-2.876271236997650638e-01,-9.812962604793927512e-02,-1.032943107511975628e-01,6.304691552603286508e-02,6.556262207604686421e-02,2.850944919399029942e-01,4.259431784126955362e-02,-2.581196244970419551e-01,5.242022260824454882e-01,-7.413089712741859350e-01,4.206456950079256324e-02,3.207909454587743597e-02,-2.145696055723989304e-01,5.078287044827740626e-01,-1.664391398036524916e-01,8.750268965461537041e-02,-8.137527488589267888e-01,-3.424007325926786693e-01,-2.438943514861586226e-01,-6.239448703887626735e-01,2.576717731739101569e-01,-2.150878442761409437e-01,3.826449291830118504e-01,1.506622089927671382e-01,4.533209541986907981e-02,8.867427633527702469e-02,-5.285327299479989360e-01,-7.444899331953364063e-01,-3.967816220297606944e-01,7.300345981738551870e-01,-1.929035180283829587e-01,2.177042800738112349e-01,-6.080050298777487372e-01,-1.673242682989511121e-01,4.807374299932667405e-01,-2.444203584995127132e-01,1.154214357498147131e-01,-1.443831650444623305e-01,-4.171849872404250759e-01,-1.416617518538706988e-01,1.620602403357879473e-01,3.281628733967442146e-01,2.644087463554874451e-01,-1.890601360493086303e-01,-5.914907003761922522e-02,-4.686194148885226146e-02,-2.757073259547934696e-01,-2.698200418487645483e-02,-7.437094271646556010e-01,-2.975498872946414353e-01,-5.817752929724676059e-02,-1.014905704625315430e-01,1.608808598769801909e-02,-2.854085199504625137e-01,-2.496076559530961692e-01,-2.879869935020299559e-02,-3.176771920094901835e-01,-1.070207570015909576e-01,-1.014423952952933916e-01,7.634046283274975586e-02,-1.956806911850835495e-01,-2.862504973091278271e-01,2.893908682668679400e-01,2.432606516075508651e-01,-1.633836389076414042e-01,2.053736147133960188e-01,2.966450612462934178e-01,-1.826405090125759745e-01,8.626234473493644972e-02,5.274195600051574395e-01,4.226990361630577064e-01,4.229890833843306247e-02,-1.436479391842003170e-02,-1.095850001108565341e-01,1.462218784779119041e-01,5.359502625047444235e-01,-7.068006963145587185e-02,-8.396483463896206589e-02,3.779045319864001162e-01,2.201791260253583293e-01,-2.987472602561623836e-01,-2.597293726963881277e-01,-3.761838813757571731e-02,3.603710382394689216e-01,-5.663629473161080341e-01,1.245354242500500974e-01,-4.248706761852919511e-01,4.071102695452707421e-01,-4.754685272535409957e-01,-7.944671415775023116e-02,-6.328755723515920861e-01,-2.272139616481757551e-01,-4.238141995217321878e-02,1.738765023466943838e-01,2.157909639442485705e-01,4.089110481349401693e-01,-3.213710904650709382e-02,1.458890915426091783e-01,1.407926495193555227e-01,-3.958003725927835559e-01,-4.067161748049245157e-02,1.095154356400566409e-01,-3.951958487303291467e-01,-3.163611802509796456e-01,2.460411579807414983e-01,1.178450076660166046e-01,5.520148622921245557e-02,2.040618293671239702e-01,-3.424590998055816460e-01,2.401318451648260244e-01,-3.035032105945825176e-01,2.925262128110504151e-02,1.048703908327739721e-02,-2.113425719005640746e-01,5.605439344454097306e-01,-1.676136511753411051e-01,7.022348370992026467e-01,1.752796779941419025e-01,3.301862114199447529e-01,7.322060072678184817e-01,-2.069567519727729121e-01,1.768478184779214146e-01,-1.977987356498505100e-01,4.163971221468431572e-01,4.464354924258430446e-02,-6.592851319650737396e-02,-1.266867830436107512e-01,-1.711272742140913239e-01,9.412658839481709283e-02,2.107325328678601867e-02,6.756832362314587614e-01,8.561559833197845970e-02,3.621009843702370223e-01,-4.364348073347679713e-01,1.302222651884975546e-01,-1.888803316153453982e-01,-2.749618727900669524e-01,-3.384423554950712759e-02,-2.208625758278942308e-01,3.081102973083360563e-01,2.628876392883829349e-01,-8.131171222531505260e-02,-1.668423457922532938e-01,-3.798537860821412648e-01,4.795818265577325712e-01,1.795069571927664087e-02,-3.298635863868896179e-01,-1.030292284749392551e-01,1.597871312474686001e-01,5.634342343738911463e-02,3.059669461793020906e-01,3.867843164680507817e-01,-2.323856539841071822e-01,-5.187357628746117055e-02,-5.539096555132551059e-01,-5.890105499874613848e-01,-2.670996848038240112e-01,2.382039536429511051e-01,5.528068277639481415e-03,1.654380804071434730e-01,-2.078579596150008368e-01,-4.982352797721784077e-02,3.873963716286453196e-01,3.271483752093141129e-01,9.269103866078901022e-02,2.125982038774411886e-01,-4.255811687624304063e-01,1.494764362244178357e-01,2.786393829753918139e-01,-2.556900699240548525e-01,3.481037193767309856e-02,8.632270133949342117e-02,8.292613597900175271e-02,2.013051476903748582e-01,-3.584728276218791532e-01,-3.439481668017029259e-01,-8.215937065322595489e-02,1.633125838430703469e-01,-1.656914973449227224e-01,2.908210760975321607e-01,-2.461138116479670845e-01,-2.455765391948502296e-01,2.032807838073033002e-01,2.523318078196042438e-02,-2.318743800997909166e-01,4.790286791393886245e-01,-2.828804019258781000e-01,2.091516812880243048e-01,-5.279922673627599483e-01,2.589051558818391066e-02,2.857469800782314398e-02,1.361405982757289412e-01,2.709707314259751643e-01,6.416478372857307988e-02,7.394481909984247647e-02,-7.021825684235075138e-02,3.034491038946064423e-01,-4.453002010130057142e-01,-1.302434862022290030e-01,2.594690597089086004e-01,-3.187846627608605932e-01,-1.598563167888931158e-01,1.125246045466441747e-01,1.234124755052313782e-01,-1.685709021402680835e-02,5.236184785316992940e-01,-5.756531003862773721e-01,2.577088085650360710e-02,3.594520028522996125e-02,6.710962026953112280e-01,9.369441663227004446e-02,2.404874849140445914e-01,8.029325834950959417e-02,6.273750491718116384e-01,-1.340887058197672704e-02,2.536892339802589436e-01,5.651087813849025032e-01,-5.606518900037001929e-01,-2.918403001240102990e-01,7.067116466690870347e-02,-4.081639354220953364e-01,-1.613773124741673670e-01,-3.037595548708020843e-01,-2.508362597278180894e-01,4.958684639075001122e-01,-2.065104770563633979e-02,-2.721327550254744043e-01,-6.931461415381077185e-01,1.144047115693657690e-01,2.128936860557776312e-01,9.105818870270174226e-02,3.597266208895938955e-01,-5.740847303674723179e-02,6.348488594038979027e-01,6.488295809854700835e-02,4.574360053408064730e-01,-3.304564056604606531e-02,1.825010173512676970e-01,9.102721185115732194e-02,-7.018343682276205753e-01,3.400265073364944907e-02,5.116105710621062647e-02,1.205909510935445836e-02,-5.170424652133220889e-01,-4.069954288729649705e-01,9.744945456376259696e-02,1.921942183243426916e-01,1.682263690297751968e-01,-3.949821550110119844e-03,7.195901430026802048e-02,5.888678505783310341e-02,-1.408693699581884673e-01,2.115406105497358302e-01,4.717903239955907324e-01,4.135396861495265197e-01,7.388591714773706798e-01,-6.305877185014355235e-02,1.419714907157219007e-02,4.825116813437284602e-01,-2.184009865580663345e-01,-2.489209419107846211e-01,-7.517449066731013430e-02,3.023332076706239935e-01,4.044643390763642543e-01,7.489340467134036894e-01,-2.969361626465696347e-01,-1.923834310627860200e-01,4.896176735241285216e-02,-6.016628168173430991e-02,-3.050842269726916633e-01,-2.354578986022857340e-02,-1.333445649485341944e-01,1.101232717417780088e-01,3.883387712452796015e-01,-2.600414221774742241e-01,-4.464074839892079316e-01,-1.707130037687490387e-02,-1.140747621695359371e-01,7.225252527233926025e-02,3.071952783657685287e-02,1.479139210427024911e-02,-1.373548700849242243e-01,-3.523825903653008407e-01,-1.556447870856156601e-01,-5.618862384336964499e-01,2.897099704824109834e-01,-1.257749862051781853e-01,3.201008483398674193e-02,4.390032518785058624e-01,-4.730219841428584537e-01,-3.127093629636152894e-01,-5.156086380368302136e-01,-3.264843766445852391e-01,3.167275349143477969e-01,2.413450384782465652e-01,5.183374464687298122e-01,-1.027347682955701696e-01,-2.544217504161245813e-01,-7.248936151863119015e-01,2.969138985654744545e-01,-9.777312295872209180e-02,2.864409778790469319e-01,-5.692485941605395228e-01,2.006663511084603169e-01,1.877549308641928982e-01,-2.676232228293883297e-01,3.108164213431133943e-02,-2.394609442152449974e-01,6.946977152126088129e-02,-4.523987278446604116e-02,-3.160100346512650371e-01,-3.487153109482614421e-02,3.630767304198821432e-01,2.076840871316849857e-01,-1.012629307676103790e-01,2.964011501031175722e-01,-2.272521143370110352e-01,9.303321620241383760e-01,3.777201297870873553e-01,-1.714514970196114596e-01,3.753871857586718597e-01,2.290833214975113719e-01,1.195735528417079391e-01,-3.316811810631487001e-02,3.667102420810665064e-01,2.474401899918001746e-01,-2.863333698429859284e-02,5.348359501470282273e-01,-1.652674071734397121e-01,5.044212941889434365e-01,-2.505461363018068321e-01,8.670227759427234782e-02,1.353576579534996049e-01,7.843059951067242463e-02,5.813584455796973194e-02,3.662552293130654779e-01,5.620140182361110098e-02,1.269649073680090556e-01,-2.832883434841087511e-01,9.125496692653109476e-02,2.297451624369731826e-01,6.085405076039867023e-01,-1.007133818570572492e-01,-1.425713534543002758e-01,-1.414019083483337991e-01,-1.242407818354472615e-02,-3.956700720093588863e-01,4.037058937734838704e-01,3.057703303016407470e-01,7.312278235166982943e-02,-1.481670887010932795e-02,7.996035614000975011e-02,-2.778377591881639463e-01,-1.246799701661309018e-01,1.654300708256002672e-01,-3.653971671155544776e-01,6.611268075811973510e-01,-3.503565090500453394e-01,-1.182482814735519444e-01,1.457949523023431282e-01,-5.691447971060373812e-01,2.654778122613397073e-01,-1.958560697013143059e-01,1.129953040207660186e-01,-2.580384241923134314e-01,-3.521223577967444451e-01,-4.387037448916337179e-01,-4.993319792826449999e-01,1.351296462461690495e-01,2.792744153737750090e-02,1.680805045486573890e-01,2.317648687895812465e-01,-5.083844967702767503e-01,4.471419694472461570e-01,-4.310942764640708635e-02,-8.095812247258646899e-01,-5.686825192161374526e-02,1.300488379423194729e-01,-4.804206144703805359e-01,-3.018120874637629236e-01,-9.198940370305963565e-02,-2.491191963996394476e-01,3.835646258453347390e-01,3.661655046359038601e-01,-1.658113007269988171e-01,4.144706732907901259e-01,-3.832297303706355338e-03,-1.890147101195506496e-02,1.658654452291985770e-01,-6.092056981156187406e-02,-8.773670787054059783e-01,3.419315065000729792e-01,3.397156111655177252e-02,-1.510071785913570386e-01,-2.265881293246217176e-01,2.168530941013961932e-01,-4.146475409586741212e-01,2.199079144750233986e-03,-2.918102259267437715e-01,-4.211953421410280507e-01,1.849372968118799809e-01,2.263100791923959229e-02,-6.268687782981438028e-01,6.253192538972714987e-01,5.260436331547267697e-02,4.380191548057341122e-02,8.942073588664424533e-02,1.667688633269361898e-01,-4.550099798402837403e-01,-2.243611512160217369e-01,-9.854634892037512917e-02,-1.646861898243339173e-01,-1.096598788159526550e-02,-3.223377060235174674e-01,2.126279281819029865e-01,-3.518754314895894963e-01,1.651779322867376887e-01,5.097466889031737614e-02,1.323357138117915444e-01,-4.023336144009647675e-01,-1.574114404715723503e-02,-1.182095436461092636e-01,3.690347449219739673e-01,-1.029768813177296544e-01,-1.047968263783728704e-02,-2.709467478953240804e-01,8.215086715895989489e-01,3.471815529892045560e-01,-2.049833584410790666e-01,2.184602075916124986e-01,-1.288964368379688641e-01,-2.775022631728904683e-03,-2.252922930555284822e-03,-8.648855405548701303e-02,4.243534390455953598e-01,-2.135610676560967536e-01,-4.237197616317578963e-01,-4.681993178666417066e-01,-1.903244404954197444e-01,3.609350137789670843e-01,-3.796451229637919367e-01,3.535174589948848478e-01,2.395658375239045623e-01,8.570519832728824838e-02,2.717336150824957164e-01,1.154602121550196980e-01,-7.394775846253980323e-01,9.057922338617298286e-02,2.933141694934562893e-01,1.631379775757182959e-02,2.419809319832921246e-01,1.482816288201419530e-01,2.270399497373962183e-01,5.018302366550455584e-01,-1.687718599209537540e-01,-1.327477150123398675e-01,4.061641042460781836e-01,-3.879987041100124712e-01,-3.915955264544773717e-01,-2.783682873994544268e-02,7.184094139957525327e-02,3.899478824159778867e-01,-5.703434690483137615e-02,3.319104993199828990e-01,-1.451219101395521960e-01,1.604522494399162821e-02,-3.149499364925962275e-01,-6.753906126306709334e-02,3.230079344597681645e-01,3.770478667181691168e-02,2.207434189439524130e-01,-3.467227786415775226e-01,-4.551607524734038179e-01,3.155351387906030897e-02,1.936801936597873919e-01,1.514702615512758532e-01,-3.250267898483454876e-01,-2.483720735432398685e-01,-2.291899116015856941e-01,6.228731651008831416e-02,3.640984735915676618e-01,3.359927154844954411e-01,5.146812325169369817e-01,-1.925801381850943128e-01,-1.384865082553162208e-01,-5.235884771946903715e-01,-1.628730686538560901e-01,-4.701625349962282874e-01,-2.376222572121915733e-01,-2.791468393479509258e-01,9.679686102575944806e-02,-1.086980407751620380e-02,5.395318155148230710e-02,5.234526199010937075e-01,1.033870673006475477e-01,-3.598138223650890755e-01,6.946457186297509689e-02,4.949907472344418635e-01,-3.966117517303278939e-02,2.575114935176974762e-01,1.392376723825143048e-01,1.012808068023151598e-01,-5.150783002865653160e-01,2.079549805020082798e-01,1.279200851172063690e-02,3.435414903680417131e-01,-1.557057263437939265e-01,-1.952592825894729212e-01,4.065117746434322998e-01,6.493977919205130567e-01,5.846515933917240115e-01,5.000170014738251067e-01,-1.546210924721470592e-01,-5.418231722622530722e-01,-9.767001499977265300e-02,-4.096454026685255601e-01,6.999934611817773544e-02,-5.834947040370536131e-02,-5.424966585724075863e-01,-2.738156830588620028e-01,-7.658012747682398924e-01,-3.445309059671923246e-01,-2.036185721304218099e-01,2.610225534162943228e-01,3.098253331915098441e-01,-4.803157075210989085e-02,1.308764517971417948e-02,-3.273007509279078908e-01,4.512185215428276067e-03,3.337799295809212863e-01,1.807160583547762767e-01,1.912679405780536301e-01,2.396563908731633996e-01,2.057147591287462884e-01,5.071754142897236806e-01,3.266147606241694840e-02,1.472008946410697239e-01,-3.682301849820419637e-01,-4.545554528008263206e-01,-2.173809546946028626e-01,-7.261354763611627128e-02,2.300724275627415993e-01,4.174289677020979195e-01,3.810973972879184296e-02,1.178877457985510156e-02,1.508511784209623507e-01,2.650148057060901507e-01,1.686758095739760432e-01,1.690686775764414507e-01,-1.377312110221800834e-01,1.531841838871090822e-01,7.574560652275670602e-02,-1.870462046100189735e-01,1.350556592519610577e-01,-1.906457126626772136e-01,2.780821637596156588e-03,-3.929593618697579394e-01,-2.789026960171155367e-01,-7.540032743193406106e-02,-3.567449542718725275e-01,-1.287006756323783307e-01,3.585554863135859138e-01,1.909352758175349440e-01,5.059986141055465847e-01,-6.707874436802573059e-02,1.580679367165385985e-01,6.381251800911579286e-01,-2.861267234014160110e-02,2.431113609505387019e-01,5.623000050054265397e-01,7.932654811902334346e-02,1.137181342693879549e-01,3.621008736160868380e-01,1.677306403844077698e-01,3.927393078627461342e-01,-3.037425896477708442e-01,1.273648065614318980e-01,-7.330464972017217140e-02,4.031762679581968323e-01,-3.121623541716912476e-01,-1.013161006745815912e-01,-2.717832650005860828e-02,7.749983303997366735e-02,1.449006667510912838e-01,-2.302760930384038507e-01,2.914070098829881772e-01,-2.104248554253756176e-01,3.289688864961078929e-01,2.159605326972514339e-01,-3.704206477393558461e-01,-5.453671372720977351e-01,-4.716086822568587023e-01,-3.445606881157470824e-01,-6.330328032732202015e-01,-3.527603451829675607e-01,6.664571218194556002e-01,4.375918361767044962e-02,2.110593057393961580e-01,2.294351787070574300e-01,-4.295955132902351536e-01,-2.515693889205085632e-01,-6.036727681107991739e-01,3.986490860066622122e-01,-1.270482875477050300e-01,-1.581307613991612612e-02,-2.836604940191802537e-01,-2.049991965541294869e-01,2.083561692434178769e-01,-6.792818570399367095e-01,-7.744183872360292653e-02,-1.445250590453791006e-01,8.382077355911805860e-02,1.984351101257747774e-01,1.339037068688240795e-01,1.016419857354355569e-02,2.721605435426865394e-01,-2.464977726746115511e-02,7.817575384132088856e-02,5.718804956013276986e-01,2.912360383299842370e-01,2.854864654881804631e-01,1.020212404403756518e-01,-1.306629364438909868e-01,-3.051281693264011885e-01,-1.227049341469972771e-01,3.495443476085570156e-01,5.937204912521530931e-01,2.493329378933789309e-01,5.622611047286590891e-01,-3.522039169140466774e-01,5.631522365302782385e-01,-3.496249096132405532e-01,-1.376513566919276843e-01,5.545071073975891274e-01,1.049496440526946628e-01,-5.035442720951223139e-01,-3.338150606866318593e-01,1.052085749365502636e-02,-3.302660732347829919e-02,1.237112786192867131e-01,-1.942824965538772763e-01,5.103580160187767834e-02,5.551491999460658744e-02,-6.092495869275237758e-02,2.394542233740137305e-01,7.030957285064552975e-01,6.776264443242184521e-02,2.944751991221556953e-01,-1.203089819497823315e-02,5.201752459482775204e-02,-3.176995215043595389e-01,2.186265287232037335e-01,-6.218499313465005729e-01,-7.916101209405900230e-01,-2.574083390749692946e-01,-2.888222185180221169e-02,-3.516963930560648155e-01,3.021626771222701846e-01,-1.081602504844029894e-01,-3.982263639855340709e-01,2.627453578133521206e-01,-2.534456963746651303e-01,2.519746933738742367e-01,-2.272159416185802194e-01,2.374823678450027065e-01,6.948786353273327387e-01,1.721040327746128085e-01,5.198100021495637851e-02,-5.229610519364298327e-01,2.560788155724847415e-01,1.667321284889383415e-01,9.825637634505642037e-02,1.562150184715802026e-01,-3.793884402766844466e-01,3.575243836137797504e-01,-7.153489397721483900e-02,-4.067509377367419798e-01,8.937319801283670484e-03,3.599548379461996461e-01,-1.931386968402521997e-01,1.685231003220264978e-01,3.716040256806025788e-01,-6.677969205826798926e-02,6.573970449685898054e-02,-9.534626816324674736e-02,-7.906978830570701722e-02,2.140218898676246873e-01,-2.335415135270304254e-01,3.749815535301492253e-01,3.442404980084318167e-01,3.932109771365750739e-02,-3.144070706761303291e-01,5.058380496145485627e-02,1.603463997972453259e-01,-3.894429035659396909e-01,3.191855135589345971e-01,8.217967016448712858e-02,4.747518664034580671e-01,2.637573364209843674e-01,-2.401996193515580913e-01,4.693012040210279845e-01,6.079314501240857815e-01,-3.209927101711351760e-01,6.266400696339899934e-01,-3.146392131429198713e-01,-1.417268658723978281e-01,2.689327843798106077e-02,1.330954287571398942e-01,1.803302804747191068e-01,-4.436924958441466060e-01,-3.806435787413645078e-02,1.156961728161443326e-01,2.012575736828365325e-01,5.975973638194118642e-01,-3.626261737181304401e-01,-9.005029786866680652e-02,1.533040436255089511e-01,3.932990332780402221e-01,4.883322140989072857e-02,7.266361390674019871e-02,-5.536495009046772664e-02,1.698293970074090387e-01,4.550100939523758492e-01,-1.260031985962643264e-01,-3.693361484135768841e-03,4.006915402039823992e-01,-1.990810936178544766e-01,1.320802930421207666e-01,-1.115963458490101118e-02,-2.865526035192820786e-01,-2.071302746017272545e-01,-2.698943042005932935e-01,2.177039826788352422e-02,4.778748971980819604e-01,1.090585996788518558e-01,3.619102753870444000e-01,-2.139111725115929730e-01,3.646805766296852269e-01,1.002367796182432047e-01,2.506036483510678398e-02,-3.697200289464789291e-01,6.152099850546375315e-01,1.873042789373569605e-01,-5.435165847257703020e-02,-1.238945415684033352e-01,1.510550690713081401e-01,-7.440191663696042734e-02,-2.039388948186073303e-01,1.285494637280506225e-01,2.571298504965315868e-01,8.669030752214393343e-02,-2.181817770934727299e-02,1.604356822319538134e-01,-1.337414605037192394e-01,-4.431778198304067717e-01,4.144619370619175847e-01,-1.655673621223515690e-01,2.608670532636399655e-02,-1.944083290707542822e-01,-1.570084446989380988e-01,-2.911386982399396528e-01,-3.811962724311445533e-02,6.044596776099729618e-02,3.102144462342169562e-01,6.783772751007111079e-01,-3.358497546421917446e-01,5.104496175749991815e-01,2.468637246334184909e-01,2.787191517174439914e-01,-1.172353532941996512e-01,-1.728468766546756574e-01,-1.365901624812380089e-01,2.238946722917461302e-02,-1.239064397233592824e-01,-7.384018252283537642e-02,6.102549483373270744e-03,-2.657734125218383925e-01,5.723322432009487343e-02,3.203946370935566168e-02,-2.161032186117253090e-02,-7.368909793459811619e-02,1.049753088899160608e-01,5.134749789170574008e-01,-8.376907244660414253e-02,1.940395191763104668e-03,1.930335207375125928e-01,2.830174226411476535e-01,2.023914502619615363e-01,8.878563897051770792e-02,-6.022325277131611587e-01,-1.863912001077994152e-02,-4.840075675823996004e-01,3.129887709573244137e-01,-8.189525786519764594e-01,2.590802325163338860e-01,-1.977069773774498829e-01,1.413230397692513407e-01,1.108531127878421146e-01,-5.022808533797717967e-03,-8.074998221925873410e-02,3.701971782447825987e-01,-1.116326408422298466e-01,4.151433359303402515e-01,-3.833648537607462492e-01,-1.709750113288383278e-01,-3.226280188851141095e-02,1.204392984622913859e-01,-1.597655772476139213e-01,1.458943685455256767e-01,1.180115410546366400e-01,-2.568005493496477998e-02,2.529803368020909493e-03,-1.635810220078021404e-01,1.953298247822620182e-01,3.549562600618156316e-01,6.691406402485488014e-01,-3.539319813443614904e-01,6.394934704845915696e-03,5.083955719718685762e-01,-4.270980614857652902e-01,1.811696464842182767e-03,-3.207132535877180168e-01,2.229294193552836811e-01,5.525612037008390542e-01,5.394245619005563763e-02,-6.356011929308966971e-05,-1.758300583116192417e-01,3.073668551045416475e-01,-1.098607220878447949e-01,3.934461502862705573e-01,-1.255237370243161843e-01,-3.797425350091716001e-01,3.236450793124664993e-01,-3.016120164899246392e-01,1.822777217560810903e-01,-3.704096599219624530e-01,-7.523967975893464111e-02,-8.632946824171230937e-02,2.940401269994763478e-01,1.824906731479850608e-01,3.105950638460555080e-01,1.446470755027843003e-01,-6.942980684422768167e-01,2.205160262885941941e-02,5.794797595959823300e-02,-2.576671046683629007e-01,8.730105624578261836e-02,-1.809299670265401283e-01,-3.361404424432262728e-01,-8.560188412082749831e-01,9.461835336700355481e-02,2.270981571701678192e-01,1.403774649700799126e-01,-3.953103801048784560e-01,2.237321929864213021e-01,1.496944605798680716e-01,-4.832399540510321501e-01,-1.259481705304849042e-01,-2.502586107628074763e-01,1.523157588479021884e-01,-2.083529751079728487e-01,1.803138567756452648e-01,-1.339135962553753348e-02,-4.561575658149616963e-01,4.148851671472720271e-01,-3.466640770816191708e-01,7.235674869145412025e-01,3.069170097584940082e-01,-4.388983461408114684e-01,-1.930658399983478657e-01,2.496301689490868503e-01,1.008788583686255347e-01,-4.868934004436661911e-02,4.178248623693570640e-01,-4.458422586660572562e-01,-1.851936476742469528e-01,3.033212057659120386e-01,-3.796711798934113147e-01,4.333155867224274677e-02,2.283939725839687351e-01,-8.301834086277616598e-02,-3.103172695150681615e-01,3.743259123423360313e-01,-4.753977811525672559e-02,-7.198772046568048533e-02,5.739388209786552286e-01,-1.260267847959475607e-01,-1.187891277221529152e-01,-4.122490225243956308e-02,-1.914171892811305231e-01,-4.019345867840105058e-01,-2.604496757810077501e-01,-3.483888319935537492e-01,-2.528212573672644625e-01,-1.410818250614349900e-01,3.954226655308110822e-02,1.722871239387493425e-01,-2.262870110234031507e-01,4.244427506983501353e-01,-8.883044071585285972e-02,3.163453200118404585e-01,-1.593001329336401761e-01,1.239486194177656132e-02,1.412436252322150920e-01,2.506896629069377269e-01,1.963968281911638025e-01,-1.190231346238656979e-01,-3.411710186252249755e-01,-1.555678216943098824e-01,-2.639152982080852916e-02,2.408723442323576769e-01,-2.493946399586622065e-01,-1.119086633080674936e-01,-4.956839926316564116e-01,-1.128467101719744653e-01,3.260615636970700670e-01,1.481051483242744049e-01,4.644945387650342705e-01,5.646980758589311700e-01,-1.040340394821076542e-01,-1.050107546363890365e-01,-1.361008777504627842e-01,2.735126401389547102e-01,1.557127902974036193e-01,5.565627075807171725e-02,-1.260171249654654380e-01,-5.565483366295365109e-01,-1.384879463845185670e-02,-1.225791036352375241e-01,-4.046980964627795996e-01,5.259699976632549456e-02,3.594265294512449249e-01,3.903068324679166978e-01,2.256346191509689125e-01,-3.962335070068648268e-01,2.460031833262907863e-01,1.206838390300900635e-02,1.809760895271404213e-01,6.742013543742010617e-02,4.049204653114329422e-01,-2.543790426398081506e-01,2.403610574535086641e-01,-1.628634950402990944e-01,5.192460551614382913e-01,-2.291879923030718802e-01,6.287005287268290776e-02,5.508900733419845874e-01,-1.278034399423877421e-01,-1.482538517128894305e-02,-3.046596901202996976e-01,-1.346549811558611087e-01,1.170296662913977020e-02,-6.601068408066410043e-02,-3.480046070562054505e-01,-2.710704767131554699e-02,4.572837511517323650e-01,2.625056442950008395e-01,2.036538049015880203e-01,4.199397235496106218e-01,-6.748510990002861698e-01,-1.040263061293741492e-01,3.424743025887798664e-01,-2.931469269411725587e-01,-2.473346611777580695e-01,-1.489642250193633048e-02,5.930846906457540313e-02,-1.146964552304472335e-01,-1.122677218151333089e-01,3.232118742140407397e-01,-2.838094134233272725e-01,-2.879741827896405842e-02,2.045765396051542895e-01,-4.062183616210675585e-01,-1.890179586501140596e-01,-1.831991348007086240e-01,3.518552067570442921e-01,-1.872574262016746816e-01,-5.216349568297469208e-01,2.380671576244371146e-02,-1.501832747230933685e-01,1.197980872161530652e-01,2.211332342418310670e-01,-1.519024104952466370e-01,2.439947768347533463e-01,-1.034741851815609570e-01,1.456587568229870955e-01,-7.195028507345657687e-01,6.878561414338021929e-02,-3.114630295891578915e-01,-1.777343356834951704e-01,4.657278614328115851e-01,3.337729989739619541e-01,-2.922543396858360842e-01,5.184437934016011135e-02,-1.844016716390483104e-02,-5.324259189970216577e-02,-6.182403333485107094e-02,-3.755863881617501621e-01,4.265558568321878297e-02,4.035018595850843950e-03,-2.595408446908057387e-01,1.772632779002124015e-01,3.918865434624073107e-01,-3.341982751762544446e-01,-3.092297897478890611e-01,-4.651007223813031222e-01,-1.412795964295996375e-02,9.208796194298521365e-02,1.404129403789716457e-01,3.710358102785825674e-01,3.240441669744357212e-01,-1.439468734843479536e-01,-2.892788981537037715e-02,-1.055934009180662242e-01,-7.744780834075941645e-01,1.131925654858447622e-03,7.184603023997582043e-03,-1.254957807403793979e-01,2.124462612465766731e-01,2.678456003231159954e-01,-1.179734207239535593e-02,1.728703693741387992e-01,-3.904560108419965481e-01,7.593142144760897660e-02,5.178885096373250230e-01,-3.114121168608758872e-01,3.302358117249273861e-02,5.032948118194137399e-03,-7.077629902009831275e-02,-6.299644974845197698e-02,-5.352556200757567495e-02,-6.329816493074805206e-02,6.742183105393277642e-02,5.453458712502038536e-02,2.592927270910928006e-01,3.023524119327113818e-02,-3.841628525740125588e-01,-1.009565470566645418e-01,3.070319421824614925e-01,-2.143150228987345529e-01,-1.308382419248837747e-01,1.409223410330463222e-01,6.534456779885990940e-01,5.197078258116519245e-02,-1.495784349119544110e-01,6.730203574895890495e-02,-1.529512926369423764e-01,-4.476382159852501652e-01,-2.482404646499700995e-01,2.436389598111342869e-01,-1.773384297538765364e-01,-1.214375848456880208e-01,4.235232953116366827e-01,-4.888899712922743779e-02,3.787526953962862541e-01,3.282454836245519703e-01,5.934772400746067822e-01,-3.720744553768455254e-01,-1.338706150212838619e-01,-5.507705558938856827e-01,1.506669447254918304e-01,2.072046563312771039e-01,1.521044936216227050e-01,1.063690646977504123e-01,1.436260798537040417e-01,1.074096167423331805e-01,4.357294438169938555e-01,2.273199488546613356e-01,-2.878489130060261081e-01,1.619843551015253402e-01,6.665165241361045712e-02,1.961919009105792533e-01,-1.027891204827636601e-01,1.989551765849713605e-01,7.012390355929147556e-02,-1.081532634429299977e-01,-3.982127315706090465e-01,3.419854723898776983e-01,-2.258517382951751584e-01,2.029580764254337866e-01,-9.573697522847782193e-02,-7.142966759553180944e-01,5.950210772108185386e-01,-3.079797037177948726e-01,1.993426817522324923e-01,-1.658107142910968390e-01,-8.897998512949735483e-02,2.113434756490041033e-01,5.430957606306586749e-01,-3.867423504731558603e-01,1.929640253748647893e-01,-2.059069075086303602e-01,3.200789684980526184e-01,-4.001637885208209067e-02,-4.407925111408061980e-01,3.153532006587130287e-01,-6.106930583661638323e-01,5.414446991946865462e-02,-1.488475902610244539e-01,-5.291961210716564223e-02,-1.231788952968757185e-02,3.735514617121291070e-01,4.998877986099688198e-02,3.355944067678626186e-01,5.451045287745699686e-02,-3.422225391969025421e-01,9.327173057856727456e-02,-3.315990417775876442e-01,3.496778000917256657e-01,-1.803949448843755465e-01,-1.083007342103407544e-01,-1.875928191583018864e-02,-4.071025449846640831e-02,-9.466094787207456063e-02,-4.350015397222589675e-01,-1.093185846631957031e-01,4.834278106247982820e-02,1.888137577618444196e-01,6.319211919747667050e-01,3.083846790093365264e-01,-1.748966777048448218e-01,-1.655600864559279017e-01,-3.944976506577242692e-02,-3.836789544203895730e-01,3.967468741660840070e-01,-7.984292761747953382e-02,-5.878164519064853488e-01,2.377143028914421516e-02,-7.654726786627513713e-01,-1.637961954569575884e-01,1.441108312534543634e-01,-4.227566941345162754e-01,-4.599909954248496136e-01,-3.496238005747665661e-02,-5.648174163520355284e-01,1.678323007289032887e-01,7.618716931209594534e-02,-1.756815910740514020e-01,-1.580608859931846924e-02,1.348080137312896165e-01,-4.988924251107762498e-01,-5.773250480387592809e-01,3.100567269779020418e-01,1.150108603114917277e-01,-2.763363598509696595e-01,1.469512541159055385e-01,-5.267723301255263779e-01,2.222928685752543765e-01,6.825571836972908757e-02,-2.743716562723818031e-01,2.048472809330405542e-01,-1.938953420306003816e-01,4.023381796416755640e-02,-3.142350744478382141e-01,-3.689766749859443307e-01,4.485945858437473399e-01,4.858174442054916109e-01,-1.870283192169163722e-01,-5.050628272834690735e-01,-3.592845768446006338e-01,-1.957345282859797309e-01,3.670962997549569451e-01,2.109159139894671298e-01,-2.600153772716501388e-01,1.783216304788014794e-01,2.729302632566064646e-01,6.517403179008385283e-01,-3.908295799390943404e-01,-2.769938226665640268e-01,1.577401496259147329e-01,2.711329693913459016e-01,-9.354844663249159420e-02,-5.397400597212952400e-01,1.566823853748562090e-01,5.438582780798189437e-02,2.509628056415246222e-01,4.036766737949580297e-01,-5.771814639794588253e-02,-2.986320408283064665e-01,2.551683232378853527e-01,-5.538296952265685524e-01,7.038272637848864699e-01,2.945128477988993021e-01,-1.040027110390279175e-01,-3.545690929210922326e-01,6.994230934293524937e-01,-1.946903715262262580e-01,1.449521975638735360e-01,3.313561924625073041e-01,-6.634945881800762280e-01,-5.438787064430374851e-01,7.522805295306955742e-02,-4.229380846804230432e-01,-1.667454086373110211e-01,3.917124976927232605e-01,4.555174838649739266e-02,4.261183897768304751e-01,2.462536595778265502e-02,3.164749270104748324e-02,-1.327347161332281811e-01,2.118882706313443276e-01,-3.626504220679513391e-01,-6.618485343128415188e-01,2.920007076165704318e-01,6.341469735251368256e-01,2.342974707869058815e-01,-2.704923531136292358e-01,-1.168287681369735431e-02,1.537543588656518356e-01,2.808078980617196851e-01,-3.789280833603737575e-01,-3.050973215242892556e-01,5.542686641993543883e-01,-9.134866629578074215e-02,2.580728176753270264e-01,3.999065465516011830e-01,-1.963113727015984300e-01,3.546145929498511484e-01,5.008922608639898577e-02,1.403449861506481655e-01,3.090157179142936084e-01,1.424515338286229948e-01,2.035799670020642382e-01,-1.165827985818063267e-01,-9.916145253204998455e-02,-1.160312664685209383e-01,2.753338726294958169e-02,-4.841973570079853850e-01,3.303115688702784603e-01,1.821711135019720429e-01,-1.966489801906224633e-01,-6.607504234191352577e-02,-1.631013151070766914e-02,-4.077294090138902649e-01,-3.034839004561964981e-01,-3.690937733677906452e-01,6.238148278610187170e-01,1.634557860442417965e-01,3.029817923686013992e-01,-2.497214041317722677e-01,-7.376943182848616498e-02,-1.147115068277818339e-01,3.299721657380928486e-01,-2.029398357429012256e-01,6.598979020119452588e-02,4.066573381237232332e-01,-3.320021393583955094e-01,3.792986341103597031e-02,-4.581260276521526009e-02,-2.807096595668900352e-01,-1.639920653452529575e-01,9.377867583823075448e-02,-5.468930006222740836e-01,-1.126473125094681060e-01,-6.319268950767814585e-02,-4.215659800432344784e-01,-2.382520031241450349e-03,-6.667126175923583364e-01,-1.196923751087693166e-02,1.010947165404238179e-01,2.009959317001781542e-01,-1.926256024719749105e-01,2.547678122989770547e-02,2.773554419552171635e-01,-4.476382637353429339e-02,4.240636938174226489e-01,2.312742385821053015e-01,-3.485970100630820384e-02,5.888007327235660754e-02,-1.169054178192306670e-01,-4.390310755138857601e-01,-3.415267579188744906e-01,-1.926668643151507182e-02,-1.927005671477386162e-01,3.553612565368624021e-01,5.163786677086718707e-02,2.857609437009480668e-01,-2.679904733415462426e-01,-6.140774193213560661e-01,4.505411072675626766e-03,-2.981283485497718821e-01,1.557167373015413969e-01,-4.166347720037807401e-01,2.734242142739286008e-01,1.502463412630223281e-03,-7.580813406084790929e-02,-1.618987942560102811e-01,5.106785443264740820e-01,-5.143468702946997206e-01,2.363857502834040836e-01,-2.951286472902054925e-01,-4.052422148644949096e-01,9.839077196269491177e-02,-4.925519297140130703e-01,-2.364149168710000526e-01,-4.138412830866312064e-01,2.360470438960249051e-01,2.940236999524284967e-01,-3.176036801375689556e-01,-4.592259212956811831e-01,-6.690654878861440960e-03,5.953436637254403418e-01,2.578680918704212566e-01,-4.670519703139634493e-01,2.359519462911524243e-03,-2.825820778557640578e-01,-2.535092830277967946e-01,-6.022051168660353948e-01,1.897882662884156635e-01,-2.277046596862392427e-02,9.627379057586138433e-02,-4.789326831798748629e-01,1.154209131130261995e-01,3.601817065142446928e-01,-7.907466379363192743e-02,1.422958348239683202e-01,-3.269113553715442561e-03,3.698391503435402572e-01,4.544472327348765273e-01,-1.275893787034379223e-01,8.346034160129739421e-02,1.784373045110806966e-01,3.408009198384814864e-01,3.753992745535104925e-02,-1.180249298107477890e-01,-4.431154974386240508e-01,4.972631333468064962e-01,1.181490227571811713e-01,-9.302682048018651173e-02,-3.647217062294925150e-01,-6.831792586873434991e-02,-2.594242272127780247e-01,-1.444379830014474453e-01,-2.175490161985655646e-01,-1.856775511977995230e-01,-1.931268832743427977e-01,4.546808188483784097e-01,3.507341388438012242e-01,-1.189567076751133906e-01,2.755704295436262052e-01,2.651559486333379678e-01,3.662943962928356667e-01,-9.635526349342458940e-02,2.162160200638588436e-01,7.329955736025973653e-03,-4.548228995674160613e-01,-4.845388116721342092e-02,-3.830736652212525795e-01,-3.278990511282569575e-01,-3.347000374542591101e-03,-2.755096515447212346e-01,6.266398445811847961e-02,3.668260090546488720e-03,2.296063073866475290e-01,-3.440149358426109472e-01,-3.707219766362410823e-02,-4.562892478139673469e-01,2.077038939007515572e-01,3.524559260137362093e-01,5.697069983381074232e-02,6.130979520631972823e-01,-3.081273191651298649e-01,-3.646652005976521727e-01,1.525792955611357873e-02,-2.313536658045354799e-01,-3.421217846814158525e-01,9.281066275918263830e-01,-2.429938445762899746e-01,1.039230757205585748e-01,-2.915127532696557555e-01,-2.235969131157741485e-01,1.640282262576727712e-01,-4.898660139118637402e-01,-5.287193891911019100e-02,-1.237433562421385615e-02,2.419683018061473678e-01,-3.854557100945574799e-01,3.046204736298811500e-01,4.503969145611694813e-01,-4.383780424872956161e-01,2.086236479424468521e-02,-1.969819679752538855e-01,3.251304180616010342e-01,-3.630152790220078085e-01,-1.703358913810412711e-01,4.933774578315555659e-02,3.395609894343080692e-01,1.701712263601716166e-02,2.131403269015149371e-01,4.567288634055980401e-01,-2.642598019777415153e-01,5.094538394297679074e-02,1.750279625245572748e-02,4.334256334291869406e-01,9.851366091977385719e-02,1.337454231379444913e-01,-5.466917886884837402e-02,1.013556381551007218e-01,-6.607781948225219248e-02,-5.624920910490919246e-01,4.315681339882901923e-01,4.567303724867973203e-01,1.728062677437522399e-01,-3.473873165622114456e-01,3.636128688186175961e-01,-3.342445550514992481e-01,5.472656368181048059e-01,-3.331069217569579965e-01,1.393345720989770109e-01,-4.243791264315814327e-01,5.071538181049648486e-01,-2.781461717962317465e-03,-1.384027506880226854e-01,-1.270900052828415616e-01,2.262273422937708667e-01,1.146758278949467635e-01,-2.101724772195469326e-01,-2.946201606991752930e-01,-2.385634520566690675e-01,7.860814568560153814e-01,-1.839969031301799396e-01,-2.746048097451321279e-01,-1.854306907434339902e-01,-7.881515429331935330e-02,1.405146894687675507e-01,3.920833557169229461e-02,-2.126376260289150055e-01,5.736466151632401145e-01,-4.118326563585250066e-01,3.142786135030274375e-01,-1.216799063101891079e-02,-3.360506168638335844e-01,2.122855707105885115e-01,2.517397961437055076e-01,-5.417060063445308660e-02,-2.352353713772147026e-03,6.667435251490246850e-01,-2.740093420793277001e-01,-8.548444183479517178e-02,2.194513161177927968e-02,-1.642082159888102744e-01,-3.073929682476415903e-02,2.587263401756638714e-01,6.388248913577272425e-01,-4.767244666359954919e-01,1.003306426539334190e-01,-1.611457825816891010e-01,-6.778619694669310025e-01,-7.642395856971413437e-01,-1.932430462632391266e-01,3.202362415168785725e-01,-7.208440676721108824e-03,-7.264395712411692019e-01,3.652551779443379276e-01,-2.080435932381188291e-01,1.130258240249036178e-01,2.954751586289067894e-02,8.638388919699092616e-01,2.753753030562272053e-01,-3.033939471597061135e-02,1.195434355170278407e-01,1.192917289548608706e-01,-4.932495827015047352e-02,5.770450363805392641e-02,2.365553977115605888e-01,4.583484215593239264e-01,-5.016878134095162922e-01,-3.511810885339358146e-01,5.973953341949869156e-01,1.045620097834717710e-01,-6.144613159953751236e-01,3.259826214944129275e-01,1.089950168064164615e-01,1.921447968161364983e-01,-6.139003008818765261e-01,2.321303591244145426e-01,-3.580195498047735736e-01,4.768765230046689146e-02,1.375061095075243989e-01,-1.960285613026408608e-02,-3.802195807901861957e-02,1.254436670214494065e-01,-5.503245328825253635e-01,3.388079745331870618e-01,-3.413464551826379534e-01,-7.354018998651608297e-02,-5.606486221966892891e-02,-2.099486233895386800e-03,-3.504664002500768594e-01,-1.723256967158544872e-01,-2.678608824484552953e-01,1.602082547100261156e-01,-1.385266243153145393e-01,2.464390882566077912e-01,5.417418637436794970e-01,2.636873672092703846e-01,-2.914070312857351408e-01,-3.816675947453117002e-01,2.810533741169107813e-02,-1.450337303162884950e-01,6.498056029692683699e-01,8.882777486569314040e-02,-5.972236771722059384e-02,-1.003348164131870335e-01,8.735548434855433531e-02,1.951401431228411976e-01,3.177334347554358063e-01,3.175104610200906730e-01,8.518875453717998925e-01,-4.618093958868486615e-01,-6.061276380371245776e-04,-9.086922633991269260e-02,-3.514029351429476811e-01,1.722488515013066157e-01,-7.614221219994643519e-02,4.333174842328187393e-01,1.642262908754636153e-01,-4.442538627103310156e-01,-2.706739157889113678e-01,-1.635878519159921773e-01,-1.902085372931104357e-01,-1.634232264771342258e-01,5.447184529855105678e-02,3.275833508994131088e-02,4.428864994124193100e-01,3.312901640606184528e-01,1.350803925906493008e-01,-1.905729365419873145e-01,1.106980207488517803e-02,-2.142807693887046894e-01,6.312063433770439547e-01,-2.815504637809269628e-01,-5.632367898965614378e-02,-1.355979663366950472e-01,9.854187395350921808e-02,1.068185503712943962e-01,-4.915739740659308410e-02,1.531579579155897819e-02,3.607634033096775994e-01,-1.522078459385189930e-01,-2.273939170415581468e-01,1.322778677126741631e-01,1.652332120789962167e-02,1.077252429490163123e-02,-1.718897072726830455e-01,6.319155679544705695e-01,-2.909289632821203120e-01,6.564248528919859327e-01,-3.202421166516420392e-01,-2.256507544103921181e-01,1.751446443826353283e-01,-2.141710113532396820e-02,3.193586621469235998e-01,-2.105264561661039646e-01,-5.781406149724859465e-03,3.722829696012199263e-01,-3.218914603750739900e-01,1.649609469914606052e-01,-2.007046755498524682e-01,-1.934231016557872995e-01,-4.897114089556061645e-01,5.145755880266124072e-01,-1.818328325026906667e-01,7.163378362489442042e-01,-5.138058573713240040e-01,-1.540399790197240215e-01,9.868970796304323001e-02,4.928571665136366464e-01,5.028290585644314137e-02,1.839779642259154468e-01,6.374307701213751676e-01,-2.838665586068923052e-01,-3.354501236835181754e-01,9.132913644416909560e-02,-2.728089972663330087e-01,3.830030136808035973e-02,-2.061704316604125176e-01,-2.947255513886976042e-01,-2.121685551863713992e-01,2.316083055044233091e-02,8.745192885469524335e-02,